{
  "name": "het04_agent_s2",
  "config": {
    "method": "agent_fed",
    "backbone": "retfound_mae_vit_large",
    "seed": 2,
    "epochs": 20,
    "rounds": 40,
    "local_epochs": 1,
    "batch_size": 8,
    "lr": 0.001,
    "fedprox_mu": 0.0,
    "loss": "balanced_bce",
    "positive_dropout": 0.0,
    "train_label_noise": 0.0,
    "image_size": [
      224,
      224
    ],
    "device": "cuda",
    "lora_rank": 8,
    "lora_alpha": 16.0,
    "require_retfound": true,
    "num_workers": 8,
    "pin_memory": true,
    "persistent_workers": true,
    "use_data_parallel": false,
    "agent_aggregation": "agent",
    "agent_tau": 0.03,
    "agent_geometry": false,
    "agent_noisy_clients": [
      2,
      3
    ],
    "agent_client_noise": 0.4,
    "agent_adaptive_mu": false,
    "agent_mu_max": 0.1,
    "agent_mu_tau": 0.05
  },
  "result": {
    "config": {
      "method": "agent_fed",
      "backbone": "retfound_mae_vit_large",
      "seed": 2,
      "epochs": 20,
      "rounds": 40,
      "local_epochs": 1,
      "batch_size": 8,
      "lr": 0.001,
      "fedprox_mu": 0.0,
      "loss": "balanced_bce",
      "positive_dropout": 0.0,
      "train_label_noise": 0.0,
      "image_size": [
        224,
        224
      ],
      "device": "cuda",
      "lora_rank": 8,
      "lora_alpha": 16.0,
      "require_retfound": true,
      "num_workers": 8,
      "pin_memory": true,
      "persistent_workers": true,
      "use_data_parallel": false,
      "agent_aggregation": "agent",
      "agent_tau": 0.03,
      "agent_geometry": false,
      "agent_noisy_clients": [
        2,
        3
      ],
      "agent_client_noise": 0.4,
      "agent_adaptive_mu": false,
      "agent_mu_max": 0.1,
      "agent_mu_tau": 0.05
    },
    "model_info": {
      "requested_backbone": "retfound_mae_vit_large",
      "actual_backbone": "retfound_mae_vit_large",
      "is_retfound": true,
      "checkpoint_path": "/home/tiger/.cache/huggingface/hub/models--YukunZhou--RETFound_mae_natureCFP/snapshots/556830f78214f0e8da35af965292ac5a3180ac47/RETFound_mae_natureCFP.pth",
      "lora_rank": 8,
      "lora_alpha": 16.0,
      "trainable_params": 1226798,
      "total_params": 304528430
    },
    "train_loss": [
      1.2738339477529128,
      1.9167848214507104,
      1.771947427218159,
      1.7951249837875367,
      1.4913605521743496,
      1.7993433885276318,
      1.6912083119774857,
      1.7189854644238949,
      1.6394517736509442,
      1.740416458559533,
      1.7173475737373036,
      1.7892275766469539,
      1.8454561330688497,
      1.6526476671919226,
      1.5626472273531058,
      1.7439649662313363,
      1.8820670009280245,
      1.7398402187197157,
      1.9630358924002698,
      1.7626617326245955,
      1.9735442676271,
      1.9804667071284103,
      2.044196849355164,
      2.0733724144132184,
      1.936875152060141,
      2.241856931646665,
      2.2230227108113465,
      2.1003352019159744,
      2.181056408064129,
      2.287575923434148,
      2.5053606068637846,
      2.402269099738138,
      2.4151023140875623,
      2.436783220483145,
      2.5946471713638557,
      2.4241726010106506,
      2.396261035821711,
      2.593777380363705,
      2.3888870966756564,
      2.666037080062476
    ],
    "comm_bytes_upload_per_round": [
      19628768,
      19628768,
      19628768,
      19628768,
      19628768,
      19628768,
      19628768,
      19628768,
      19628768,
      19628768,
      19628768,
      19628768,
      19628768,
      19628768,
      19628768,
      19628768,
      19628768,
      19628768,
      19628768,
      19628768,
      19628768,
      19628768,
      19628768,
      19628768,
      19628768,
      19628768,
      19628768,
      19628768,
      19628768,
      19628768,
      19628768,
      19628768,
      19628768,
      19628768,
      19628768,
      19628768,
      19628768,
      19628768,
      19628768,
      19628768
    ],
    "total_upload_bytes": 785150720,
    "agent_weight_history": [
      {
        "0": 0.49999999999999983,
        "1": 0.4999999999999997,
        "2": 3.327603829793634e-16,
        "3": 1.3997815588405146e-16
      },
      {
        "0": 0.4999999999999995,
        "1": 0.49999999999999933,
        "2": 4.592595725096669e-16,
        "3": 6.764852573542857e-16
      },
      {
        "0": 0.49999999999999994,
        "1": 0.49999999999999994,
        "2": 2.344462373614235e-17,
        "3": 1.3832581684597316e-16
      },
      {
        "0": 0.49999999999999883,
        "1": 0.49999999999999656,
        "2": 4.623221464443735e-15,
        "3": 9.18971829834416e-22
      },
      {
        "0": 0.4999999999999998,
        "1": 0.4999999999999985,
        "2": 6.025534716655072e-18,
        "3": 1.7593731451645501e-15
      },
      {
        "0": 0.4999999999999996,
        "1": 0.4999999999999996,
        "2": 2.389774067371551e-21,
        "3": 8.320627847340246e-16
      },
      {
        "0": 0.4999999999999994,
        "1": 0.49999999999999967,
        "2": 9.20896410794237e-16,
        "3": 2.3647237901840916e-21
      },
      {
        "0": 0.5000000000000001,
        "1": 0.49999999999999983,
        "2": 2.3453761074149378e-17,
        "3": 1.716900644758627e-16
      },
      {
        "0": 0.5,
        "1": 0.4999999999999999,
        "2": 9.938472556474112e-19,
        "3": 6.71762877985089e-17
      },
      {
        "0": 0.4999999999999991,
        "1": 0.4999999999999997,
        "2": 1.174543208229356e-15,
        "3": 3.1271010027583615e-20
      },
      {
        "0": 0.49999999999999967,
        "1": 0.4999999999999989,
        "2": 1.503945982725306e-15,
        "3": 3.8268790404002103e-19
      },
      {
        "0": 0.4999999999999998,
        "1": 0.5,
        "2": 1.7940112895005841e-16,
        "3": 1.4419224417962622e-17
      },
      {
        "0": 0.4999999999999974,
        "1": 0.4999999999999957,
        "2": 6.906645606760848e-15,
        "3": 2.5512721718461035e-22
      },
      {
        "0": 0.5,
        "1": 0.5,
        "2": 4.842335773678535e-17,
        "3": 1.1373515266187552e-17
      },
      {
        "0": 0.49999999999999933,
        "1": 0.4999999999999993,
        "2": 1.043218682568774e-16,
        "3": 1.2892136155504449e-15
      },
      {
        "0": 0.5,
        "1": 0.5,
        "2": 8.550555530973071e-18,
        "3": 1.1770242837557686e-18
      },
      {
        "0": 0.5,
        "1": 0.5,
        "2": 7.515433126331836e-18,
        "3": 1.9496087433862814e-18
      },
      {
        "0": 0.4999999999999998,
        "1": 0.4999999999999999,
        "2": 2.9953859725912526e-18,
        "3": 3.499698725064836e-16
      },
      {
        "0": 0.49999999999999994,
        "1": 0.49999999999999994,
        "2": 1.3822711986083375e-16,
        "3": 3.837904325548057e-18
      },
      {
        "0": 0.5,
        "1": 0.5,
        "2": 2.447347000170782e-19,
        "3": 4.418050062543512e-17
      },
      {
        "0": 0.5,
        "1": 0.5,
        "2": 1.2757381768634508e-17,
        "3": 3.2549416813087996e-20
      },
      {
        "0": 0.49999999999999967,
        "1": 0.4999999999999986,
        "2": 3.9955661331925354e-20,
        "3": 1.816189747996472e-15
      },
      {
        "0": 0.5,
        "1": 0.5,
        "2": 5.660095243722878e-18,
        "3": 1.3485676404875612e-18
      },
      {
        "0": 0.499999999999999,
        "1": 0.4999999999999998,
        "2": 8.242928131840521e-20,
        "3": 1.16776533265926e-15
      },
      {
        "0": 0.49999999999999983,
        "1": 0.4999999999999994,
        "2": 1.0239610655514663e-18,
        "3": 7.939804969847805e-16
      },
      {
        "0": 0.5,
        "1": 0.5,
        "2": 1.7447660740979415e-20,
        "3": 6.489539234159517e-18
      },
      {
        "0": 0.4999999999999995,
        "1": 0.49999999999999967,
        "2": 8.35802760814883e-16,
        "3": 2.6793301687994246e-23
      },
      {
        "0": 0.5,
        "1": 0.5,
        "2": 7.67944733487855e-18,
        "3": 2.5557639717961734e-19
      },
      {
        "0": 0.4999999999999989,
        "1": 0.4999999999999994,
        "2": 1.783846650281842e-15,
        "3": 1.384076804114043e-20
      },
      {
        "0": 0.5,
        "1": 0.5,
        "2": 2.7087750288827067e-19,
        "3": 2.9616615587143426e-18
      },
      {
        "0": 0.4999999999999992,
        "1": 0.4999999999999996,
        "2": 2.228858908558691e-22,
        "3": 1.1302911963023725e-15
      },
      {
        "0": 0.4999999999999999,
        "1": 0.4999999999999999,
        "2": 4.341366749661679e-20,
        "3": 2.1846683828150414e-16
      },
      {
        "0": 0.4999999999999997,
        "1": 0.4999999999999997,
        "2": 5.401527447257722e-16,
        "3": 1.3793608892576031e-18
      },
      {
        "0": 0.5,
        "1": 0.5,
        "2": 4.566131110241258e-17,
        "3": 2.0234914144333442e-17
      },
      {
        "0": 0.5,
        "1": 0.5,
        "2": 1.270872175563595e-19,
        "3": 9.824349055590347e-18
      },
      {
        "0": 0.49999999999999983,
        "1": 0.49999999999999983,
        "2": 9.069098826587406e-19,
        "3": 3.4975360553647034e-16
      },
      {
        "0": 0.5,
        "1": 0.4999999999999999,
        "2": 7.123677368044609e-17,
        "3": 9.64333906012902e-19
      },
      {
        "0": 0.49999999999999994,
        "1": 0.49999999999999994,
        "2": 2.7771902659895427e-17,
        "3": 6.744841842885574e-17
      },
      {
        "0": 0.5,
        "1": 0.5,
        "2": 4.365547898780805e-19,
        "3": 2.57614516216932e-17
      },
      {
        "0": 0.5,
        "1": 0.5,
        "2": 2.8107474077071236e-17,
        "3": 2.300350834296814e-18
      }
    ],
    "agent_probe_history": [
      {
        "0": -0.22348901629447937,
        "1": -0.2428695559501648,
        "2": -2.339627265930176,
        "3": -2.365605354309082
      },
      {
        "0": -0.2378900945186615,
        "1": -0.2524283528327942,
        "2": -2.3182356357574463,
        "3": -2.30661678314209
      },
      {
        "0": -0.23260699212551117,
        "1": -0.22854624688625336,
        "2": -2.4352824687957764,
        "3": -2.382033348083496
      },
      {
        "0": -0.24184207618236542,
        "1": -0.2604115903377533,
        "2": -2.1992838382720947,
        "3": -2.662216901779175
      },
      {
        "0": -0.17264455556869507,
        "1": -0.20796793699264526,
        "2": -2.3751094341278076,
        "3": -2.204808235168457
      },
      {
        "0": -0.17661899328231812,
        "1": -0.17908139526844025,
        "2": -2.603663921356201,
        "3": -2.2208499908447266
      },
      {
        "0": -0.18195126950740814,
        "1": -0.17111261188983917,
        "2": -2.2176334857940674,
        "3": -2.603806734085083
      },
      {
        "0": -0.16155926883220673,
        "1": -0.20155012607574463,
        "2": -2.3977315425872803,
        "3": -2.3380117416381836
      },
      {
        "0": -0.15702587366104126,
        "1": -0.2123546153306961,
        "2": -2.5315232276916504,
        "3": -2.405118465423584
      },
      {
        "0": -0.16599538922309875,
        "1": -0.14935947954654694,
        "2": -2.1870803833007812,
        "3": -2.503091335296631
      },
      {
        "0": -0.14645709097385406,
        "1": -0.1649509221315384,
        "2": -2.171203136444092,
        "3": -2.41949462890625
      },
      {
        "0": -0.16554538905620575,
        "1": -0.10951904952526093,
        "2": -2.2993710041046143,
        "3": -2.375002861022949
      },
      {
        "0": -0.17407305538654327,
        "1": -0.18243719637393951,
        "2": -2.0972259044647217,
        "3": -2.6106455326080322
      },
      {
        "0": -0.2559624910354614,
        "1": -0.1426212638616562,
        "2": -2.4683666229248047,
        "3": -2.5118274688720703
      },
      {
        "0": -0.1327526569366455,
        "1": -0.13388130068778992,
        "2": -2.224806308746338,
        "3": -2.1493771076202393
      },
      {
        "0": -0.11171618103981018,
        "1": -0.14617100358009338,
        "2": -2.4626142978668213,
        "3": -2.522104501724243
      },
      {
        "0": -0.1513238549232483,
        "1": -0.14576075971126556,
        "2": -2.4755094051361084,
        "3": -2.515989303588867
      },
      {
        "0": -0.12478982657194138,
        "1": -0.10680898278951645,
        "2": -2.3613452911376953,
        "3": -2.218522071838379
      },
      {
        "0": -0.15327759087085724,
        "1": -0.14082583785057068,
        "2": -2.3027467727661133,
        "3": -2.4102659225463867
      },
      {
        "0": -0.12764734029769897,
        "1": -0.12078439444303513,
        "2": -2.501429319381714,
        "3": -2.345553398132324
      },
      {
        "0": -0.10900485515594482,
        "1": -0.13934125006198883,
        "2": -2.4317777156829834,
        "3": -2.6109108924865723
      },
      {
        "0": -0.10748028010129929,
        "1": -0.13212281465530396,
        "2": -2.4487905502319336,
        "3": -2.127056121826172
      },
      {
        "0": -0.0977439135313034,
        "1": -0.12092223763465881,
        "2": -2.4621188640594482,
        "3": -2.50515079498291
      },
      {
        "0": -0.13643209636211395,
        "1": -0.10752125084400177,
        "2": -2.444624185562134,
        "3": -2.1578643321990967
      },
      {
        "0": -0.09747496992349625,
        "1": -0.12299224734306335,
        "2": -2.367173194885254,
        "3": -2.167571783065796
      },
      {
        "0": -0.11065854877233505,
        "1": -0.11913254112005234,
        "2": -2.6296863555908203,
        "3": -2.4521241188049316
      },
      {
        "0": -0.1134101003408432,
        "1": -0.11067955940961838,
        "2": -2.154909610748291,
        "3": -2.6725821495056152
      },
      {
        "0": -0.10608271509408951,
        "1": -0.11343104392290115,
        "2": -2.436321258544922,
        "3": -2.538404703140259
      },
      {
        "0": -0.11009509116411209,
        "1": -0.09844654053449631,
        "2": -2.1061065196990967,
        "3": -2.4591064453125
      },
      {
        "0": -0.10626626759767532,
        "1": -0.10018232464790344,
        "2": -2.558079481124878,
        "3": -2.4863243103027344
      },
      {
        "0": -0.12675152719020844,
        "1": -0.11394514888525009,
        "2": -2.6133131980895996,
        "3": -2.1501407623291016
      },
      {
        "0": -0.11136791110038757,
        "1": -0.10830815136432648,
        "2": -2.489081382751465,
        "3": -2.233372926712036
      },
      {
        "0": -0.11054405570030212,
        "1": -0.11018596589565277,
        "2": -2.1782360076904297,
        "3": -2.3573429584503174
      },
      {
        "0": -0.10636558383703232,
        "1": -0.11007031798362732,
        "2": -2.325998306274414,
        "3": -2.3504135608673096
      },
      {
        "0": -0.09761621057987213,
        "1": -0.10849185287952423,
        "2": -2.5470354557037354,
        "3": -2.4166030883789062
      },
      {
        "0": -0.1126532331109047,
        "1": -0.10857989639043808,
        "2": -2.38507080078125,
        "3": -2.2064225673675537
      },
      {
        "0": -0.10604376345872879,
        "1": -0.11814125627279282,
        "2": -2.3073837757110596,
        "3": -2.4364535808563232
      },
      {
        "0": -0.11305975168943405,
        "1": -0.11367636173963547,
        "2": -2.332817792892456,
        "3": -2.3061976432800293
      },
      {
        "0": -0.10594683140516281,
        "1": -0.10404923558235168,
        "2": -2.478548765182495,
        "3": -2.3562171459198
      },
      {
        "0": -0.12490911781787872,
        "1": -0.11452170461416245,
        "2": -2.36995005607605,
        "3": -2.4450392723083496
      }
    ],
    "agent_mu_history": [
      {
        "0": 0.0,
        "1": 0.0,
        "2": 0.0,
        "3": 0.0
      },
      {
        "0": 0.0,
        "1": 0.0,
        "2": 0.0,
        "3": 0.0
      },
      {
        "0": 0.0,
        "1": 0.0,
        "2": 0.0,
        "3": 0.0
      },
      {
        "0": 0.0,
        "1": 0.0,
        "2": 0.0,
        "3": 0.0
      },
      {
        "0": 0.0,
        "1": 0.0,
        "2": 0.0,
        "3": 0.0
      },
      {
        "0": 0.0,
        "1": 0.0,
        "2": 0.0,
        "3": 0.0
      },
      {
        "0": 0.0,
        "1": 0.0,
        "2": 0.0,
        "3": 0.0
      },
      {
        "0": 0.0,
        "1": 0.0,
        "2": 0.0,
        "3": 0.0
      },
      {
        "0": 0.0,
        "1": 0.0,
        "2": 0.0,
        "3": 0.0
      },
      {
        "0": 0.0,
        "1": 0.0,
        "2": 0.0,
        "3": 0.0
      },
      {
        "0": 0.0,
        "1": 0.0,
        "2": 0.0,
        "3": 0.0
      },
      {
        "0": 0.0,
        "1": 0.0,
        "2": 0.0,
        "3": 0.0
      },
      {
        "0": 0.0,
        "1": 0.0,
        "2": 0.0,
        "3": 0.0
      },
      {
        "0": 0.0,
        "1": 0.0,
        "2": 0.0,
        "3": 0.0
      },
      {
        "0": 0.0,
        "1": 0.0,
        "2": 0.0,
        "3": 0.0
      },
      {
        "0": 0.0,
        "1": 0.0,
        "2": 0.0,
        "3": 0.0
      },
      {
        "0": 0.0,
        "1": 0.0,
        "2": 0.0,
        "3": 0.0
      },
      {
        "0": 0.0,
        "1": 0.0,
        "2": 0.0,
        "3": 0.0
      },
      {
        "0": 0.0,
        "1": 0.0,
        "2": 0.0,
        "3": 0.0
      },
      {
        "0": 0.0,
        "1": 0.0,
        "2": 0.0,
        "3": 0.0
      },
      {
        "0": 0.0,
        "1": 0.0,
        "2": 0.0,
        "3": 0.0
      },
      {
        "0": 0.0,
        "1": 0.0,
        "2": 0.0,
        "3": 0.0
      },
      {
        "0": 0.0,
        "1": 0.0,
        "2": 0.0,
        "3": 0.0
      },
      {
        "0": 0.0,
        "1": 0.0,
        "2": 0.0,
        "3": 0.0
      },
      {
        "0": 0.0,
        "1": 0.0,
        "2": 0.0,
        "3": 0.0
      },
      {
        "0": 0.0,
        "1": 0.0,
        "2": 0.0,
        "3": 0.0
      },
      {
        "0": 0.0,
        "1": 0.0,
        "2": 0.0,
        "3": 0.0
      },
      {
        "0": 0.0,
        "1": 0.0,
        "2": 0.0,
        "3": 0.0
      },
      {
        "0": 0.0,
        "1": 0.0,
        "2": 0.0,
        "3": 0.0
      },
      {
        "0": 0.0,
        "1": 0.0,
        "2": 0.0,
        "3": 0.0
      },
      {
        "0": 0.0,
        "1": 0.0,
        "2": 0.0,
        "3": 0.0
      },
      {
        "0": 0.0,
        "1": 0.0,
        "2": 0.0,
        "3": 0.0
      },
      {
        "0": 0.0,
        "1": 0.0,
        "2": 0.0,
        "3": 0.0
      },
      {
        "0": 0.0,
        "1": 0.0,
        "2": 0.0,
        "3": 0.0
      },
      {
        "0": 0.0,
        "1": 0.0,
        "2": 0.0,
        "3": 0.0
      },
      {
        "0": 0.0,
        "1": 0.0,
        "2": 0.0,
        "3": 0.0
      },
      {
        "0": 0.0,
        "1": 0.0,
        "2": 0.0,
        "3": 0.0
      },
      {
        "0": 0.0,
        "1": 0.0,
        "2": 0.0,
        "3": 0.0
      },
      {
        "0": 0.0,
        "1": 0.0,
        "2": 0.0,
        "3": 0.0
      },
      {
        "0": 0.0,
        "1": 0.0,
        "2": 0.0,
        "3": 0.0
      }
    ],
    "agent_noisy_clients": [
      2,
      3
    ],
    "agent_probe_heldout": true,
    "agent_adaptive_mu": false,
    "eval": {
      "threshold": 0.5,
      "micro_f1": 0.6747279322853688,
      "macro_f1_present": 0.23808495885849165,
      "best_threshold": 0.7,
      "best_micro_f1": 0.6868512110726643,
      "best_macro_f1_present": 0.24779294763899304,
      "macro_ap": 0.27153650319874384,
      "macro_auroc": 0.8120244705917075
    }
  }
}
