{
  "name": "het04_agent_s1",
  "config": {
    "method": "agent_fed",
    "backbone": "retfound_mae_vit_large",
    "seed": 1,
    "epochs": 20,
    "rounds": 40,
    "local_epochs": 1,
    "batch_size": 8,
    "lr": 0.001,
    "fedprox_mu": 0.0,
    "loss": "balanced_bce",
    "positive_dropout": 0.0,
    "train_label_noise": 0.0,
    "image_size": [
      224,
      224
    ],
    "device": "cuda",
    "lora_rank": 8,
    "lora_alpha": 16.0,
    "require_retfound": true,
    "num_workers": 8,
    "pin_memory": true,
    "persistent_workers": true,
    "use_data_parallel": false,
    "agent_aggregation": "agent",
    "agent_tau": 0.03,
    "agent_geometry": false,
    "agent_noisy_clients": [
      2,
      3
    ],
    "agent_client_noise": 0.4,
    "agent_adaptive_mu": false,
    "agent_mu_max": 0.1,
    "agent_mu_tau": 0.05
  },
  "result": {
    "config": {
      "method": "agent_fed",
      "backbone": "retfound_mae_vit_large",
      "seed": 1,
      "epochs": 20,
      "rounds": 40,
      "local_epochs": 1,
      "batch_size": 8,
      "lr": 0.001,
      "fedprox_mu": 0.0,
      "loss": "balanced_bce",
      "positive_dropout": 0.0,
      "train_label_noise": 0.0,
      "image_size": [
        224,
        224
      ],
      "device": "cuda",
      "lora_rank": 8,
      "lora_alpha": 16.0,
      "require_retfound": true,
      "num_workers": 8,
      "pin_memory": true,
      "persistent_workers": true,
      "use_data_parallel": false,
      "agent_aggregation": "agent",
      "agent_tau": 0.03,
      "agent_geometry": false,
      "agent_noisy_clients": [
        2,
        3
      ],
      "agent_client_noise": 0.4,
      "agent_adaptive_mu": false,
      "agent_mu_max": 0.1,
      "agent_mu_tau": 0.05
    },
    "model_info": {
      "requested_backbone": "retfound_mae_vit_large",
      "actual_backbone": "retfound_mae_vit_large",
      "is_retfound": true,
      "checkpoint_path": "/home/tiger/.cache/huggingface/hub/models--YukunZhou--RETFound_mae_natureCFP/snapshots/556830f78214f0e8da35af965292ac5a3180ac47/RETFound_mae_natureCFP.pth",
      "lora_rank": 8,
      "lora_alpha": 16.0,
      "trainable_params": 1226798,
      "total_params": 304528430
    },
    "train_loss": [
      1.2810936105748016,
      1.7062219201897582,
      1.7230982848753533,
      1.614207119308412,
      1.5498998603473106,
      1.532524430255095,
      1.6161819709464909,
      1.7123176974554857,
      1.6619520656143625,
      1.7165604286516705,
      1.6312909338312842,
      1.7494577567403515,
      1.6595527142286302,
      1.7377240788501997,
      1.736971098712335,
      1.9245404706491778,
      1.8470705331924062,
      2.0842182284841932,
      1.775474996631965,
      2.060507485200651,
      2.075716522708535,
      2.1515630839858204,
      2.2540473647881303,
      2.0208179307480654,
      2.0156411029553665,
      2.1702993409320093,
      2.1040470071874244,
      2.3587061927343407,
      2.5030782086464267,
      2.4373892373405397,
      2.4982918044629816,
      2.5751102048593264,
      2.2567778278666086,
      2.6124022705752092,
      2.3024873466677187,
      2.433147445175564,
      2.360545269145708,
      2.3994978059762313,
      2.325174146043719,
      2.5688809291508123
    ],
    "comm_bytes_upload_per_round": [
      19628768,
      19628768,
      19628768,
      19628768,
      19628768,
      19628768,
      19628768,
      19628768,
      19628768,
      19628768,
      19628768,
      19628768,
      19628768,
      19628768,
      19628768,
      19628768,
      19628768,
      19628768,
      19628768,
      19628768,
      19628768,
      19628768,
      19628768,
      19628768,
      19628768,
      19628768,
      19628768,
      19628768,
      19628768,
      19628768,
      19628768,
      19628768,
      19628768,
      19628768,
      19628768,
      19628768,
      19628768,
      19628768,
      19628768,
      19628768
    ],
    "total_upload_bytes": 785150720,
    "agent_weight_history": [
      {
        "0": 0.4999999999999998,
        "1": 0.499999999999999,
        "2": 1.0038634775007348e-19,
        "3": 1.1344868896375054e-15
      },
      {
        "0": 0.49999999999999994,
        "1": 0.4999999999999996,
        "2": 3.0356680604949784e-16,
        "3": 1.365209740560701e-16
      },
      {
        "0": 0.49999999999999994,
        "1": 0.4999999999999997,
        "2": 1.9312373508379245e-16,
        "3": 7.109715395987227e-17
      },
      {
        "0": 0.4999999999999988,
        "1": 0.4999999999999995,
        "2": 4.644934254181763e-16,
        "3": 1.2184691521732962e-15
      },
      {
        "0": 0.4999999999999999,
        "1": 0.49999999999999944,
        "2": 5.379165716678878e-16,
        "3": 7.183657017034306e-17
      },
      {
        "0": 0.49999999999999994,
        "1": 0.49999999999999994,
        "2": 1.4477048036544743e-16,
        "3": 9.413020060957849e-18
      },
      {
        "0": 0.4999999999999994,
        "1": 0.4999999999999993,
        "2": 1.9268412954056603e-16,
        "3": 1.0296435277207263e-15
      },
      {
        "0": 0.49999999999998995,
        "1": 0.4999999999999997,
        "2": 1.0387475562294248e-14,
        "3": 4.165928715586989e-18
      },
      {
        "0": 0.4999999999999998,
        "1": 0.49999999999999944,
        "2": 7.508833579027974e-16,
        "3": 5.11930716172327e-19
      },
      {
        "0": 0.49999999999999967,
        "1": 0.4999999999999997,
        "2": 3.3961394977251816e-18,
        "3": 6.037337776290724e-16
      },
      {
        "0": 0.49999999999999983,
        "1": 0.4999999999999995,
        "2": 1.2839788299791755e-16,
        "3": 5.2301911733686655e-16
      },
      {
        "0": 0.5,
        "1": 0.4999999999999999,
        "2": 2.9393420082726697e-18,
        "3": 8.76689959444526e-17
      },
      {
        "0": 0.49999999999999944,
        "1": 0.4999999999999998,
        "2": 3.928788962084902e-18,
        "3": 7.437316628532532e-16
      },
      {
        "0": 0.5,
        "1": 0.4999999999999998,
        "2": 2.8058205250392876e-16,
        "3": 7.17361465855475e-18
      },
      {
        "0": 0.49999999999999994,
        "1": 0.4999999999999995,
        "2": 4.4784978679581553e-20,
        "3": 5.875076656751934e-16
      },
      {
        "0": 0.5000000000000001,
        "1": 0.4999999999999997,
        "2": 2.8351709761639135e-16,
        "3": 3.0987990571649374e-19
      },
      {
        "0": 0.5,
        "1": 0.5,
        "2": 2.4314440077859073e-19,
        "3": 7.534326928773703e-18
      },
      {
        "0": 0.5,
        "1": 0.5,
        "2": 2.202854693822607e-17,
        "3": 1.5000357938956112e-18
      },
      {
        "0": 0.49999999999999994,
        "1": 0.49999999999999983,
        "2": 2.867015686082328e-16,
        "3": 1.2705801960661864e-18
      },
      {
        "0": 0.49999999999999994,
        "1": 0.49999999999999983,
        "2": 1.7923058763687363e-16,
        "3": 1.6218992644254396e-20
      },
      {
        "0": 0.4999999999999991,
        "1": 0.4999999999999988,
        "2": 2.181029865461571e-15,
        "3": 2.3677412692021835e-17
      },
      {
        "0": 0.5,
        "1": 0.5,
        "2": 5.172663499880791e-17,
        "3": 4.422613622094663e-17
      },
      {
        "0": 0.5,
        "1": 0.5,
        "2": 1.149326067802363e-17,
        "3": 1.3824465253168054e-17
      },
      {
        "0": 0.4999999999999995,
        "1": 0.4999999999999998,
        "2": 4.126922755121357e-16,
        "3": 3.212423486728655e-16
      },
      {
        "0": 0.4999999999999997,
        "1": 0.4999999999999998,
        "2": 3.655862955697555e-18,
        "3": 5.10048317889878e-16
      },
      {
        "0": 0.49999999999999994,
        "1": 0.49999999999999994,
        "2": 1.442044202743089e-17,
        "3": 1.260905353940902e-16
      },
      {
        "0": 0.4999999999999999,
        "1": 0.4999999999999999,
        "2": 2.4405923337609394e-16,
        "3": 4.947742277264723e-17
      },
      {
        "0": 0.5,
        "1": 0.5,
        "2": 1.7167520017763905e-18,
        "3": 1.3760534527598264e-21
      },
      {
        "0": 0.5,
        "1": 0.4999999999999999,
        "2": 1.2696497791773777e-20,
        "3": 6.717023199309259e-17
      },
      {
        "0": 0.5,
        "1": 0.5,
        "2": 2.3432813646488656e-23,
        "3": 9.407343381468962e-18
      },
      {
        "0": 0.49999999999999983,
        "1": 0.49999999999999983,
        "2": 3.742080391671483e-16,
        "3": 9.530156950890362e-18
      },
      {
        "0": 0.5,
        "1": 0.5,
        "2": 4.6835080385484436e-17,
        "3": 2.2594976143705952e-23
      },
      {
        "0": 0.4999999999999999,
        "1": 0.5,
        "2": 1.4514477433393868e-18,
        "3": 1.763719418893859e-16
      },
      {
        "0": 0.5,
        "1": 0.5,
        "2": 3.7920617814353516e-17,
        "3": 3.9608124882215205e-19
      },
      {
        "0": 0.5,
        "1": 0.5,
        "2": 1.3320124952848776e-18,
        "3": 1.88079864373297e-17
      },
      {
        "0": 0.49999999999999817,
        "1": 0.49999999999999845,
        "2": 8.443792036308127e-16,
        "3": 2.543578818199813e-15
      },
      {
        "0": 0.4999999999999997,
        "1": 0.4999999999999997,
        "2": 1.3856133365679592e-23,
        "3": 5.554271027749007e-16
      },
      {
        "0": 0.5,
        "1": 0.5,
        "2": 2.6779383760380014e-17,
        "3": 5.096646558348029e-19
      },
      {
        "0": 0.5,
        "1": 0.5,
        "2": 6.410416690523833e-18,
        "3": 4.609465503221351e-18
      },
      {
        "0": 0.5,
        "1": 0.5,
        "2": 6.2755760724076406e-18,
        "3": 2.5107605119057028e-20
      }
    ],
    "agent_probe_history": [
      {
        "0": -0.22822926938533783,
        "1": -0.26096174120903015,
        "2": -2.5641086101531982,
        "3": -2.2841286659240723
      },
      {
        "0": -0.2175987958908081,
        "1": -0.275238573551178,
        "2": -2.3775055408477783,
        "3": -2.4014792442321777
      },
      {
        "0": -0.18706288933753967,
        "1": -0.30227962136268616,
        "2": -2.431682825088501,
        "3": -2.4616613388061523
      },
      {
        "0": -0.22772979736328125,
        "1": -0.2001841813325882,
        "2": -2.2755439281463623,
        "3": -2.2466118335723877
      },
      {
        "0": -0.19990164041519165,
        "1": -0.2571011483669281,
        "2": -2.3250420093536377,
        "3": -2.385441303253174
      },
      {
        "0": -0.22228822112083435,
        "1": -0.20022855699062347,
        "2": -2.3689823150634766,
        "3": -2.4509739875793457
      },
      {
        "0": -0.16324429214000702,
        "1": -0.16819670796394348,
        "2": -2.2474591732025146,
        "3": -2.1971817016601562
      },
      {
        "0": -0.25313520431518555,
        "1": -0.17160815000534058,
        "2": -2.143436908721924,
        "3": -2.378079414367676
      },
      {
        "0": -0.16313697397708893,
        "1": -0.18052105605602264,
        "2": -2.2284491062164307,
        "3": -2.447173595428467
      },
      {
        "0": -0.17846828699111938,
        "1": -0.17098139226436615,
        "2": -2.3948981761932373,
        "3": -2.23948335647583
      },
      {
        "0": -0.13383083045482635,
        "1": -0.15559278428554535,
        "2": -2.2673532962799072,
        "3": -2.2252187728881836
      },
      {
        "0": -0.13519495725631714,
        "1": -0.18912775814533234,
        "2": -2.467778205871582,
        "3": -2.3659167289733887
      },
      {
        "0": -0.15666957199573517,
        "1": -0.14155112206935883,
        "2": -2.3624722957611084,
        "3": -2.205171823501587
      },
      {
        "0": -0.12795230746269226,
        "1": -0.1479911357164383,
        "2": -2.2549822330474854,
        "3": -2.364975929260254
      },
      {
        "0": -0.10485479980707169,
        "1": -0.1483607441186905,
        "2": -2.4954636096954346,
        "3": -2.211010456085205
      },
      {
        "0": -0.10255050659179688,
        "1": -0.17444577813148499,
        "2": -2.2808125019073486,
        "3": -2.485377788543701
      },
      {
        "0": -0.12958505749702454,
        "1": -0.11623412370681763,
        "2": -2.556627035140991,
        "3": -2.453619956970215
      },
      {
        "0": -0.1258675903081894,
        "1": -0.1366364061832428,
        "2": -2.396299123764038,
        "3": -2.4769046306610107
      },
      {
        "0": -0.1158624142408371,
        "1": -0.13137471675872803,
        "2": -2.2370712757110596,
        "3": -2.3996403217315674
      },
      {
        "0": -0.10346899926662445,
        "1": -0.1102801188826561,
        "2": -2.2441627979278564,
        "3": -2.523470163345337
      },
      {
        "0": -0.1039157435297966,
        "1": -0.10755036026239395,
        "2": -2.0915002822875977,
        "3": -2.227191209793091
      },
      {
        "0": -0.10599962621927261,
        "1": -0.1292983442544937,
        "2": -2.337743043899536,
        "3": -2.342442750930786
      },
      {
        "0": -0.11117477715015411,
        "1": -0.11891203373670578,
        "2": -2.412069082260132,
        "3": -2.4065287113189697
      },
      {
        "0": -0.11894121766090393,
        "1": -0.0957915410399437,
        "2": -2.202782154083252,
        "3": -2.2102973461151123
      },
      {
        "0": -0.1149086132645607,
        "1": -0.11280220746994019,
        "2": -2.334186553955078,
        "3": -2.1860413551330566
      },
      {
        "0": -0.14087556302547455,
        "1": -0.11716356128454208,
        "2": -2.3609092235565186,
        "3": -2.29585862159729
      },
      {
        "0": -0.09873899072408676,
        "1": -0.1007508635520935,
        "2": -2.216109275817871,
        "3": -2.263986110687256
      },
      {
        "0": -0.10212056338787079,
        "1": -0.0995376780629158,
        "2": -2.514897584915161,
        "3": -2.728766679763794
      },
      {
        "0": -0.0997866839170456,
        "1": -0.11605361104011536,
        "2": -2.566032648086548,
        "3": -2.3088228702545166
      },
      {
        "0": -0.1070966050028801,
        "1": -0.10830368101596832,
        "2": -2.806103229522705,
        "3": -2.4190173149108887
      },
      {
        "0": -0.1080426499247551,
        "1": -0.1038397029042244,
        "2": -2.1977570056915283,
        "3": -2.3078675270080566
      },
      {
        "0": -0.10846656560897827,
        "1": -0.10696496069431305,
        "2": -2.322871685028076,
        "3": -2.759204149246216
      },
      {
        "0": -0.1117580309510231,
        "1": -0.10522373020648956,
        "2": -2.39060640335083,
        "3": -2.246605396270752
      },
      {
        "0": -0.11466628313064575,
        "1": -0.09896335005760193,
        "2": -2.3417396545410156,
        "3": -2.478588581085205
      },
      {
        "0": -0.12136891484260559,
        "1": -0.109634630382061,
        "2": -2.469942808151245,
        "3": -2.390515089035034
      },
      {
        "0": -0.11584988236427307,
        "1": -0.11182376742362976,
        "2": -2.123655080795288,
        "3": -2.090573310852051
      },
      {
        "0": -0.11501073092222214,
        "1": -0.11482027918100357,
        "2": -2.7062251567840576,
        "3": -2.1810295581817627
      },
      {
        "0": -0.12390564382076263,
        "1": -0.13808172941207886,
        "2": -2.3860268592834473,
        "3": -2.504875898361206
      },
      {
        "0": -0.11310429871082306,
        "1": -0.14535783231258392,
        "2": -2.4790854454040527,
        "3": -2.4889798164367676
      },
      {
        "0": -0.12086199223995209,
        "1": -0.11337357759475708,
        "2": -2.4558651447296143,
        "3": -2.621502637863159
      }
    ],
    "agent_mu_history": [
      {
        "0": 0.0,
        "1": 0.0,
        "2": 0.0,
        "3": 0.0
      },
      {
        "0": 0.0,
        "1": 0.0,
        "2": 0.0,
        "3": 0.0
      },
      {
        "0": 0.0,
        "1": 0.0,
        "2": 0.0,
        "3": 0.0
      },
      {
        "0": 0.0,
        "1": 0.0,
        "2": 0.0,
        "3": 0.0
      },
      {
        "0": 0.0,
        "1": 0.0,
        "2": 0.0,
        "3": 0.0
      },
      {
        "0": 0.0,
        "1": 0.0,
        "2": 0.0,
        "3": 0.0
      },
      {
        "0": 0.0,
        "1": 0.0,
        "2": 0.0,
        "3": 0.0
      },
      {
        "0": 0.0,
        "1": 0.0,
        "2": 0.0,
        "3": 0.0
      },
      {
        "0": 0.0,
        "1": 0.0,
        "2": 0.0,
        "3": 0.0
      },
      {
        "0": 0.0,
        "1": 0.0,
        "2": 0.0,
        "3": 0.0
      },
      {
        "0": 0.0,
        "1": 0.0,
        "2": 0.0,
        "3": 0.0
      },
      {
        "0": 0.0,
        "1": 0.0,
        "2": 0.0,
        "3": 0.0
      },
      {
        "0": 0.0,
        "1": 0.0,
        "2": 0.0,
        "3": 0.0
      },
      {
        "0": 0.0,
        "1": 0.0,
        "2": 0.0,
        "3": 0.0
      },
      {
        "0": 0.0,
        "1": 0.0,
        "2": 0.0,
        "3": 0.0
      },
      {
        "0": 0.0,
        "1": 0.0,
        "2": 0.0,
        "3": 0.0
      },
      {
        "0": 0.0,
        "1": 0.0,
        "2": 0.0,
        "3": 0.0
      },
      {
        "0": 0.0,
        "1": 0.0,
        "2": 0.0,
        "3": 0.0
      },
      {
        "0": 0.0,
        "1": 0.0,
        "2": 0.0,
        "3": 0.0
      },
      {
        "0": 0.0,
        "1": 0.0,
        "2": 0.0,
        "3": 0.0
      },
      {
        "0": 0.0,
        "1": 0.0,
        "2": 0.0,
        "3": 0.0
      },
      {
        "0": 0.0,
        "1": 0.0,
        "2": 0.0,
        "3": 0.0
      },
      {
        "0": 0.0,
        "1": 0.0,
        "2": 0.0,
        "3": 0.0
      },
      {
        "0": 0.0,
        "1": 0.0,
        "2": 0.0,
        "3": 0.0
      },
      {
        "0": 0.0,
        "1": 0.0,
        "2": 0.0,
        "3": 0.0
      },
      {
        "0": 0.0,
        "1": 0.0,
        "2": 0.0,
        "3": 0.0
      },
      {
        "0": 0.0,
        "1": 0.0,
        "2": 0.0,
        "3": 0.0
      },
      {
        "0": 0.0,
        "1": 0.0,
        "2": 0.0,
        "3": 0.0
      },
      {
        "0": 0.0,
        "1": 0.0,
        "2": 0.0,
        "3": 0.0
      },
      {
        "0": 0.0,
        "1": 0.0,
        "2": 0.0,
        "3": 0.0
      },
      {
        "0": 0.0,
        "1": 0.0,
        "2": 0.0,
        "3": 0.0
      },
      {
        "0": 0.0,
        "1": 0.0,
        "2": 0.0,
        "3": 0.0
      },
      {
        "0": 0.0,
        "1": 0.0,
        "2": 0.0,
        "3": 0.0
      },
      {
        "0": 0.0,
        "1": 0.0,
        "2": 0.0,
        "3": 0.0
      },
      {
        "0": 0.0,
        "1": 0.0,
        "2": 0.0,
        "3": 0.0
      },
      {
        "0": 0.0,
        "1": 0.0,
        "2": 0.0,
        "3": 0.0
      },
      {
        "0": 0.0,
        "1": 0.0,
        "2": 0.0,
        "3": 0.0
      },
      {
        "0": 0.0,
        "1": 0.0,
        "2": 0.0,
        "3": 0.0
      },
      {
        "0": 0.0,
        "1": 0.0,
        "2": 0.0,
        "3": 0.0
      },
      {
        "0": 0.0,
        "1": 0.0,
        "2": 0.0,
        "3": 0.0
      }
    ],
    "agent_noisy_clients": [
      2,
      3
    ],
    "agent_probe_heldout": true,
    "agent_adaptive_mu": false,
    "eval": {
      "threshold": 0.5,
      "micro_f1": 0.6874749899959984,
      "macro_f1_present": 0.24076422529644445,
      "best_threshold": 0.4,
      "best_micro_f1": 0.675164156044805,
      "best_macro_f1_present": 0.25321498975584794,
      "macro_ap": 0.28310563024394253,
      "macro_auroc": 0.8102057656520006
    }
  }
}
