{
  "name": "het04_dir_agent_s0",
  "config": {
    "method": "agent_fed",
    "backbone": "retfound_mae_vit_large",
    "seed": 0,
    "epochs": 20,
    "rounds": 40,
    "local_epochs": 1,
    "batch_size": 8,
    "lr": 0.001,
    "fedprox_mu": 0.0,
    "loss": "balanced_bce",
    "positive_dropout": 0.0,
    "train_label_noise": 0.0,
    "image_size": [
      224,
      224
    ],
    "device": "cuda",
    "lora_rank": 8,
    "lora_alpha": 16.0,
    "require_retfound": true,
    "num_workers": 8,
    "pin_memory": true,
    "persistent_workers": true,
    "use_data_parallel": false,
    "agent_aggregation": "agent",
    "agent_tau": 0.03,
    "agent_geometry": false,
    "agent_noisy_clients": [
      2,
      3
    ],
    "agent_client_noise": 0.4,
    "agent_adaptive_mu": false,
    "agent_mu_max": 0.1,
    "agent_mu_tau": 0.05
  },
  "result": {
    "config": {
      "method": "agent_fed",
      "backbone": "retfound_mae_vit_large",
      "seed": 0,
      "epochs": 20,
      "rounds": 40,
      "local_epochs": 1,
      "batch_size": 8,
      "lr": 0.001,
      "fedprox_mu": 0.0,
      "loss": "balanced_bce",
      "positive_dropout": 0.0,
      "train_label_noise": 0.0,
      "image_size": [
        224,
        224
      ],
      "device": "cuda",
      "lora_rank": 8,
      "lora_alpha": 16.0,
      "require_retfound": true,
      "num_workers": 8,
      "pin_memory": true,
      "persistent_workers": true,
      "use_data_parallel": false,
      "agent_aggregation": "agent",
      "agent_tau": 0.03,
      "agent_geometry": false,
      "agent_noisy_clients": [
        2,
        3
      ],
      "agent_client_noise": 0.4,
      "agent_adaptive_mu": false,
      "agent_mu_max": 0.1,
      "agent_mu_tau": 0.05
    },
    "model_info": {
      "requested_backbone": "retfound_mae_vit_large",
      "actual_backbone": "retfound_mae_vit_large",
      "is_retfound": true,
      "checkpoint_path": "/home/tiger/.cache/huggingface/hub/models--YukunZhou--RETFound_mae_natureCFP/snapshots/556830f78214f0e8da35af965292ac5a3180ac47/RETFound_mae_natureCFP.pth",
      "lora_rank": 8,
      "lora_alpha": 16.0,
      "trainable_params": 1226798,
      "total_params": 304528430
    },
    "train_loss": [
      1.2818783397815259,
      3.1995581897032084,
      6.385309133741742,
      10.124829118843202,
      14.61893916327694,
      17.165446831245863,
      17.56845061230858,
      13.574719645977924,
      14.97400658676777,
      16.250462465866264,
      16.042174605471295,
      16.119951098265183,
      16.43734966649301,
      16.856216236943318,
      18.433933977998986,
      17.38098023853866,
      17.45747138553607,
      17.303744171922883,
      16.879388359955833,
      18.11295607249002,
      16.626077765788757,
      17.777818870379555,
      17.05921995293105,
      18.35889558904593,
      16.827653475853925,
      18.346574006917667,
      16.247969582174346,
      17.962681347434383,
      17.42255397109924,
      20.181432469679848,
      17.893677133464056,
      18.342678455059254,
      18.88354778941403,
      18.587741138640116,
      17.661711165888285,
      18.95781479470429,
      19.599630032470163,
      16.43181805379827,
      19.706314885580163,
      19.47746920841984
    ],
    "comm_bytes_upload_per_round": [
      19628768,
      19628768,
      19628768,
      19628768,
      19628768,
      19628768,
      19628768,
      19628768,
      19628768,
      19628768,
      19628768,
      19628768,
      19628768,
      19628768,
      19628768,
      19628768,
      19628768,
      19628768,
      19628768,
      19628768,
      19628768,
      19628768,
      19628768,
      19628768,
      19628768,
      19628768,
      19628768,
      19628768,
      19628768,
      19628768,
      19628768,
      19628768,
      19628768,
      19628768,
      19628768,
      19628768,
      19628768,
      19628768,
      19628768,
      19628768
    ],
    "total_upload_bytes": 785150720,
    "agent_weight_history": [
      {
        "0": 0.5024875621890545,
        "1": 0.49751243781094506,
        "2": 4.723384244307551e-16,
        "3": 1.135796853095199e-21
      },
      {
        "0": 0.5024875621850557,
        "1": 0.4975124378054276,
        "2": 1.0614584049074768e-17,
        "3": 9.516682261200692e-12
      },
      {
        "0": 0.5024875621790869,
        "1": 0.4975124378009989,
        "2": 1.991433039628803e-11,
        "3": 1.8177611248862403e-19
      },
      {
        "0": 0.5024874388801035,
        "1": 0.4975123157228747,
        "2": 7.527075264684389e-18,
        "3": 2.453970217459572e-07
      },
      {
        "0": 0.5024585809736931,
        "1": 0.49748374353831004,
        "2": 3.5401200269558456e-21,
        "3": 5.767548799685925e-05
      },
      {
        "0": 0.5023114956689773,
        "1": 0.49733811452373977,
        "2": 1.1202215465980716e-25,
        "3": 0.0003503898072829534
      },
      {
        "0": 0.48747735393736713,
        "1": 0.48265084548254167,
        "2": 3.74112467923781e-23,
        "3": 0.029871800580091253
      },
      {
        "0": 0.502487270818753,
        "1": 0.49751214932549803,
        "2": 5.428349692092715e-21,
        "3": 5.798557489172038e-07
      },
      {
        "0": 0.5024861550139249,
        "1": 0.49751104456824247,
        "2": 4.136294339010519e-17,
        "3": 2.8004178325974774e-06
      },
      {
        "0": 0.5024873034297387,
        "1": 0.4975121816136026,
        "2": 1.3378804941355134e-16,
        "3": 5.149566586377396e-07
      },
      {
        "0": 0.502487192201867,
        "1": 0.49751207148699705,
        "2": 3.3641884367910916e-19,
        "3": 7.363111360599571e-07
      },
      {
        "0": 0.5024873574362952,
        "1": 0.4975122350854408,
        "2": 1.2342178805346456e-16,
        "3": 4.0747826387811444e-07
      },
      {
        "0": 0.5024873075353904,
        "1": 0.49751218567860434,
        "2": 2.3112226053378762e-20,
        "3": 5.067860053400943e-07
      },
      {
        "0": 0.502487432595987,
        "1": 0.49751230950097725,
        "2": 3.676551760227866e-18,
        "3": 2.579030356517366e-07
      },
      {
        "0": 0.5024871111614749,
        "1": 0.4975119912489851,
        "2": 1.721744545962361e-20,
        "3": 8.975895400489087e-07
      },
      {
        "0": 0.5024719236776372,
        "1": 0.4974969541362743,
        "2": 7.407362448586507e-21,
        "3": 3.1122186088657516e-05
      },
      {
        "0": 0.5024872823966426,
        "1": 0.49751216078875515,
        "2": 4.025592489636655e-20,
        "3": 5.568146021855073e-07
      },
      {
        "0": 0.5024796437819978,
        "1": 0.49750459780395817,
        "2": 2.7158744031997684e-19,
        "3": 1.575841404395962e-05
      },
      {
        "0": 0.5024710374408028,
        "1": 0.4974960766740622,
        "2": 4.467443538802082e-23,
        "3": 3.2885885134995126e-05
      },
      {
        "0": 0.5024874632313722,
        "1": 0.49751233983304183,
        "2": 2.990757045065186e-17,
        "3": 1.9693558596519348e-07
      },
      {
        "0": 0.5024870487411359,
        "1": 0.4975119294466692,
        "2": 1.0372937426407282e-18,
        "3": 1.0218121947544898e-06
      },
      {
        "0": 0.5024779109917964,
        "1": 0.4975028821700954,
        "2": 3.559900222416637e-20,
        "3": 1.9206838108159268e-05
      },
      {
        "0": 0.502481298929592,
        "1": 0.4975062365639525,
        "2": 4.3748943638617e-22,
        "3": 1.2464506455400693e-05
      },
      {
        "0": 0.502051284293556,
        "1": 0.49708047949857037,
        "2": 1.1139292982664524e-18,
        "3": 0.0008682362078737371
      },
      {
        "0": 0.5024871540656466,
        "1": 0.49751203372836295,
        "2": 7.993640395905008e-19,
        "3": 8.122059903860858e-07
      },
      {
        "0": 0.5024850683720171,
        "1": 0.49750996868516545,
        "2": 1.1632213871685502e-19,
        "3": 4.962942817545247e-06
      },
      {
        "0": 0.5024867990642135,
        "1": 0.4975116822417955,
        "2": 1.8598297787870458e-20,
        "3": 1.518693990957439e-06
      },
      {
        "0": 0.5024847883672043,
        "1": 0.49750969145267754,
        "2": 1.0331130345043354e-20,
        "3": 5.520180118194188e-06
      },
      {
        "0": 0.5024875181246307,
        "1": 0.4975123941828027,
        "2": 1.0198674095969007e-19,
        "3": 8.76925666984411e-08
      },
      {
        "0": 0.5024872206699909,
        "1": 0.49751209967325827,
        "2": 3.1014203449729115e-20,
        "3": 6.796567509831187e-07
      },
      {
        "0": 0.5024839565580147,
        "1": 0.49750886787922244,
        "2": 1.3823166583324265e-19,
        "3": 7.175562762815671e-06
      },
      {
        "0": 0.502086383032376,
        "1": 0.49711523072512465,
        "2": 6.30279588879748e-22,
        "3": 0.0007983862424993628
      },
      {
        "0": 0.5024874707165863,
        "1": 0.49751234724414484,
        "2": 9.90389600094578e-17,
        "3": 1.8203926874248814e-07
      },
      {
        "0": 0.5024866725074877,
        "1": 0.4975115569381066,
        "2": 1.8912122805948114e-16,
        "3": 1.7705544056113182e-06
      },
      {
        "0": 0.502487330721042,
        "1": 0.497512208634695,
        "2": 3.7648804998551803e-20,
        "3": 4.6064426301207385e-07
      },
      {
        "0": 0.5024351986142475,
        "1": 0.4974605926873737,
        "2": 1.1887779143756812e-16,
        "3": 0.00010420869837877122
      },
      {
        "0": 0.5024848627109777,
        "1": 0.497509765060374,
        "2": 4.493427591573937e-21,
        "3": 5.372228648289533e-06
      },
      {
        "0": 0.5024870728422052,
        "1": 0.4975119533091141,
        "2": 5.6397291196190364e-18,
        "3": 9.738486806463805e-07
      },
      {
        "0": 0.5024672470615192,
        "1": 0.49749232382328645,
        "2": 4.2074453889158533e-22,
        "3": 4.042911519418403e-05
      },
      {
        "0": 0.5024864641256643,
        "1": 0.49751135061946966,
        "2": 3.155844964349104e-19,
        "3": 2.185254865934301e-06
      }
    ],
    "agent_probe_history": [
      {
        "0": -0.22054778039455414,
        "1": -0.22193822264671326,
        "2": -2.4644439220428467,
        "3": -2.7690556049346924
      },
      {
        "0": -0.4308429956436157,
        "1": -0.43620750308036804,
        "2": -2.411719560623169,
        "3": -1.9169979095458984
      },
      {
        "0": -0.6373715400695801,
        "1": -0.6393160820007324,
        "2": -2.2428665161132812,
        "3": -2.7146925926208496
      },
      {
        "0": -0.6564401984214783,
        "1": -0.6564401984214783,
        "2": -2.337536334991455,
        "3": -1.5277754068374634
      },
      {
        "0": -0.6564401984214783,
        "1": -0.6564401984214783,
        "2": -2.4036080837249756,
        "3": -1.2001893520355225
      },
      {
        "0": -0.6564401984214783,
        "1": -0.6564401984214783,
        "2": -2.660310983657837,
        "3": -1.0919189453125
      },
      {
        "0": -0.6564401984214783,
        "1": -0.6564401984214783,
        "2": -2.352593183517456,
        "3": -0.8233829140663147
      },
      {
        "0": -0.6564401984214783,
        "1": -0.6564401984214783,
        "2": -2.528778076171875,
        "3": -1.4761812686920166
      },
      {
        "0": -0.6564401984214783,
        "1": -0.6564401984214783,
        "2": -2.2133805751800537,
        "3": -1.3816964626312256
      },
      {
        "0": -0.6564401984214783,
        "1": -0.6564401984214783,
        "2": -2.2289676666259766,
        "3": -1.4833030700683594
      },
      {
        "0": -0.6564401984214783,
        "1": -0.6564401984214783,
        "2": -2.397810220718384,
        "3": -1.4618488550186157
      },
      {
        "0": -0.6564401984214783,
        "1": -0.6564401984214783,
        "2": -2.238409996032715,
        "3": -1.4973487854003906
      },
      {
        "0": -0.6564401984214783,
        "1": -0.6564401984214783,
        "2": -2.4893569946289062,
        "3": -1.4842627048492432
      },
      {
        "0": -0.6564401984214783,
        "1": -0.6564401984214783,
        "2": -2.357541084289551,
        "3": -1.524793028831482
      },
      {
        "0": -0.6564401984214783,
        "1": -0.6564401984214783,
        "2": -2.481041431427002,
        "3": -1.449965238571167
      },
      {
        "0": -0.6564401984214783,
        "1": -0.6564401984214783,
        "2": -2.39996600151062,
        "3": -1.2372056245803833
      },
      {
        "0": -0.6564401984214783,
        "1": -0.6564401984214783,
        "2": -2.46988582611084,
        "3": -1.478614091873169
      },
      {
        "0": -0.6564401984214783,
        "1": -0.6564401984214783,
        "2": -2.3123281002044678,
        "3": -1.2780393362045288
      },
      {
        "0": -0.6564401984214783,
        "1": -0.6564401984214783,
        "2": -2.5516371726989746,
        "3": -1.2338981628417969
      },
      {
        "0": -0.6564401984214783,
        "1": -0.6564401984214783,
        "2": -2.302748203277588,
        "3": -1.5409754514694214
      },
      {
        "0": -0.6564401984214783,
        "1": -0.6564401984214783,
        "2": -2.3541994094848633,
        "3": -1.442188024520874
      },
      {
        "0": -0.6564401984214783,
        "1": -0.6564401984214783,
        "2": -2.3673503398895264,
        "3": -1.2661656141281128
      },
      {
        "0": -0.6564401984214783,
        "1": -0.6564401984214783,
        "2": -2.5122923851013184,
        "3": -1.2921088933944702
      },
      {
        "0": -0.6564401984214783,
        "1": -0.6564401984214783,
        "2": -2.149714708328247,
        "3": -1.0374428033828735
      },
      {
        "0": -0.6564401984214783,
        "1": -0.6564401984214783,
        "2": -2.368903398513794,
        "3": -1.4559627771377563
      },
      {
        "0": -0.6564401984214783,
        "1": -0.6564401984214783,
        "2": -2.372426986694336,
        "3": -1.3473625183105469
      },
      {
        "0": -0.6564401984214783,
        "1": -0.6564401984214783,
        "2": -2.4629502296447754,
        "3": -1.4184116125106812
      },
      {
        "0": -0.6564401984214783,
        "1": -0.6564401984214783,
        "2": -2.44187068939209,
        "3": -1.3409777879714966
      },
      {
        "0": -0.6564401984214783,
        "1": -0.6564401984214783,
        "2": -2.497450113296509,
        "3": -1.5895178318023682
      },
      {
        "0": -0.6564401984214783,
        "1": -0.6564401984214783,
        "2": -2.4717295169830322,
        "3": -1.466652750968933
      },
      {
        "0": -0.6564401984214783,
        "1": -0.6564401984214783,
        "2": -2.356189489364624,
        "3": -1.3252414464950562
      },
      {
        "0": -0.6564401984214783,
        "1": -0.6564401984214783,
        "2": -2.3765480518341064,
        "3": -1.0424792766571045
      },
      {
        "0": -0.6564401984214783,
        "1": -0.6564401984214783,
        "2": -2.269185781478882,
        "3": -1.5456947088241577
      },
      {
        "0": -0.6564401984214783,
        "1": -0.6564401984214783,
        "2": -2.181534767150879,
        "3": -1.4092050790786743
      },
      {
        "0": -0.6564401984214783,
        "1": -0.6564401984214783,
        "2": -2.4775826930999756,
        "3": -1.489990472793579
      },
      {
        "0": -0.6564401984214783,
        "1": -0.6564401984214783,
        "2": -2.0732104778289795,
        "3": -1.164692759513855
      },
      {
        "0": -0.6564401984214783,
        "1": -0.6564401984214783,
        "2": -2.4676620960235596,
        "3": -1.342607855796814
      },
      {
        "0": -0.6564401984214783,
        "1": -0.6564401984214783,
        "2": -2.304845094680786,
        "3": -1.4450726509094238
      },
      {
        "0": -0.6564401984214783,
        "1": -0.6564401984214783,
        "2": -2.478163242340088,
        "3": -1.2215073108673096
      },
      {
        "0": -0.6564401984214783,
        "1": -0.6564401984214783,
        "2": -2.367093086242676,
        "3": -1.3965786695480347
      }
    ],
    "agent_mu_history": [
      {
        "0": 0.0,
        "1": 0.0,
        "2": 0.0,
        "3": 0.0
      },
      {
        "0": 0.0,
        "1": 0.0,
        "2": 0.0,
        "3": 0.0
      },
      {
        "0": 0.0,
        "1": 0.0,
        "2": 0.0,
        "3": 0.0
      },
      {
        "0": 0.0,
        "1": 0.0,
        "2": 0.0,
        "3": 0.0
      },
      {
        "0": 0.0,
        "1": 0.0,
        "2": 0.0,
        "3": 0.0
      },
      {
        "0": 0.0,
        "1": 0.0,
        "2": 0.0,
        "3": 0.0
      },
      {
        "0": 0.0,
        "1": 0.0,
        "2": 0.0,
        "3": 0.0
      },
      {
        "0": 0.0,
        "1": 0.0,
        "2": 0.0,
        "3": 0.0
      },
      {
        "0": 0.0,
        "1": 0.0,
        "2": 0.0,
        "3": 0.0
      },
      {
        "0": 0.0,
        "1": 0.0,
        "2": 0.0,
        "3": 0.0
      },
      {
        "0": 0.0,
        "1": 0.0,
        "2": 0.0,
        "3": 0.0
      },
      {
        "0": 0.0,
        "1": 0.0,
        "2": 0.0,
        "3": 0.0
      },
      {
        "0": 0.0,
        "1": 0.0,
        "2": 0.0,
        "3": 0.0
      },
      {
        "0": 0.0,
        "1": 0.0,
        "2": 0.0,
        "3": 0.0
      },
      {
        "0": 0.0,
        "1": 0.0,
        "2": 0.0,
        "3": 0.0
      },
      {
        "0": 0.0,
        "1": 0.0,
        "2": 0.0,
        "3": 0.0
      },
      {
        "0": 0.0,
        "1": 0.0,
        "2": 0.0,
        "3": 0.0
      },
      {
        "0": 0.0,
        "1": 0.0,
        "2": 0.0,
        "3": 0.0
      },
      {
        "0": 0.0,
        "1": 0.0,
        "2": 0.0,
        "3": 0.0
      },
      {
        "0": 0.0,
        "1": 0.0,
        "2": 0.0,
        "3": 0.0
      },
      {
        "0": 0.0,
        "1": 0.0,
        "2": 0.0,
        "3": 0.0
      },
      {
        "0": 0.0,
        "1": 0.0,
        "2": 0.0,
        "3": 0.0
      },
      {
        "0": 0.0,
        "1": 0.0,
        "2": 0.0,
        "3": 0.0
      },
      {
        "0": 0.0,
        "1": 0.0,
        "2": 0.0,
        "3": 0.0
      },
      {
        "0": 0.0,
        "1": 0.0,
        "2": 0.0,
        "3": 0.0
      },
      {
        "0": 0.0,
        "1": 0.0,
        "2": 0.0,
        "3": 0.0
      },
      {
        "0": 0.0,
        "1": 0.0,
        "2": 0.0,
        "3": 0.0
      },
      {
        "0": 0.0,
        "1": 0.0,
        "2": 0.0,
        "3": 0.0
      },
      {
        "0": 0.0,
        "1": 0.0,
        "2": 0.0,
        "3": 0.0
      },
      {
        "0": 0.0,
        "1": 0.0,
        "2": 0.0,
        "3": 0.0
      },
      {
        "0": 0.0,
        "1": 0.0,
        "2": 0.0,
        "3": 0.0
      },
      {
        "0": 0.0,
        "1": 0.0,
        "2": 0.0,
        "3": 0.0
      },
      {
        "0": 0.0,
        "1": 0.0,
        "2": 0.0,
        "3": 0.0
      },
      {
        "0": 0.0,
        "1": 0.0,
        "2": 0.0,
        "3": 0.0
      },
      {
        "0": 0.0,
        "1": 0.0,
        "2": 0.0,
        "3": 0.0
      },
      {
        "0": 0.0,
        "1": 0.0,
        "2": 0.0,
        "3": 0.0
      },
      {
        "0": 0.0,
        "1": 0.0,
        "2": 0.0,
        "3": 0.0
      },
      {
        "0": 0.0,
        "1": 0.0,
        "2": 0.0,
        "3": 0.0
      },
      {
        "0": 0.0,
        "1": 0.0,
        "2": 0.0,
        "3": 0.0
      },
      {
        "0": 0.0,
        "1": 0.0,
        "2": 0.0,
        "3": 0.0
      }
    ],
    "agent_noisy_clients": [
      2,
      3
    ],
    "agent_probe_heldout": true,
    "agent_adaptive_mu": false,
    "eval": {
      "threshold": 0.5,
      "micro_f1": 0.0,
      "macro_f1_present": 0.0,
      "best_threshold": 0.05,
      "best_micro_f1": 0.0,
      "best_macro_f1_present": 0.0,
      "macro_ap": 0.06398422137370496,
      "macro_auroc": 0.5329682790555501
    }
  }
}
