{
  "name": "clean_agent_s0",
  "config": {
    "method": "agent_fed",
    "backbone": "retfound_mae_vit_large",
    "seed": 0,
    "epochs": 20,
    "rounds": 40,
    "local_epochs": 1,
    "batch_size": 16,
    "lr": 0.001,
    "fedprox_mu": 0.0,
    "loss": "balanced_bce",
    "positive_dropout": 0.0,
    "train_label_noise": 0.0,
    "image_size": [
      224,
      224
    ],
    "device": "cuda",
    "lora_rank": 8,
    "lora_alpha": 16.0,
    "require_retfound": true,
    "num_workers": 8,
    "pin_memory": true,
    "persistent_workers": true,
    "use_data_parallel": true,
    "agent_aggregation": "agent",
    "agent_tau": 0.03,
    "agent_geometry": false,
    "agent_noisy_clients": [
      2,
      3
    ],
    "agent_client_noise": 0.0,
    "agent_adaptive_mu": false,
    "agent_mu_max": 0.1,
    "agent_mu_tau": 0.05
  },
  "result": {
    "config": {
      "method": "agent_fed",
      "backbone": "retfound_mae_vit_large",
      "seed": 0,
      "epochs": 20,
      "rounds": 40,
      "local_epochs": 1,
      "batch_size": 16,
      "lr": 0.001,
      "fedprox_mu": 0.0,
      "loss": "balanced_bce",
      "positive_dropout": 0.0,
      "train_label_noise": 0.0,
      "image_size": [
        224,
        224
      ],
      "device": "cuda",
      "lora_rank": 8,
      "lora_alpha": 16.0,
      "require_retfound": true,
      "num_workers": 8,
      "pin_memory": true,
      "persistent_workers": true,
      "use_data_parallel": true,
      "agent_aggregation": "agent",
      "agent_tau": 0.03,
      "agent_geometry": false,
      "agent_noisy_clients": [
        2,
        3
      ],
      "agent_client_noise": 0.0,
      "agent_adaptive_mu": false,
      "agent_mu_max": 0.1,
      "agent_mu_tau": 0.05
    },
    "model_info": {
      "requested_backbone": "retfound_mae_vit_large",
      "actual_backbone": "retfound_mae_vit_large",
      "is_retfound": true,
      "checkpoint_path": "/home/tiger/.cache/huggingface/hub/models--YukunZhou--RETFound_mae_natureCFP/snapshots/556830f78214f0e8da35af965292ac5a3180ac47/RETFound_mae_natureCFP.pth",
      "lora_rank": 8,
      "lora_alpha": 16.0,
      "trainable_params": 1226798,
      "total_params": 304528430
    },
    "train_loss": [
      0.5630300646026929,
      0.5188511637349924,
      0.49963971798618634,
      0.4721480026841164,
      0.4607370028893153,
      0.4278213899582624,
      0.4125323840727409,
      0.3939932091782491,
      0.39424838895599046,
      0.3762318690617879,
      0.35785180690387886,
      0.35556166991591454,
      0.3464040249586105,
      0.3416442460070054,
      0.3249052802721659,
      0.3130447949593266,
      0.3073856165011724,
      0.2907853956023852,
      0.2814642325043678,
      0.2763169658059875,
      0.2738755372663339,
      0.2607712424049775,
      0.2508004419505596,
      0.23556891201684874,
      0.22883983198553323,
      0.22243711333721877,
      0.21696117073297502,
      0.20144961327314378,
      0.19168444853276012,
      0.1823161999384562,
      0.18040898960704604,
      0.1673995348935326,
      0.16396299997965497,
      0.15332880572726332,
      0.15497635351493955,
      0.14488399100179475,
      0.14318560101091862,
      0.13285810357580582,
      0.12628007866442204,
      0.125134812342003
    ],
    "comm_bytes_upload_per_round": [
      19628768,
      19628768,
      19628768,
      19628768,
      19628768,
      19628768,
      19628768,
      19628768,
      19628768,
      19628768,
      19628768,
      19628768,
      19628768,
      19628768,
      19628768,
      19628768,
      19628768,
      19628768,
      19628768,
      19628768,
      19628768,
      19628768,
      19628768,
      19628768,
      19628768,
      19628768,
      19628768,
      19628768,
      19628768,
      19628768,
      19628768,
      19628768,
      19628768,
      19628768,
      19628768,
      19628768,
      19628768,
      19628768,
      19628768,
      19628768
    ],
    "total_upload_bytes": 785150720,
    "agent_weight_history": [
      {
        "0": 0.2131823365568762,
        "1": 0.11545555516933508,
        "2": 0.3496038176889124,
        "3": 0.3217582905848763
      },
      {
        "0": 0.25963528405115405,
        "1": 0.32513905083146066,
        "2": 0.21130631850040732,
        "3": 0.20391934661697794
      },
      {
        "0": 0.21706023686657136,
        "1": 0.19134253124028403,
        "2": 0.3136766907574473,
        "3": 0.2779205411356973
      },
      {
        "0": 0.39098586688411924,
        "1": 0.20010058116861387,
        "2": 0.28284544228375774,
        "3": 0.12606810966350915
      },
      {
        "0": 0.32911755569658346,
        "1": 0.3143768488935683,
        "2": 0.18750918872438546,
        "3": 0.16899640668546276
      },
      {
        "0": 0.29128391817477006,
        "1": 0.1809802686320791,
        "2": 0.26108013507146316,
        "3": 0.26665567812168767
      },
      {
        "0": 0.14981722071731618,
        "1": 0.3441406103877927,
        "2": 0.24760266081561577,
        "3": 0.25843950807927535
      },
      {
        "0": 0.22590500304653993,
        "1": 0.3509875935987337,
        "2": 0.3184470455286983,
        "3": 0.10466035782602813
      },
      {
        "0": 0.1192801901653536,
        "1": 0.28202898687409655,
        "2": 0.32894457103896585,
        "3": 0.26974625192158386
      },
      {
        "0": 0.24635960202344595,
        "1": 0.2043325202561968,
        "2": 0.3707671942239733,
        "3": 0.17854068349638394
      },
      {
        "0": 0.24091804476044207,
        "1": 0.25854536716229337,
        "2": 0.3275334831458631,
        "3": 0.17300310493140136
      },
      {
        "0": 0.18850736879230592,
        "1": 0.23534043949809985,
        "2": 0.2505478225518476,
        "3": 0.3256043691577466
      },
      {
        "0": 0.37913160472724877,
        "1": 0.04237631987419779,
        "2": 0.3121610963335498,
        "3": 0.2663309790650037
      },
      {
        "0": 0.3653541168151346,
        "1": 0.2592560694998693,
        "2": 0.3716400527439438,
        "3": 0.0037497609410523758
      },
      {
        "0": 0.28090734096974346,
        "1": 0.17234523400626559,
        "2": 0.32242160734789294,
        "3": 0.2243258176760979
      },
      {
        "0": 0.2424289577521917,
        "1": 0.3708001331468138,
        "2": 0.12401489659631923,
        "3": 0.2627560125046752
      },
      {
        "0": 0.29255190195148484,
        "1": 0.35986359910330906,
        "2": 0.1969338230889622,
        "3": 0.15065067585624378
      },
      {
        "0": 0.27437207485589465,
        "1": 0.10499659184907928,
        "2": 0.29717164409472874,
        "3": 0.32345968920029733
      },
      {
        "0": 0.3075010155779975,
        "1": 0.21458177513247692,
        "2": 0.26142099396230434,
        "3": 0.2164962153272213
      },
      {
        "0": 0.3147065248565937,
        "1": 0.2676078846872375,
        "2": 0.24945312442158638,
        "3": 0.1682324660345824
      },
      {
        "0": 0.3095008183177326,
        "1": 0.20923635850104566,
        "2": 0.33695063432665784,
        "3": 0.14431218885456393
      },
      {
        "0": 0.2654881721483714,
        "1": 0.19393797658805348,
        "2": 0.21976954702475504,
        "3": 0.32080430423882006
      },
      {
        "0": 0.19825973642535177,
        "1": 0.30856515142915325,
        "2": 0.27947541637481904,
        "3": 0.21369969577067593
      },
      {
        "0": 0.23536250741614193,
        "1": 0.15303026389018418,
        "2": 0.26400287076388723,
        "3": 0.34760435792978667
      },
      {
        "0": 0.25850234370977665,
        "1": 0.18507169922996256,
        "2": 0.3017212335540777,
        "3": 0.2547047235061831
      },
      {
        "0": 0.3231759672260255,
        "1": 0.1584016766924802,
        "2": 0.3212064897643859,
        "3": 0.19721586631710836
      },
      {
        "0": 0.2067767687413407,
        "1": 0.1887514454520726,
        "2": 0.3232088578445271,
        "3": 0.28126292796205965
      },
      {
        "0": 0.31574872637024676,
        "1": 0.31252775012098755,
        "2": 0.14381561585353422,
        "3": 0.22790790765523158
      },
      {
        "0": 0.3083553188250991,
        "1": 0.23006612668999393,
        "2": 0.270190115174441,
        "3": 0.19138843931046592
      },
      {
        "0": 0.22954911996821817,
        "1": 0.115331350516123,
        "2": 0.31520733704812076,
        "3": 0.339912192467538
      },
      {
        "0": 0.15486444447301084,
        "1": 0.2756813356622645,
        "2": 0.31648837137000385,
        "3": 0.25296584849472087
      },
      {
        "0": 0.1976795821275273,
        "1": 0.2407134967120067,
        "2": 0.334726920677391,
        "3": 0.22688000048307505
      },
      {
        "0": 0.27567968206638493,
        "1": 0.28608504353690833,
        "2": 0.31679267230790936,
        "3": 0.12144260208879741
      },
      {
        "0": 0.30957384526978554,
        "1": 0.3238617116646789,
        "2": 0.22140361300755534,
        "3": 0.14516083005798017
      },
      {
        "0": 0.18559029832262,
        "1": 0.20358920918592088,
        "2": 0.3229791655047542,
        "3": 0.287841326986705
      },
      {
        "0": 0.3017871260158775,
        "1": 0.22212469350556743,
        "2": 0.2902828203203328,
        "3": 0.18580536015822233
      },
      {
        "0": 0.3366811243512173,
        "1": 0.21394858513199827,
        "2": 0.2742742178802364,
        "3": 0.17509607263654808
      },
      {
        "0": 0.2758100314543724,
        "1": 0.21040277789366393,
        "2": 0.2821732424053703,
        "3": 0.23161394824659337
      },
      {
        "0": 0.2822994660612691,
        "1": 0.2519955593381053,
        "2": 0.23767407866425783,
        "3": 0.22803089593636777
      },
      {
        "0": 0.2809084487898673,
        "1": 0.2398378345046481,
        "2": 0.31169949911410705,
        "3": 0.16755421759137756
      }
    ],
    "agent_probe_history": [
      {
        "0": -0.24894960224628448,
        "1": -0.27530428767204285,
        "2": -0.2175612449645996,
        "3": -0.2242504358291626
      },
      {
        "0": -0.23031851649284363,
        "1": -0.21243759989738464,
        "2": -0.24267666041851044,
        "3": -0.2445858120918274
      },
      {
        "0": -0.23802976310253143,
        "1": -0.2444681078195572,
        "2": -0.21416933834552765,
        "3": -0.22320014238357544
      },
      {
        "0": -0.15521298348903656,
        "1": -0.2090148776769638,
        "2": -0.18825004994869232,
        "3": -0.22984960675239563
      },
      {
        "0": -0.1969224363565445,
        "1": -0.2007533758878708,
        "2": -0.23175925016403198,
        "3": -0.2365943193435669
      },
      {
        "0": -0.17605385184288025,
        "1": -0.20181742310523987,
        "2": -0.1829443871974945,
        "3": -0.18167653679847717
      },
      {
        "0": -0.21599313616752625,
        "1": -0.16738688945770264,
        "2": -0.1912938356399536,
        "3": -0.18872365355491638
      },
      {
        "0": -0.18910673260688782,
        "1": -0.16092126071453094,
        "2": -0.16850623488426208,
        "3": -0.22186708450317383
      },
      {
        "0": -0.22420182824134827,
        "1": -0.18422311544418335,
        "2": -0.1738746464252472,
        "3": -0.18689480423927307
      },
      {
        "0": -0.19632825255393982,
        "1": -0.20755086839199066,
        "2": -0.15590496361255646,
        "3": -0.2145858258008957
      },
      {
        "0": -0.16247716546058655,
        "1": -0.15824030339717865,
        "2": -0.1410236358642578,
        "3": -0.1794086992740631
      },
      {
        "0": -0.18785952031612396,
        "1": -0.1760617196559906,
        "2": -0.17230471968650818,
        "3": -0.15292112529277802
      },
      {
        "0": -0.14168399572372437,
        "1": -0.23709987103939056,
        "2": -0.15620367228984833,
        "3": -0.16573044657707214
      },
      {
        "0": -0.14587712287902832,
        "1": -0.16646017134189606,
        "2": -0.14462901651859283,
        "3": -0.30945107340812683
      },
      {
        "0": -0.14773818850517273,
        "1": -0.17423513531684875,
        "2": -0.13746382296085358,
        "3": -0.16123370826244354
      },
      {
        "0": -0.16227197647094727,
        "1": -0.12940779328346252,
        "2": -0.1935417801141739,
        "3": -0.1574409455060959
      },
      {
        "0": -0.15166811645030975,
        "1": -0.13290829956531525,
        "2": -0.175414577126503,
        "3": -0.18785783648490906
      },
      {
        "0": -0.1525072157382965,
        "1": -0.19485540688037872,
        "2": -0.14771772921085358,
        "3": -0.14215326309204102
      },
      {
        "0": -0.13558652997016907,
        "1": -0.1594357043504715,
        "2": -0.1476368010044098,
        "3": -0.1589503437280655
      },
      {
        "0": -0.14489759504795074,
        "1": -0.15603862702846527,
        "2": -0.16025373339653015,
        "3": -0.180023193359375
      },
      {
        "0": -0.13292859494686127,
        "1": -0.15641836822032928,
        "2": -0.1261603832244873,
        "3": -0.17327585816383362
      },
      {
        "0": -0.11925280839204788,
        "1": -0.1371290236711502,
        "2": -0.1305922567844391,
        "3": -0.10487641394138336
      },
      {
        "0": -0.16190901398658752,
        "1": -0.13458506762981415,
        "2": -0.14194542169570923,
        "3": -0.15804597735404968
      },
      {
        "0": -0.1384187936782837,
        "1": -0.15947693586349487,
        "2": -0.1315288096666336,
        "3": -0.1101110652089119
      },
      {
        "0": -0.130656436085701,
        "1": -0.14828091859817505,
        "2": -0.12044006586074829,
        "3": -0.13154442608356476
      },
      {
        "0": -0.10617442429065704,
        "1": -0.14592328667640686,
        "2": -0.10665890574455261,
        "3": -0.1359260231256485
      },
      {
        "0": -0.13600319623947144,
        "1": -0.1406029760837555,
        "2": -0.10657232254743576,
        "3": -0.11754418909549713
      },
      {
        "0": -0.13013535737991333,
        "1": -0.13086996972560883,
        "2": -0.17077592015266418,
        "3": -0.14981506764888763
      },
      {
        "0": -0.11251131445169449,
        "1": -0.13156229257583618,
        "2": -0.1219167485833168,
        "3": -0.1410977691411972
      },
      {
        "0": -0.13130831718444824,
        "1": -0.161234050989151,
        "2": -0.11228150129318237,
        "3": -0.1066017895936966
      },
      {
        "0": -0.16160863637924194,
        "1": -0.13259516656398773,
        "2": -0.12317635864019394,
        "3": -0.1377546340227127
      },
      {
        "0": -0.13205304741859436,
        "1": -0.12093379348516464,
        "2": -0.09499029070138931,
        "3": -0.12448496371507645
      },
      {
        "0": -0.11598863452672958,
        "1": -0.1137656643986702,
        "2": -0.10716404765844345,
        "3": -0.15351909399032593
      },
      {
        "0": -0.11526526510715485,
        "1": -0.111910380423069,
        "2": -0.13537782430648804,
        "3": -0.15464714169502258
      },
      {
        "0": -0.14119760692119598,
        "1": -0.13660112023353577,
        "2": -0.10668374598026276,
        "3": -0.11582281440496445
      },
      {
        "0": -0.115623340010643,
        "1": -0.1344417780637741,
        "2": -0.11838477104902267,
        "3": -0.14333456754684448
      },
      {
        "0": -0.10029695183038712,
        "1": -0.13169699907302856,
        "2": -0.1167934387922287,
        "3": -0.1416834145784378
      },
      {
        "0": -0.09924309700727463,
        "1": -0.11482570320367813,
        "2": -0.0977230966091156,
        "3": -0.10972151905298233
      },
      {
        "0": -0.10465465486049652,
        "1": -0.11215320974588394,
        "2": -0.11566387861967087,
        "3": -0.11803305149078369
      },
      {
        "0": -0.09783635288476944,
        "1": -0.10732030123472214,
        "2": -0.09059388190507889,
        "3": -0.12494947761297226
      }
    ],
    "agent_mu_history": [
      {
        "0": 0.0,
        "1": 0.0,
        "2": 0.0,
        "3": 0.0
      },
      {
        "0": 0.0,
        "1": 0.0,
        "2": 0.0,
        "3": 0.0
      },
      {
        "0": 0.0,
        "1": 0.0,
        "2": 0.0,
        "3": 0.0
      },
      {
        "0": 0.0,
        "1": 0.0,
        "2": 0.0,
        "3": 0.0
      },
      {
        "0": 0.0,
        "1": 0.0,
        "2": 0.0,
        "3": 0.0
      },
      {
        "0": 0.0,
        "1": 0.0,
        "2": 0.0,
        "3": 0.0
      },
      {
        "0": 0.0,
        "1": 0.0,
        "2": 0.0,
        "3": 0.0
      },
      {
        "0": 0.0,
        "1": 0.0,
        "2": 0.0,
        "3": 0.0
      },
      {
        "0": 0.0,
        "1": 0.0,
        "2": 0.0,
        "3": 0.0
      },
      {
        "0": 0.0,
        "1": 0.0,
        "2": 0.0,
        "3": 0.0
      },
      {
        "0": 0.0,
        "1": 0.0,
        "2": 0.0,
        "3": 0.0
      },
      {
        "0": 0.0,
        "1": 0.0,
        "2": 0.0,
        "3": 0.0
      },
      {
        "0": 0.0,
        "1": 0.0,
        "2": 0.0,
        "3": 0.0
      },
      {
        "0": 0.0,
        "1": 0.0,
        "2": 0.0,
        "3": 0.0
      },
      {
        "0": 0.0,
        "1": 0.0,
        "2": 0.0,
        "3": 0.0
      },
      {
        "0": 0.0,
        "1": 0.0,
        "2": 0.0,
        "3": 0.0
      },
      {
        "0": 0.0,
        "1": 0.0,
        "2": 0.0,
        "3": 0.0
      },
      {
        "0": 0.0,
        "1": 0.0,
        "2": 0.0,
        "3": 0.0
      },
      {
        "0": 0.0,
        "1": 0.0,
        "2": 0.0,
        "3": 0.0
      },
      {
        "0": 0.0,
        "1": 0.0,
        "2": 0.0,
        "3": 0.0
      },
      {
        "0": 0.0,
        "1": 0.0,
        "2": 0.0,
        "3": 0.0
      },
      {
        "0": 0.0,
        "1": 0.0,
        "2": 0.0,
        "3": 0.0
      },
      {
        "0": 0.0,
        "1": 0.0,
        "2": 0.0,
        "3": 0.0
      },
      {
        "0": 0.0,
        "1": 0.0,
        "2": 0.0,
        "3": 0.0
      },
      {
        "0": 0.0,
        "1": 0.0,
        "2": 0.0,
        "3": 0.0
      },
      {
        "0": 0.0,
        "1": 0.0,
        "2": 0.0,
        "3": 0.0
      },
      {
        "0": 0.0,
        "1": 0.0,
        "2": 0.0,
        "3": 0.0
      },
      {
        "0": 0.0,
        "1": 0.0,
        "2": 0.0,
        "3": 0.0
      },
      {
        "0": 0.0,
        "1": 0.0,
        "2": 0.0,
        "3": 0.0
      },
      {
        "0": 0.0,
        "1": 0.0,
        "2": 0.0,
        "3": 0.0
      },
      {
        "0": 0.0,
        "1": 0.0,
        "2": 0.0,
        "3": 0.0
      },
      {
        "0": 0.0,
        "1": 0.0,
        "2": 0.0,
        "3": 0.0
      },
      {
        "0": 0.0,
        "1": 0.0,
        "2": 0.0,
        "3": 0.0
      },
      {
        "0": 0.0,
        "1": 0.0,
        "2": 0.0,
        "3": 0.0
      },
      {
        "0": 0.0,
        "1": 0.0,
        "2": 0.0,
        "3": 0.0
      },
      {
        "0": 0.0,
        "1": 0.0,
        "2": 0.0,
        "3": 0.0
      },
      {
        "0": 0.0,
        "1": 0.0,
        "2": 0.0,
        "3": 0.0
      },
      {
        "0": 0.0,
        "1": 0.0,
        "2": 0.0,
        "3": 0.0
      },
      {
        "0": 0.0,
        "1": 0.0,
        "2": 0.0,
        "3": 0.0
      },
      {
        "0": 0.0,
        "1": 0.0,
        "2": 0.0,
        "3": 0.0
      }
    ],
    "agent_noisy_clients": [
      2,
      3
    ],
    "agent_probe_heldout": true,
    "agent_adaptive_mu": false,
    "eval": {
      "threshold": 0.5,
      "micro_f1": 0.6729041916167665,
      "macro_f1_present": 0.25748515836611763,
      "best_threshold": 0.6,
      "best_micro_f1": 0.693567718737515,
      "best_macro_f1_present": 0.27067920554470015,
      "macro_ap": 0.29054721780140047,
      "macro_auroc": 0.8264744667280821
    }
  }
}
