{
  "name": "het04_agent_tau005_s0",
  "config": {
    "method": "agent_fed",
    "backbone": "retfound_mae_vit_large",
    "seed": 0,
    "epochs": 20,
    "rounds": 40,
    "local_epochs": 1,
    "batch_size": 16,
    "lr": 0.001,
    "fedprox_mu": 0.0,
    "loss": "balanced_bce",
    "positive_dropout": 0.0,
    "train_label_noise": 0.0,
    "image_size": [
      224,
      224
    ],
    "device": "cuda",
    "lora_rank": 8,
    "lora_alpha": 16.0,
    "require_retfound": true,
    "num_workers": 8,
    "pin_memory": true,
    "persistent_workers": true,
    "use_data_parallel": true,
    "agent_aggregation": "agent",
    "agent_tau": 0.05,
    "agent_geometry": false,
    "agent_noisy_clients": [
      2,
      3
    ],
    "agent_client_noise": 0.4,
    "agent_adaptive_mu": false,
    "agent_mu_max": 0.1,
    "agent_mu_tau": 0.05
  },
  "result": {
    "config": {
      "method": "agent_fed",
      "backbone": "retfound_mae_vit_large",
      "seed": 0,
      "epochs": 20,
      "rounds": 40,
      "local_epochs": 1,
      "batch_size": 16,
      "lr": 0.001,
      "fedprox_mu": 0.0,
      "loss": "balanced_bce",
      "positive_dropout": 0.0,
      "train_label_noise": 0.0,
      "image_size": [
        224,
        224
      ],
      "device": "cuda",
      "lora_rank": 8,
      "lora_alpha": 16.0,
      "require_retfound": true,
      "num_workers": 8,
      "pin_memory": true,
      "persistent_workers": true,
      "use_data_parallel": true,
      "agent_aggregation": "agent",
      "agent_tau": 0.05,
      "agent_geometry": false,
      "agent_noisy_clients": [
        2,
        3
      ],
      "agent_client_noise": 0.4,
      "agent_adaptive_mu": false,
      "agent_mu_max": 0.1,
      "agent_mu_tau": 0.05
    },
    "model_info": {
      "requested_backbone": "retfound_mae_vit_large",
      "actual_backbone": "retfound_mae_vit_large",
      "is_retfound": true,
      "checkpoint_path": "/mnt/bn/feed-quality-issues/gushiyu/projects/fl-agent/weights/RETFound_mae_natureCFP.pth",
      "lora_rank": 8,
      "lora_alpha": 16.0,
      "trainable_params": 1226798,
      "total_params": 304528430
    },
    "train_loss": [
      1.4423251579205196,
      2.113396682838599,
      2.3297060067454973,
      2.5590200230479243,
      2.444703584164381,
      2.367510031039516,
      2.3166075094292564,
      2.2318795579175155,
      2.2396874881039066,
      2.222794241209825,
      2.206029658019543,
      2.286819515004754,
      2.1907006659855446,
      2.245566093797485,
      2.420227240646879,
      2.416653399790327,
      2.6855711312343677,
      2.373694198764861,
      2.4587429280082382,
      2.3907967682306968,
      2.465811286556224,
      2.3624833713596063,
      2.7517910371844967,
      2.7066823984185855,
      2.603003307369848,
      2.610618726691852,
      2.583418757840991,
      2.6271855435644587,
      2.6707728098457055,
      3.0684244889145096,
      2.58599939236107,
      2.9507816893359022,
      2.7909802209430685,
      2.7169301446837686,
      3.208068270903701,
      2.9716904995342093,
      2.8582221820174407,
      2.770985118020326,
      3.311965832967932,
      3.0991188150132074
    ],
    "comm_bytes_upload_per_round": [
      19628768,
      19628768,
      19628768,
      19628768,
      19628768,
      19628768,
      19628768,
      19628768,
      19628768,
      19628768,
      19628768,
      19628768,
      19628768,
      19628768,
      19628768,
      19628768,
      19628768,
      19628768,
      19628768,
      19628768,
      19628768,
      19628768,
      19628768,
      19628768,
      19628768,
      19628768,
      19628768,
      19628768,
      19628768,
      19628768,
      19628768,
      19628768,
      19628768,
      19628768,
      19628768,
      19628768,
      19628768,
      19628768,
      19628768,
      19628768
    ],
    "total_upload_bytes": 785150720,
    "agent_weight_history": [
      {
        "0": 0.4999999998715303,
        "1": 0.49999999970864456,
        "2": 8.840363821610214e-11,
        "3": 3.3142151174741293e-10
      },
      {
        "0": 0.4999999995714,
        "1": 0.4999999994110393,
        "2": 6.104756077174431e-10,
        "3": 4.070850458675805e-10
      },
      {
        "0": 0.49999999783415244,
        "1": 0.4999999976258009,
        "2": 3.965667423958844e-09,
        "3": 5.743793456088442e-10
      },
      {
        "0": 0.49999999997945815,
        "1": 0.49999999995805616,
        "2": 2.611127528500693e-11,
        "3": 3.637437039674694e-11
      },
      {
        "0": 0.4999999992156695,
        "1": 0.49999999899958386,
        "2": 1.7843324223350384e-09,
        "3": 4.140854377868864e-13
      },
      {
        "0": 0.4999999999993362,
        "1": 0.49999999999903955,
        "2": 9.033424959906247e-13,
        "3": 7.209413527864199e-13
      },
      {
        "0": 0.4999999999968361,
        "1": 0.4999999999977291,
        "2": 1.7144442405125223e-12,
        "3": 3.720449327639768e-12
      },
      {
        "0": 0.49999999676978835,
        "1": 0.4999999959431262,
        "2": 1.03455851136527e-13,
        "3": 7.286982025539059e-09
      },
      {
        "0": 0.49999999495160935,
        "1": 0.49999999815510937,
        "2": 1.8264826825343706e-09,
        "3": 5.066798492665369e-09
      },
      {
        "0": 0.4999999973572883,
        "1": 0.4999999976082451,
        "2": 4.06956950309935e-09,
        "3": 9.648971666963457e-10
      },
      {
        "0": 0.4999999999980008,
        "1": 0.49999999999478184,
        "2": 6.767159059216142e-14,
        "3": 7.1497605754457106e-12
      },
      {
        "0": 0.4999999945050937,
        "1": 0.4999999988801379,
        "2": 6.6147605308820335e-09,
        "3": 7.851693466623685e-15
      },
      {
        "0": 0.4999999999974263,
        "1": 0.499999999972364,
        "2": 2.315571592048622e-13,
        "3": 2.997824438169413e-11
      },
      {
        "0": 0.49999999999980266,
        "1": 0.49999999999977296,
        "2": 4.810455939134471e-15,
        "3": 4.195730503084146e-13
      },
      {
        "0": 0.49999999989329574,
        "1": 0.4999999998337337,
        "2": 1.3079721050373902e-10,
        "3": 1.4217332776536773e-10
      },
      {
        "0": 0.49999999999685196,
        "1": 0.4999999999987358,
        "2": 7.11338167794182e-13,
        "3": 3.701026694320776e-12
      },
      {
        "0": 0.4999999999994193,
        "1": 0.4999999999998788,
        "2": 6.924266547481386e-13,
        "3": 9.433495323481597e-15
      },
      {
        "0": 0.49999999957859603,
        "1": 0.49999999915065735,
        "2": 1.2705287848212217e-09,
        "3": 2.1777649477527752e-13
      },
      {
        "0": 0.49999999996554717,
        "1": 0.4999999999701453,
        "2": 1.1353471892212661e-12,
        "3": 6.317224972547388e-11
      },
      {
        "0": 0.49999999994595307,
        "1": 0.4999999999324275,
        "2": 1.0872040971872007e-10,
        "3": 1.2899132811139475e-11
      },
      {
        "0": 0.4999999998670176,
        "1": 0.49999999984501353,
        "2": 2.8785984538361226e-10,
        "3": 1.090640148649622e-13
      },
      {
        "0": 0.4999999986787503,
        "1": 0.49999999893213115,
        "2": 9.622557212973264e-10,
        "3": 1.4268629330355398e-09
      },
      {
        "0": 0.4999999998266075,
        "1": 0.49999999989715077,
        "2": 1.5967617188826398e-10,
        "3": 1.165656213466457e-10
      },
      {
        "0": 0.49999999852507715,
        "1": 0.4999999984027868,
        "2": 1.0376913293214673e-12,
        "3": 3.0710981902229565e-09
      },
      {
        "0": 0.4999999985669129,
        "1": 0.4999999990046188,
        "2": 3.44133821868824e-13,
        "3": 2.4281241499101014e-09
      },
      {
        "0": 0.49999999999767886,
        "1": 0.4999999999960183,
        "2": 4.1091925278865805e-15,
        "3": 6.298665519887206e-12
      },
      {
        "0": 0.49999999999568007,
        "1": 0.49999999999274886,
        "2": 7.546323422788048e-15,
        "3": 1.1563484493848705e-11
      },
      {
        "0": 0.49999999996147143,
        "1": 0.49999999998462935,
        "2": 1.5282758777182333e-11,
        "3": 3.8616423980602293e-11
      },
      {
        "0": 0.4999999999762702,
        "1": 0.49999999997265226,
        "2": 4.8518494942767846e-11,
        "3": 2.5590245431586266e-12
      },
      {
        "0": 0.4999999999906651,
        "1": 0.4999999999730341,
        "2": 4.810860260090903e-13,
        "3": 3.5819706048819454e-11
      },
      {
        "0": 0.4999999999520811,
        "1": 0.4999999999635376,
        "2": 3.89909921088222e-12,
        "3": 8.048226524585357e-11
      },
      {
        "0": 0.49999999999089345,
        "1": 0.49999999998177064,
        "2": 2.7221615644214235e-11,
        "3": 1.1440617598564942e-13
      },
      {
        "0": 0.4999999994090512,
        "1": 0.49999999891836777,
        "2": 4.3329535451735996e-15,
        "3": 1.6725766479220677e-09
      },
      {
        "0": 0.4999999998731564,
        "1": 0.49999999990416016,
        "2": 6.269714758535422e-17,
        "3": 2.226834416555477e-10
      },
      {
        "0": 0.49999999987123,
        "1": 0.4999999999169246,
        "2": 1.4280256837981673e-12,
        "3": 2.1041728028052095e-10
      },
      {
        "0": 0.4999999997154047,
        "1": 0.4999999996298795,
        "2": 8.780907224596352e-17,
        "3": 6.547156888222545e-10
      },
      {
        "0": 0.499999999997596,
        "1": 0.499999999996861,
        "2": 1.1403526330624887e-13,
        "3": 5.4290170037467054e-12
      },
      {
        "0": 0.49999999791343175,
        "1": 0.49999999817127266,
        "2": 2.709252963348214e-12,
        "3": 3.9125862613836775e-09
      },
      {
        "0": 0.4999999999332452,
        "1": 0.4999999998611624,
        "2": 2.05139146527625e-10,
        "3": 4.532747166259369e-13
      },
      {
        "0": 0.4999999973842035,
        "1": 0.499999997314859,
        "2": 5.300936996063951e-09,
        "3": 5.475718877792486e-16
      }
    ],
    "agent_probe_history": [
      {
        "0": -0.24174760282039642,
        "1": -0.27555975317955017,
        "2": -2.4550819396972656,
        "3": -2.389008045196533
      },
      {
        "0": -0.22203317284584045,
        "1": -0.23726995289325714,
        "2": -2.2896335124969482,
        "3": -2.309894323348999
      },
      {
        "0": -0.23595131933689117,
        "1": -0.23864978551864624,
        "2": -2.1038942337036133,
        "3": -2.2005012035369873
      },
      {
        "0": -0.1819343864917755,
        "1": -0.22631734609603882,
        "2": -2.5772931575775146,
        "3": -2.560718297958374
      },
      {
        "0": -0.1885640174150467,
        "1": -0.19501832127571106,
        "2": -2.1401257514953613,
        "3": -2.5585498809814453
      },
      {
        "0": -0.20147772133350372,
        "1": -0.2213783711194992,
        "2": -2.9253311157226562,
        "3": -2.93660831451416
      },
      {
        "0": -0.18685270845890045,
        "1": -0.1731278896331787,
        "2": -2.7879934310913086,
        "3": -2.749255657196045
      },
      {
        "0": -0.18804745376110077,
        "1": -0.19406798481941223,
        "2": -2.556593656539917,
        "3": -1.9984709024429321
      },
      {
        "0": -0.2018105685710907,
        "1": -0.1517925262451172,
        "2": -2.093567371368408,
        "3": -2.0425515174865723
      },
      {
        "0": -0.19027888774871826,
        "1": -0.18709638714790344,
        "2": -2.0529370307922363,
        "3": -2.1249005794525146
      },
      {
        "0": -0.1551281362771988,
        "1": -0.18504057824611664,
        "2": -2.915128469467163,
        "3": -2.6821200847625732
      },
      {
        "0": -0.2204241007566452,
        "1": -0.16627638041973114,
        "2": -2.034505605697632,
        "3": -2.716709852218628
      },
      {
        "0": -0.14881345629692078,
        "1": -0.2392125278711319,
        "2": -2.836122751235962,
        "3": -2.5929527282714844
      },
      {
        "0": -0.1395568698644638,
        "1": -0.14322496950626373,
        "2": -3.1472864151000977,
        "3": -2.9238641262054443
      },
      {
        "0": -0.12784133851528168,
        "1": -0.15498636662960052,
        "2": -2.357239007949829,
        "3": -2.3530690670013428
      },
      {
        "0": -0.14421050250530243,
        "1": -0.1086442843079567,
        "2": -2.789597749710083,
        "3": -2.707136869430542
      },
      {
        "0": -0.17261359095573425,
        "1": -0.11813867837190628,
        "2": -2.903156280517578,
        "3": -3.117953062057495
      },
      {
        "0": -0.12487415969371796,
        "1": -0.14540955424308777,
        "2": -2.1244781017303467,
        "3": -2.558051824569702
      },
      {
        "0": -0.14872398972511292,
        "1": -0.14494532346725464,
        "2": -2.628871202468872,
        "3": -2.427924871444702
      },
      {
        "0": -0.13582277297973633,
        "1": -0.14246545732021332,
        "2": -2.367374897003174,
        "3": -2.4739558696746826
      },
      {
        "0": -0.1245710551738739,
        "1": -0.1285470426082611,
        "2": -2.256087064743042,
        "3": -2.6500017642974854
      },
      {
        "0": -0.11988609284162521,
        "1": -0.11011095345020294,
        "2": -2.1070477962493896,
        "3": -2.0873501300811768
      },
      {
        "0": -0.13372854888439178,
        "1": -0.10457760095596313,
        "2": -2.3202011585235596,
        "3": -2.3359358310699463
      },
      {
        "0": -0.13386186957359314,
        "1": -0.1358935832977295,
        "2": -2.4263415336608887,
        "3": -2.0267019271850586
      },
      {
        "0": -0.11957049369812012,
        "1": -0.10963178426027298,
        "2": -2.4769504070281982,
        "3": -2.0338704586029053
      },
      {
        "0": -0.1116623729467392,
        "1": -0.12696465849876404,
        "2": -3.0034615993499756,
        "3": -2.636718273162842
      },
      {
        "0": -0.10013429075479507,
        "1": -0.11475095897912979,
        "2": -2.930480480194092,
        "3": -2.563753128051758
      },
      {
        "0": -0.14109283685684204,
        "1": -0.09531701356172562,
        "2": -2.515860080718994,
        "3": -2.469512462615967
      },
      {
        "0": -0.10199813544750214,
        "1": -0.1058727577328682,
        "2": -2.411465644836426,
        "3": -2.558581590652466
      },
      {
        "0": -0.10265141725540161,
        "1": -0.13653604686260223,
        "2": -2.687983989715576,
        "3": -2.472473621368408
      },
      {
        "0": -0.10976214706897736,
        "1": -0.10208428651094437,
        "2": -2.516110420227051,
        "3": -2.364745855331421
      },
      {
        "0": -0.10404085367918015,
        "1": -0.12444891035556793,
        "2": -2.487835168838501,
        "3": -2.7614357471466064
      },
      {
        "0": -0.09640709310770035,
        "1": -0.11376947909593582,
        "2": -2.708526134490967,
        "3": -2.06534481048584
      },
      {
        "0": -0.10627726465463638,
        "1": -0.09878099709749222,
        "2": -3.013636827468872,
        "3": -2.2594895362854004
      },
      {
        "0": -0.11594505608081818,
        "1": -0.10370354354381561,
        "2": -2.524463176727295,
        "3": -2.2748231887817383
      },
      {
        "0": -0.10075823217630386,
        "1": -0.10775752365589142,
        "2": -2.944352149963379,
        "3": -2.1531248092651367
      },
      {
        "0": -0.09413127601146698,
        "1": -0.10140431672334671,
        "2": -2.8191661834716797,
        "3": -2.6260159015655518
      },
      {
        "0": -0.10168425738811493,
        "1": -0.09827564656734467,
        "2": -2.332040309906006,
        "3": -1.9682762622833252
      },
      {
        "0": -0.09320486336946487,
        "1": -0.11485065519809723,
        "2": -2.2762691974639893,
        "3": -2.5820164680480957
      },
      {
        "0": -0.10073194652795792,
        "1": -0.10139033943414688,
        "2": -1.937613844871521,
        "3": -2.741896629333496
      }
    ],
    "agent_mu_history": [
      {
        "0": 0.0,
        "1": 0.0,
        "2": 0.0,
        "3": 0.0
      },
      {
        "0": 0.0,
        "1": 0.0,
        "2": 0.0,
        "3": 0.0
      },
      {
        "0": 0.0,
        "1": 0.0,
        "2": 0.0,
        "3": 0.0
      },
      {
        "0": 0.0,
        "1": 0.0,
        "2": 0.0,
        "3": 0.0
      },
      {
        "0": 0.0,
        "1": 0.0,
        "2": 0.0,
        "3": 0.0
      },
      {
        "0": 0.0,
        "1": 0.0,
        "2": 0.0,
        "3": 0.0
      },
      {
        "0": 0.0,
        "1": 0.0,
        "2": 0.0,
        "3": 0.0
      },
      {
        "0": 0.0,
        "1": 0.0,
        "2": 0.0,
        "3": 0.0
      },
      {
        "0": 0.0,
        "1": 0.0,
        "2": 0.0,
        "3": 0.0
      },
      {
        "0": 0.0,
        "1": 0.0,
        "2": 0.0,
        "3": 0.0
      },
      {
        "0": 0.0,
        "1": 0.0,
        "2": 0.0,
        "3": 0.0
      },
      {
        "0": 0.0,
        "1": 0.0,
        "2": 0.0,
        "3": 0.0
      },
      {
        "0": 0.0,
        "1": 0.0,
        "2": 0.0,
        "3": 0.0
      },
      {
        "0": 0.0,
        "1": 0.0,
        "2": 0.0,
        "3": 0.0
      },
      {
        "0": 0.0,
        "1": 0.0,
        "2": 0.0,
        "3": 0.0
      },
      {
        "0": 0.0,
        "1": 0.0,
        "2": 0.0,
        "3": 0.0
      },
      {
        "0": 0.0,
        "1": 0.0,
        "2": 0.0,
        "3": 0.0
      },
      {
        "0": 0.0,
        "1": 0.0,
        "2": 0.0,
        "3": 0.0
      },
      {
        "0": 0.0,
        "1": 0.0,
        "2": 0.0,
        "3": 0.0
      },
      {
        "0": 0.0,
        "1": 0.0,
        "2": 0.0,
        "3": 0.0
      },
      {
        "0": 0.0,
        "1": 0.0,
        "2": 0.0,
        "3": 0.0
      },
      {
        "0": 0.0,
        "1": 0.0,
        "2": 0.0,
        "3": 0.0
      },
      {
        "0": 0.0,
        "1": 0.0,
        "2": 0.0,
        "3": 0.0
      },
      {
        "0": 0.0,
        "1": 0.0,
        "2": 0.0,
        "3": 0.0
      },
      {
        "0": 0.0,
        "1": 0.0,
        "2": 0.0,
        "3": 0.0
      },
      {
        "0": 0.0,
        "1": 0.0,
        "2": 0.0,
        "3": 0.0
      },
      {
        "0": 0.0,
        "1": 0.0,
        "2": 0.0,
        "3": 0.0
      },
      {
        "0": 0.0,
        "1": 0.0,
        "2": 0.0,
        "3": 0.0
      },
      {
        "0": 0.0,
        "1": 0.0,
        "2": 0.0,
        "3": 0.0
      },
      {
        "0": 0.0,
        "1": 0.0,
        "2": 0.0,
        "3": 0.0
      },
      {
        "0": 0.0,
        "1": 0.0,
        "2": 0.0,
        "3": 0.0
      },
      {
        "0": 0.0,
        "1": 0.0,
        "2": 0.0,
        "3": 0.0
      },
      {
        "0": 0.0,
        "1": 0.0,
        "2": 0.0,
        "3": 0.0
      },
      {
        "0": 0.0,
        "1": 0.0,
        "2": 0.0,
        "3": 0.0
      },
      {
        "0": 0.0,
        "1": 0.0,
        "2": 0.0,
        "3": 0.0
      },
      {
        "0": 0.0,
        "1": 0.0,
        "2": 0.0,
        "3": 0.0
      },
      {
        "0": 0.0,
        "1": 0.0,
        "2": 0.0,
        "3": 0.0
      },
      {
        "0": 0.0,
        "1": 0.0,
        "2": 0.0,
        "3": 0.0
      },
      {
        "0": 0.0,
        "1": 0.0,
        "2": 0.0,
        "3": 0.0
      },
      {
        "0": 0.0,
        "1": 0.0,
        "2": 0.0,
        "3": 0.0
      }
    ],
    "agent_noisy_clients": [
      2,
      3
    ],
    "agent_probe_heldout": true,
    "agent_adaptive_mu": false,
    "eval": {
      "threshold": 0.5,
      "micro_f1": 0.6950354609929078,
      "macro_f1_present": 0.2209869819287278,
      "best_threshold": 0.45,
      "best_micro_f1": 0.6863617968433833,
      "best_macro_f1_present": 0.23470414999767555,
      "macro_ap": 0.2688339895553414,
      "macro_auroc": 0.7932650534166565
    }
  }
}
