{
  "name": "het04_agentmu_s1",
  "config": {
    "method": "agent_fed",
    "backbone": "retfound_mae_vit_large",
    "seed": 1,
    "epochs": 20,
    "rounds": 40,
    "local_epochs": 1,
    "batch_size": 16,
    "lr": 0.001,
    "fedprox_mu": 0.0,
    "loss": "balanced_bce",
    "positive_dropout": 0.0,
    "train_label_noise": 0.0,
    "image_size": [
      224,
      224
    ],
    "device": "cuda",
    "lora_rank": 8,
    "lora_alpha": 16.0,
    "require_retfound": true,
    "num_workers": 8,
    "pin_memory": true,
    "persistent_workers": true,
    "use_data_parallel": true,
    "agent_aggregation": "agent",
    "agent_tau": 0.03,
    "agent_geometry": false,
    "agent_noisy_clients": [
      2,
      3
    ],
    "agent_client_noise": 0.4,
    "agent_adaptive_mu": true,
    "agent_mu_max": 0.1,
    "agent_mu_tau": 0.05
  },
  "result": {
    "config": {
      "method": "agent_fed",
      "backbone": "retfound_mae_vit_large",
      "seed": 1,
      "epochs": 20,
      "rounds": 40,
      "local_epochs": 1,
      "batch_size": 16,
      "lr": 0.001,
      "fedprox_mu": 0.0,
      "loss": "balanced_bce",
      "positive_dropout": 0.0,
      "train_label_noise": 0.0,
      "image_size": [
        224,
        224
      ],
      "device": "cuda",
      "lora_rank": 8,
      "lora_alpha": 16.0,
      "require_retfound": true,
      "num_workers": 8,
      "pin_memory": true,
      "persistent_workers": true,
      "use_data_parallel": true,
      "agent_aggregation": "agent",
      "agent_tau": 0.03,
      "agent_geometry": false,
      "agent_noisy_clients": [
        2,
        3
      ],
      "agent_client_noise": 0.4,
      "agent_adaptive_mu": true,
      "agent_mu_max": 0.1,
      "agent_mu_tau": 0.05
    },
    "model_info": {
      "requested_backbone": "retfound_mae_vit_large",
      "actual_backbone": "retfound_mae_vit_large",
      "is_retfound": true,
      "checkpoint_path": "/mnt/bn/feed-quality-issues/gushiyu/projects/fl-agent/weights/RETFound_mae_natureCFP.pth",
      "lora_rank": 8,
      "lora_alpha": 16.0,
      "trainable_params": 1226798,
      "total_params": 304528430
    },
    "train_loss": [
      1.4164708678921063,
      2.8701937017341455,
      3.157802803317706,
      2.613908776889245,
      2.7827739576498667,
      2.9414615371574957,
      3.1587033649285634,
      2.6225638816754024,
      2.73055687310795,
      2.4422153998166323,
      3.0166534798840683,
      2.596738737697403,
      2.678898720815778,
      2.8631425046672425,
      2.751690083866318,
      2.953194182490309,
      2.664975467696786,
      2.8122903228426974,
      2.8334644442424177,
      3.0379446090509497,
      3.1681019624074302,
      3.016560180733601,
      2.9617177587002517,
      3.5112581583981717,
      3.0217899680758515,
      3.6485229490014413,
      3.3708078408924242,
      3.575126323290169,
      3.194586506175498,
      3.4586780961292485,
      3.2645920870980873,
      3.4980448414882024,
      3.635549139821281,
      3.5547468467305103,
      3.769948269550999,
      3.6303923549441,
      4.546103488591811,
      3.958889598709842,
      3.6317956460795053,
      4.528673517735054
    ],
    "comm_bytes_upload_per_round": [
      19628768,
      19628768,
      19628768,
      19628768,
      19628768,
      19628768,
      19628768,
      19628768,
      19628768,
      19628768,
      19628768,
      19628768,
      19628768,
      19628768,
      19628768,
      19628768,
      19628768,
      19628768,
      19628768,
      19628768,
      19628768,
      19628768,
      19628768,
      19628768,
      19628768,
      19628768,
      19628768,
      19628768,
      19628768,
      19628768,
      19628768,
      19628768,
      19628768,
      19628768,
      19628768,
      19628768,
      19628768,
      19628768,
      19628768,
      19628768
    ],
    "total_upload_bytes": 785150720,
    "agent_weight_history": [
      {
        "0": 0.4999999999999999,
        "1": 0.49999999999999967,
        "2": 7.669341002477484e-18,
        "3": 4.3045881186486996e-16
      },
      {
        "0": 0.5,
        "1": 0.4999999999999999,
        "2": 1.0610676726993456e-18,
        "3": 7.561036107417399e-17
      },
      {
        "0": 0.499999999999995,
        "1": 0.4999999999999962,
        "2": 2.869703301984994e-15,
        "3": 5.9375577251399185e-15
      },
      {
        "0": 0.4999999999999995,
        "1": 0.49999999999999967,
        "2": 8.170353689189438e-18,
        "3": 7.81312214870418e-16
      },
      {
        "0": 0.49999999999999933,
        "1": 0.49999999999999944,
        "2": 2.608507398035618e-16,
        "3": 9.989432410141586e-16
      },
      {
        "0": 0.5,
        "1": 0.5,
        "2": 3.695473024722786e-18,
        "3": 2.21530199060711e-17
      },
      {
        "0": 0.5,
        "1": 0.5,
        "2": 2.0645683834546507e-18,
        "3": 4.2003013645547855e-19
      },
      {
        "0": 0.49999999999999994,
        "1": 0.49999999999999983,
        "2": 2.6582067518711295e-16,
        "3": 9.393544305707835e-20
      },
      {
        "0": 0.49999999999999994,
        "1": 0.4999999999999974,
        "2": 1.0308538180874669e-16,
        "3": 2.6537594650740863e-15
      },
      {
        "0": 0.5,
        "1": 0.5,
        "2": 8.975362164239196e-21,
        "3": 1.2530029083888458e-17
      },
      {
        "0": 0.49999999999999684,
        "1": 0.4999999999999922,
        "2": 1.0780502947102298e-14,
        "3": 1.3211432423441986e-16
      },
      {
        "0": 0.5,
        "1": 0.4999999999999999,
        "2": 1.185582612107546e-16,
        "3": 3.280779727147853e-19
      },
      {
        "0": 0.5,
        "1": 0.5,
        "2": 1.2526925016073059e-19,
        "3": 4.0915191226669122e-19
      },
      {
        "0": 0.4999999999999982,
        "1": 0.49999999999999645,
        "2": 6.293877074829925e-19,
        "3": 5.381332776455011e-15
      },
      {
        "0": 0.5,
        "1": 0.5,
        "2": 2.612452670822492e-18,
        "3": 2.1845502098962325e-17
      },
      {
        "0": 0.5,
        "1": 0.5,
        "2": 2.2230920562538195e-19,
        "3": 4.642213260050874e-19
      },
      {
        "0": 0.4999999999999997,
        "1": 0.4999999999999991,
        "2": 1.2325210687030065e-15,
        "3": 1.263411589292091e-18
      },
      {
        "0": 0.5,
        "1": 0.4999999999999998,
        "2": 1.9123461981707798e-16,
        "3": 2.9652396380673103e-24
      },
      {
        "0": 0.5,
        "1": 0.5,
        "2": 2.236800550114755e-19,
        "3": 1.7934905005580087e-21
      },
      {
        "0": 0.49999999999999994,
        "1": 0.4999999999999993,
        "2": 1.3218295602095067e-17,
        "3": 7.844548025023358e-16
      },
      {
        "0": 0.5,
        "1": 0.5,
        "2": 1.2182304029684933e-20,
        "3": 1.077737560711278e-18
      },
      {
        "0": 0.5,
        "1": 0.5,
        "2": 4.410435659855788e-19,
        "3": 1.0231327118875344e-25
      },
      {
        "0": 0.5,
        "1": 0.5,
        "2": 2.6830307381381818e-20,
        "3": 1.3769046648906237e-21
      },
      {
        "0": 0.5,
        "1": 0.5,
        "2": 1.956512215026602e-21,
        "3": 3.280549964284208e-19
      },
      {
        "0": 0.5,
        "1": 0.5,
        "2": 2.78736079055218e-19,
        "3": 3.5373947012819307e-17
      },
      {
        "0": 0.49999999999999306,
        "1": 0.4999999999999783,
        "2": 6.539378244985431e-27,
        "3": 2.864661693968329e-14
      },
      {
        "0": 0.4999999999999769,
        "1": 0.4999999999999615,
        "2": 6.15819802512822e-14,
        "3": 3.4978633372232696e-20
      },
      {
        "0": 0.5,
        "1": 0.5,
        "2": 3.849360554079602e-20,
        "3": 2.62797332366098e-23
      },
      {
        "0": 0.49999999999999994,
        "1": 0.49999999999999994,
        "2": 6.967416130023182e-17,
        "3": 1.272969223741746e-25
      },
      {
        "0": 0.5,
        "1": 0.5,
        "2": 9.754989949004892e-19,
        "3": 1.5974944474542193e-23
      },
      {
        "0": 0.5,
        "1": 0.5,
        "2": 7.123313732526392e-22,
        "3": 1.4029233542729278e-18
      },
      {
        "0": 0.5,
        "1": 0.5,
        "2": 1.3398970423995024e-20,
        "3": 5.723793557641426e-27
      },
      {
        "0": 0.5,
        "1": 0.5,
        "2": 2.370331889832028e-23,
        "3": 6.010583767276525e-19
      },
      {
        "0": 0.5,
        "1": 0.5,
        "2": 1.8371045649916623e-21,
        "3": 1.9239993962899892e-18
      },
      {
        "0": 0.5,
        "1": 0.5,
        "2": 1.0148512475009255e-21,
        "3": 8.797720062774787e-23
      },
      {
        "0": 0.49999999999999967,
        "1": 0.4999999999999995,
        "2": 6.5385660198035264e-21,
        "3": 8.236376233178222e-16
      },
      {
        "0": 0.5,
        "1": 0.5,
        "2": 9.533451049038966e-26,
        "3": 8.869895093929946e-19
      },
      {
        "0": 0.5,
        "1": 0.5,
        "2": 9.829119184560441e-21,
        "3": 4.171121754052626e-24
      },
      {
        "0": 0.49999999999999994,
        "1": 0.49999999999999994,
        "2": 1.025405794539182e-16,
        "3": 1.0804436906243246e-19
      },
      {
        "0": 0.5,
        "1": 0.5,
        "2": 2.3617846304644307e-17,
        "3": 3.41405160364129e-24
      }
    ],
    "agent_probe_history": [
      {
        "0": -0.2277832180261612,
        "1": -0.2550673186779022,
        "2": -2.4572079181671143,
        "3": -2.336379289627075
      },
      {
        "0": -0.2332117259502411,
        "1": -0.24939493834972382,
        "2": -2.56305193901062,
        "3": -2.4350624084472656
      },
      {
        "0": -0.24345917999744415,
        "1": -0.23629792034626007,
        "2": -2.189131736755371,
        "3": -2.1673190593719482
      },
      {
        "0": -0.2166004627943039,
        "1": -0.21268995106220245,
        "2": -2.398958921432495,
        "3": -2.2621450424194336
      },
      {
        "0": -0.20567713677883148,
        "1": -0.20124764740467072,
        "2": -2.2767608165740967,
        "3": -2.236478328704834
      },
      {
        "0": -0.19377756118774414,
        "1": -0.1990469992160797,
        "2": -2.5120975971221924,
        "3": -2.458371639251709
      },
      {
        "0": -0.17942379415035248,
        "1": -0.20713719725608826,
        "2": -2.6088449954986572,
        "3": -2.6566154956817627
      },
      {
        "0": -0.17621922492980957,
        "1": -0.21980169415473938,
        "2": -2.330035448074341,
        "3": -2.568474531173706
      },
      {
        "0": -0.16336898505687714,
        "1": -0.2622378468513489,
        "2": -2.331862211227417,
        "3": -2.234416961669922
      },
      {
        "0": -0.14940699934959412,
        "1": -0.16515809297561646,
        "2": -2.675915479660034,
        "3": -2.4586734771728516
      },
      {
        "0": -0.16067035496234894,
        "1": -0.17788414657115936,
        "2": -2.065957546234131,
        "3": -2.198012351989746
      },
      {
        "0": -0.1621399074792862,
        "1": -0.18793269991874695,
        "2": -2.346611499786377,
        "3": -2.523308753967285
      },
      {
        "0": -0.15870459377765656,
        "1": -0.17703315615653992,
        "2": -2.711364984512329,
        "3": -2.675856351852417
      },
      {
        "0": -0.15153028070926666,
        "1": -0.16414839029312134,
        "2": -2.36552095413208,
        "3": -2.093909978866577
      },
      {
        "0": -0.12240820378065109,
        "1": -0.15765613317489624,
        "2": -2.4815306663513184,
        "3": -2.4178194999694824
      },
      {
        "0": -0.14259350299835205,
        "1": -0.1537456512451172,
        "2": -2.667081117630005,
        "3": -2.6449923515319824
      },
      {
        "0": -0.15807078778743744,
        "1": -0.17620053887367249,
        "2": -2.194394588470459,
        "3": -2.4008846282958984
      },
      {
        "0": -0.1228146031498909,
        "1": -0.1943482905626297,
        "2": -2.324341297149658,
        "3": -2.863802909851074
      },
      {
        "0": -0.12219854444265366,
        "1": -0.1425476223230362,
        "2": -2.677603006362915,
        "3": -2.8223845958709717
      },
      {
        "0": -0.1190105751156807,
        "1": -0.1699140965938568,
        "2": -2.337719440460205,
        "3": -2.2152178287506104
      },
      {
        "0": -0.15233509242534637,
        "1": -0.1767132580280304,
        "2": -2.751903533935547,
        "3": -2.617424488067627
      },
      {
        "0": -0.15103045105934143,
        "1": -0.13326948881149292,
        "2": -2.645350217819214,
        "3": -3.1036486625671387
      },
      {
        "0": -0.10981608927249908,
        "1": -0.11626632511615753,
        "2": -2.7785627841949463,
        "3": -2.8676536083221436
      },
      {
        "0": -0.13717295229434967,
        "1": -0.1537051796913147,
        "2": -2.8194432258605957,
        "3": -2.6657826900482178
      },
      {
        "0": -0.13041427731513977,
        "1": -0.12977023422718048,
        "2": -2.506962776184082,
        "3": -2.361658811569214
      },
      {
        "0": -0.11337095499038696,
        "1": -0.13513775169849396,
        "2": -2.837819814682007,
        "3": -1.9645733833312988
      },
      {
        "0": -0.09800146520137787,
        "1": -0.10664603859186172,
        "2": -1.8901616334915161,
        "3": -2.3215959072113037
      },
      {
        "0": -0.1294214427471161,
        "1": -0.11946434527635574,
        "2": -2.7700603008270264,
        "3": -2.988743782043457
      },
      {
        "0": -0.1185501366853714,
        "1": -0.12465111166238785,
        "2": -2.3152244091033936,
        "3": -2.918841600418091
      },
      {
        "0": -0.11270277947187424,
        "1": -0.1257353574037552,
        "2": -2.5724267959594727,
        "3": -2.903017282485962
      },
      {
        "0": -0.10815223306417465,
        "1": -0.11510466039180756,
        "2": -2.7675600051879883,
        "3": -2.539994239807129
      },
      {
        "0": -0.09799923002719879,
        "1": -0.1126917228102684,
        "2": -2.8166494369506836,
        "3": -3.2566311359405518
      },
      {
        "0": -0.10575547069311142,
        "1": -0.11921954900026321,
        "2": -2.899191379547119,
        "3": -2.594966411590576
      },
      {
        "0": -0.1046871766448021,
        "1": -0.11345735937356949,
        "2": -2.728015184402466,
        "3": -2.5193960666656494
      },
      {
        "0": -0.1090923324227333,
        "1": -0.1067923828959465,
        "2": -2.9678761959075928,
        "3": -3.041238784790039
      },
      {
        "0": -0.09532428532838821,
        "1": -0.10034456849098206,
        "2": -2.4950368404388428,
        "3": -2.142723798751831
      },
      {
        "0": -0.09711126983165741,
        "1": -0.11530866473913193,
        "2": -3.0490856170654297,
        "3": -2.567707061767578
      },
      {
        "0": -0.10247326642274857,
        "1": -0.1268223375082016,
        "2": -2.849369764328003,
        "3": -3.082317352294922
      },
      {
        "0": -0.102183036506176,
        "1": -0.09628675878047943,
        "2": -2.2695705890655518,
        "3": -2.4752347469329834
      },
      {
        "0": -0.10353907942771912,
        "1": -0.10670113563537598,
        "2": -2.3621840476989746,
        "3": -2.834672451019287
      }
    ],
    "agent_mu_history": [
      {
        "0": 0.0,
        "1": 0.0,
        "2": 0.0,
        "3": 0.0
      },
      {
        "0": 0.0,
        "1": 0.0,
        "2": 0.1,
        "3": 0.1
      },
      {
        "0": 0.0,
        "1": 0.0,
        "2": 0.1,
        "3": 0.1
      },
      {
        "0": 0.0,
        "1": 0.0,
        "2": 0.1,
        "3": 0.1
      },
      {
        "0": 0.0,
        "1": 0.0,
        "2": 0.1,
        "3": 0.1
      },
      {
        "0": 0.0,
        "1": 0.0,
        "2": 0.1,
        "3": 0.1
      },
      {
        "0": 0.0,
        "1": 0.0,
        "2": 0.1,
        "3": 0.1
      },
      {
        "0": 0.0,
        "1": 0.0,
        "2": 0.1,
        "3": 0.1
      },
      {
        "0": 0.0,
        "1": 0.0,
        "2": 0.1,
        "3": 0.1
      },
      {
        "0": 0.0,
        "1": 0.0,
        "2": 0.1,
        "3": 0.1
      },
      {
        "0": 0.0,
        "1": 0.0,
        "2": 0.1,
        "3": 0.1
      },
      {
        "0": 0.0,
        "1": 0.0,
        "2": 0.1,
        "3": 0.1
      },
      {
        "0": 0.0,
        "1": 0.0,
        "2": 0.1,
        "3": 0.1
      },
      {
        "0": 0.0,
        "1": 0.0,
        "2": 0.1,
        "3": 0.1
      },
      {
        "0": 0.0,
        "1": 0.0,
        "2": 0.1,
        "3": 0.1
      },
      {
        "0": 0.0,
        "1": 0.0,
        "2": 0.1,
        "3": 0.1
      },
      {
        "0": 0.0,
        "1": 0.0,
        "2": 0.1,
        "3": 0.1
      },
      {
        "0": 0.0,
        "1": 0.0,
        "2": 0.1,
        "3": 0.1
      },
      {
        "0": 0.0,
        "1": 0.0,
        "2": 0.1,
        "3": 0.1
      },
      {
        "0": 0.0,
        "1": 0.0,
        "2": 0.1,
        "3": 0.1
      },
      {
        "0": 0.0,
        "1": 0.0,
        "2": 0.1,
        "3": 0.1
      },
      {
        "0": 0.0,
        "1": 0.0,
        "2": 0.1,
        "3": 0.1
      },
      {
        "0": 0.0,
        "1": 0.0,
        "2": 0.1,
        "3": 0.1
      },
      {
        "0": 0.0,
        "1": 0.0,
        "2": 0.1,
        "3": 0.1
      },
      {
        "0": 0.0,
        "1": 0.0,
        "2": 0.1,
        "3": 0.1
      },
      {
        "0": 0.0,
        "1": 0.0,
        "2": 0.1,
        "3": 0.1
      },
      {
        "0": 0.0,
        "1": 0.0,
        "2": 0.1,
        "3": 0.1
      },
      {
        "0": 0.0,
        "1": 0.0,
        "2": 0.1,
        "3": 0.1
      },
      {
        "0": 0.0,
        "1": 0.0,
        "2": 0.1,
        "3": 0.1
      },
      {
        "0": 0.0,
        "1": 0.0,
        "2": 0.1,
        "3": 0.1
      },
      {
        "0": 0.0,
        "1": 0.0,
        "2": 0.1,
        "3": 0.1
      },
      {
        "0": 0.0,
        "1": 0.0,
        "2": 0.1,
        "3": 0.1
      },
      {
        "0": 0.0,
        "1": 0.0,
        "2": 0.1,
        "3": 0.1
      },
      {
        "0": 0.0,
        "1": 0.0,
        "2": 0.1,
        "3": 0.1
      },
      {
        "0": 0.0,
        "1": 0.0,
        "2": 0.1,
        "3": 0.1
      },
      {
        "0": 0.0,
        "1": 0.0,
        "2": 0.1,
        "3": 0.1
      },
      {
        "0": 0.0,
        "1": 0.0,
        "2": 0.1,
        "3": 0.1
      },
      {
        "0": 0.0,
        "1": 0.0,
        "2": 0.1,
        "3": 0.1
      },
      {
        "0": 0.0,
        "1": 0.0,
        "2": 0.1,
        "3": 0.1
      },
      {
        "0": 0.0,
        "1": 0.0,
        "2": 0.1,
        "3": 0.1
      }
    ],
    "agent_noisy_clients": [
      2,
      3
    ],
    "agent_probe_heldout": true,
    "agent_adaptive_mu": true,
    "eval": {
      "threshold": 0.5,
      "micro_f1": 0.6698412698412698,
      "macro_f1_present": 0.2170894353796504,
      "best_threshold": 0.35,
      "best_micro_f1": 0.6517595307917888,
      "best_macro_f1_present": 0.22284925749073195,
      "macro_ap": 0.26107086454204753,
      "macro_auroc": 0.8309199460086151
    }
  }
}
