{
  "name": "het04_agentmu_s0",
  "config": {
    "method": "agent_fed",
    "backbone": "retfound_mae_vit_large",
    "seed": 0,
    "epochs": 20,
    "rounds": 40,
    "local_epochs": 1,
    "batch_size": 16,
    "lr": 0.001,
    "fedprox_mu": 0.0,
    "loss": "balanced_bce",
    "positive_dropout": 0.0,
    "train_label_noise": 0.0,
    "image_size": [
      224,
      224
    ],
    "device": "cuda",
    "lora_rank": 8,
    "lora_alpha": 16.0,
    "require_retfound": true,
    "num_workers": 8,
    "pin_memory": true,
    "persistent_workers": true,
    "use_data_parallel": true,
    "agent_aggregation": "agent",
    "agent_tau": 0.03,
    "agent_geometry": false,
    "agent_noisy_clients": [
      2,
      3
    ],
    "agent_client_noise": 0.4,
    "agent_adaptive_mu": true,
    "agent_mu_max": 0.1,
    "agent_mu_tau": 0.05
  },
  "result": {
    "config": {
      "method": "agent_fed",
      "backbone": "retfound_mae_vit_large",
      "seed": 0,
      "epochs": 20,
      "rounds": 40,
      "local_epochs": 1,
      "batch_size": 16,
      "lr": 0.001,
      "fedprox_mu": 0.0,
      "loss": "balanced_bce",
      "positive_dropout": 0.0,
      "train_label_noise": 0.0,
      "image_size": [
        224,
        224
      ],
      "device": "cuda",
      "lora_rank": 8,
      "lora_alpha": 16.0,
      "require_retfound": true,
      "num_workers": 8,
      "pin_memory": true,
      "persistent_workers": true,
      "use_data_parallel": true,
      "agent_aggregation": "agent",
      "agent_tau": 0.03,
      "agent_geometry": false,
      "agent_noisy_clients": [
        2,
        3
      ],
      "agent_client_noise": 0.4,
      "agent_adaptive_mu": true,
      "agent_mu_max": 0.1,
      "agent_mu_tau": 0.05
    },
    "model_info": {
      "requested_backbone": "retfound_mae_vit_large",
      "actual_backbone": "retfound_mae_vit_large",
      "is_retfound": true,
      "checkpoint_path": "/mnt/bn/feed-quality-issues/gushiyu/projects/fl-agent/weights/RETFound_mae_natureCFP.pth",
      "lora_rank": 8,
      "lora_alpha": 16.0,
      "trainable_params": 1226798,
      "total_params": 304528430
    },
    "train_loss": [
      1.4423251263797283,
      2.658872242520253,
      2.9324543888370194,
      2.922533153494199,
      2.6787964286903536,
      2.9427502325425543,
      2.9437512932966152,
      2.911868473142386,
      2.84736754472057,
      2.6113200395057596,
      2.7583442551394306,
      2.8907255715380114,
      2.7076245064536733,
      2.8058419993768138,
      3.0439141257355606,
      2.8884252258886893,
      3.378925653422872,
      3.1299040231232844,
      2.840362807922065,
      3.1649928319578366,
      3.0324882727737226,
      2.985483142795662,
      3.4228606443852185,
      3.312940925577035,
      3.424088943284005,
      3.205700993320594,
      3.3878101439215245,
      3.491168887944271,
      3.3596588775825995,
      3.507904148194939,
      3.1085325819750627,
      3.4177416344173253,
      3.7997759314719586,
      3.916866424897065,
      3.9949159926269204,
      3.346114745984475,
      3.731325864512473,
      3.3885260954499246,
      3.802992828446441,
      3.358515558872993
    ],
    "comm_bytes_upload_per_round": [
      19628768,
      19628768,
      19628768,
      19628768,
      19628768,
      19628768,
      19628768,
      19628768,
      19628768,
      19628768,
      19628768,
      19628768,
      19628768,
      19628768,
      19628768,
      19628768,
      19628768,
      19628768,
      19628768,
      19628768,
      19628768,
      19628768,
      19628768,
      19628768,
      19628768,
      19628768,
      19628768,
      19628768,
      19628768,
      19628768,
      19628768,
      19628768,
      19628768,
      19628768,
      19628768,
      19628768,
      19628768,
      19628768,
      19628768,
      19628768
    ],
    "total_upload_bytes": 785150720,
    "agent_weight_history": [
      {
        "0": 0.49999999999999994,
        "1": 0.49999999999999983,
        "2": 2.7848806110777327e-17,
        "3": 2.5194968504771345e-16
      },
      {
        "0": 0.4999999999999996,
        "1": 0.4999999999999994,
        "2": 6.671905396312023e-16,
        "3": 3.852170529025848e-16
      },
      {
        "0": 0.49999999999988964,
        "1": 0.4999999999999597,
        "2": 1.4971729838277468e-13,
        "3": 1.0384543285392305e-15
      },
      {
        "0": 0.49999999999999034,
        "1": 0.4999999999999705,
        "2": 1.1812647248596377e-14,
        "3": 2.7366675261211586e-14
      },
      {
        "0": 0.4999999999999996,
        "1": 0.4999999999999997,
        "2": 7.404016556664197e-16,
        "3": 9.940177788931136e-18
      },
      {
        "0": 0.5,
        "1": 0.5,
        "2": 1.713108101610019e-20,
        "3": 7.905665758139241e-19
      },
      {
        "0": 0.5,
        "1": 0.5,
        "2": 1.0401386575593208e-18,
        "3": 5.92508996537295e-21
      },
      {
        "0": 0.5,
        "1": 0.5,
        "2": 8.973708357586406e-21,
        "3": 5.2955205845091264e-17
      },
      {
        "0": 0.4999999999998661,
        "1": 0.49999999999997385,
        "2": 4.302811509806292e-15,
        "3": 1.5580677953423493e-13
      },
      {
        "0": 0.49999999999998185,
        "1": 0.49999999999996014,
        "2": 5.803105870116067e-14,
        "3": 1.3847829991643376e-17
      },
      {
        "0": 0.5,
        "1": 0.5,
        "2": 3.10288030189656e-17,
        "3": 1.434249311952015e-21
      },
      {
        "0": 0.49999999999994027,
        "1": 0.4999999999999962,
        "2": 6.361057292457573e-14,
        "3": 1.1358423958007435e-26
      },
      {
        "0": 0.4999999999999982,
        "1": 0.4999999999998267,
        "2": 4.077270231855379e-24,
        "3": 1.7502427529881883e-13
      },
      {
        "0": 0.5,
        "1": 0.5,
        "2": 6.878590549461392e-19,
        "3": 7.779480079514557e-21
      },
      {
        "0": 0.5,
        "1": 0.5,
        "2": 3.4351787894567628e-22,
        "3": 7.784624540057987e-20
      },
      {
        "0": 0.5,
        "1": 0.5,
        "2": 9.674976172186213e-18,
        "3": 1.5835888128818766e-23
      },
      {
        "0": 0.5,
        "1": 0.5,
        "2": 1.5363057942720502e-17,
        "3": 8.694234613857615e-21
      },
      {
        "0": 0.5,
        "1": 0.4999999999999999,
        "2": 8.103536881570339e-17,
        "3": 6.290362940402472e-20
      },
      {
        "0": 0.4999999999999996,
        "1": 0.49999999999999933,
        "2": 1.5298946696820618e-16,
        "3": 9.874052267525104e-16
      },
      {
        "0": 0.5,
        "1": 0.5,
        "2": 1.4196963088016936e-21,
        "3": 6.032316273290884e-19
      },
      {
        "0": 0.5,
        "1": 0.5,
        "2": 5.589945430910756e-25,
        "3": 1.960436541684836e-17
      },
      {
        "0": 0.4999999999999981,
        "1": 0.4999999999999989,
        "2": 2.980606373874643e-15,
        "3": 1.7716961202992682e-19
      },
      {
        "0": 0.5,
        "1": 0.5,
        "2": 2.832690869128406e-17,
        "3": 5.951638864267619e-19
      },
      {
        "0": 0.49999999999999883,
        "1": 0.49999999999999745,
        "2": 1.04249747611676e-18,
        "3": 3.662313154395773e-15
      },
      {
        "0": 0.49999999999999917,
        "1": 0.4999999999999993,
        "2": 1.4890507407246696e-15,
        "3": 3.193908386204186e-19
      },
      {
        "0": 0.5,
        "1": 0.5,
        "2": 7.590308571868625e-20,
        "3": 4.494954544149886e-24
      },
      {
        "0": 0.49999999999999994,
        "1": 0.49999999999999994,
        "2": 7.389911079034158e-17,
        "3": 6.162109236477039e-22
      },
      {
        "0": 0.49999999999999994,
        "1": 0.49999999999999994,
        "2": 3.26890363271828e-29,
        "3": 9.901194664229885e-17
      },
      {
        "0": 0.49999999999999994,
        "1": 0.49999999999999994,
        "2": 1.628071947970577e-16,
        "3": 1.320645931848628e-24
      },
      {
        "0": 0.5,
        "1": 0.5,
        "2": 1.1424599667634425e-21,
        "3": 4.3356920939491674e-17
      },
      {
        "0": 0.49999999999999994,
        "1": 0.49999999999999994,
        "2": 1.554608464508659e-16,
        "3": 2.4959352559781914e-18
      },
      {
        "0": 0.4999999999999992,
        "1": 0.4999999999999982,
        "2": 9.214961347748257e-18,
        "3": 2.5266262844463306e-15
      },
      {
        "0": 0.4999999999999998,
        "1": 0.4999999999999995,
        "2": 2.552297473908865e-16,
        "3": 4.162374883636664e-16
      },
      {
        "0": 0.49999999999999994,
        "1": 0.49999999999999983,
        "2": 5.930939103394486e-26,
        "3": 1.9506333745847865e-16
      },
      {
        "0": 0.5,
        "1": 0.5,
        "2": 2.4235982314843353e-20,
        "3": 4.422740566421827e-20
      },
      {
        "0": 0.49999999999999917,
        "1": 0.49999999999999967,
        "2": 5.2934377858987e-17,
        "3": 1.2010238849285417e-15
      },
      {
        "0": 0.5,
        "1": 0.5,
        "2": 7.910128828800665e-19,
        "3": 1.0924901355929277e-27
      },
      {
        "0": 0.4999999999999984,
        "1": 0.4999999999999964,
        "2": 6.928729858715193e-33,
        "3": 5.234480457437941e-15
      },
      {
        "0": 0.4999999999999999,
        "1": 0.5,
        "2": 6.846985415635356e-17,
        "3": 3.657201749930756e-22
      },
      {
        "0": 0.49999999999999994,
        "1": 0.49999999999999994,
        "2": 3.2360159623026385e-23,
        "3": 8.286648910622367e-17
      }
    ],
    "agent_probe_history": [
      {
        "0": -0.24175608158111572,
        "1": -0.2755596935749054,
        "2": -2.4550821781158447,
        "3": -2.3890089988708496
      },
      {
        "0": -0.2220347374677658,
        "1": -0.23735298216342926,
        "2": -2.2923715114593506,
        "3": -2.308849573135376
      },
      {
        "0": -0.2361740916967392,
        "1": -0.2172747552394867,
        "2": -1.9663869142532349,
        "3": -2.1155173778533936
      },
      {
        "0": -0.20542751252651215,
        "1": -0.2443355768918991,
        "2": -2.1017184257507324,
        "3": -2.0765137672424316
      },
      {
        "0": -0.20626556873321533,
        "1": -0.2043774127960205,
        "2": -2.2550370693206787,
        "3": -2.384355306625366
      },
      {
        "0": -0.2019798755645752,
        "1": -0.20517157018184662,
        "2": -2.779430627822876,
        "3": -2.6644749641418457
      },
      {
        "0": -0.1915547251701355,
        "1": -0.17295107245445251,
        "2": -2.634396553039551,
        "3": -2.7894339561462402
      },
      {
        "0": -0.16466616094112396,
        "1": -0.1916172206401825,
        "2": -2.6591405868530273,
        "3": -2.398653507232666
      },
      {
        "0": -0.21179437637329102,
        "1": -0.17649993300437927,
        "2": -2.047295570373535,
        "3": -1.9396151304244995
      },
      {
        "0": -0.1802062690258026,
        "1": -0.19415239989757538,
        "2": -1.981231451034546,
        "3": -2.231449604034424
      },
      {
        "0": -0.1459028422832489,
        "1": -0.17155715823173523,
        "2": -2.410665273666382,
        "3": -2.7101261615753174
      },
      {
        "0": -0.22464102506637573,
        "1": -0.16098177433013916,
        "2": -2.006211996078491,
        "3": -2.886827230453491
      },
      {
        "0": -0.13810019195079803,
        "1": -0.25586649775505066,
        "2": -2.7111916542053223,
        "3": -1.9767087697982788
      },
      {
        "0": -0.13364815711975098,
        "1": -0.15861289203166962,
        "2": -2.6262662410736084,
        "3": -2.7607290744781494
      },
      {
        "0": -0.13950210809707642,
        "1": -0.16204442083835602,
        "2": -2.923126220703125,
        "3": -2.7604286670684814
      },
      {
        "0": -0.14258411526679993,
        "1": -0.1095423474907875,
        "2": -2.4516146183013916,
        "3": -2.8512978553771973
      },
      {
        "0": -0.15853850543498993,
        "1": -0.11973603069782257,
        "2": -2.439823627471924,
        "3": -2.664135456085205
      },
      {
        "0": -0.13235677778720856,
        "1": -0.1750684231519699,
        "2": -2.3565783500671387,
        "3": -2.5714094638824463
      },
      {
        "0": -0.1353171020746231,
        "1": -0.1444355994462967,
        "2": -2.23187518119812,
        "3": -2.175933837890625
      },
      {
        "0": -0.14364232122898102,
        "1": -0.14963968098163605,
        "2": -2.8067257404327393,
        "3": -2.6251699924468994
      },
      {
        "0": -0.13385070860385895,
        "1": -0.14335574209690094,
        "2": -2.9312000274658203,
        "3": -2.4100136756896973
      },
      {
        "0": -0.12371497601270676,
        "1": -0.11492973566055298,
        "2": -2.0889251232147217,
        "3": -2.380841016769409
      },
      {
        "0": -0.13807103037834167,
        "1": -0.10638900101184845,
        "2": -2.38264536857605,
        "3": -2.4985272884368896
      },
      {
        "0": -0.12875379621982574,
        "1": -0.14174838364124298,
        "2": -2.3395273685455322,
        "3": -2.0946004390716553
      },
      {
        "0": -0.13131223618984222,
        "1": -0.12740489840507507,
        "2": -2.1381616592407227,
        "3": -2.3915786743164062
      },
      {
        "0": -0.098148413002491,
        "1": -0.12719227373600006,
        "2": -2.72709321975708,
        "3": -3.019120931625366
      },
      {
        "0": -0.10366454720497131,
        "1": -0.10414912551641464,
        "2": -2.2911901473999023,
        "3": -2.64202880859375
      },
      {
        "0": -0.11002019047737122,
        "1": -0.10995496809482574,
        "2": -3.1416854858398438,
        "3": -2.2795088291168213
      },
      {
        "0": -0.11519020795822144,
        "1": -0.11520584672689438,
        "2": -2.254854917526245,
        "3": -2.813753604888916
      },
      {
        "0": -0.11604438722133636,
        "1": -0.12701231241226196,
        "2": -2.6623685359954834,
        "3": -2.3460474014282227
      },
      {
        "0": -0.12433543056249619,
        "1": -0.10366504639387131,
        "2": -2.2667548656463623,
        "3": -2.390706777572632
      },
      {
        "0": -0.10099542140960693,
        "1": -0.11626237630844116,
        "2": -2.2598013877868652,
        "3": -2.0913870334625244
      },
      {
        "0": -0.09564699232578278,
        "1": -0.11654072999954224,
        "2": -2.21454119682312,
        "3": -2.1998684406280518
      },
      {
        "0": -0.09762690961360931,
        "1": -0.10382044315338135,
        "2": -2.8900387287139893,
        "3": -2.232624053955078
      },
      {
        "0": -0.11259442567825317,
        "1": -0.10970064997673035,
        "2": -2.7629473209381104,
        "3": -2.7449021339416504
      },
      {
        "0": -0.12070319056510925,
        "1": -0.10905183106660843,
        "2": -2.2341067790985107,
        "3": -2.1404504776000977
      },
      {
        "0": -0.12053369730710983,
        "1": -0.11299755424261093,
        "2": -2.579803228378296,
        "3": -3.1918141841888428
      },
      {
        "0": -0.09713862836360931,
        "1": -0.11133033037185669,
        "2": -3.277735710144043,
        "3": -2.0427520275115967
      },
      {
        "0": -0.13076776266098022,
        "1": -0.1124894991517067,
        "2": -2.322387218475342,
        "3": -2.6865882873535156
      },
      {
        "0": -0.10431868582963943,
        "1": -0.1055527925491333,
        "2": -2.728396415710449,
        "3": -2.285722017288208
      }
    ],
    "agent_mu_history": [
      {
        "0": 0.0,
        "1": 0.0,
        "2": 0.0,
        "3": 0.0
      },
      {
        "0": 0.0,
        "1": 0.0,
        "2": 0.1,
        "3": 0.1
      },
      {
        "0": 0.0,
        "1": 0.0,
        "2": 0.1,
        "3": 0.1
      },
      {
        "0": 0.0,
        "1": 0.0,
        "2": 0.1,
        "3": 0.1
      },
      {
        "0": 0.0,
        "1": 0.0,
        "2": 0.1,
        "3": 0.1
      },
      {
        "0": 0.0,
        "1": 0.0,
        "2": 0.1,
        "3": 0.1
      },
      {
        "0": 0.0,
        "1": 0.0,
        "2": 0.1,
        "3": 0.1
      },
      {
        "0": 0.0,
        "1": 0.0,
        "2": 0.1,
        "3": 0.1
      },
      {
        "0": 0.0,
        "1": 0.0,
        "2": 0.1,
        "3": 0.1
      },
      {
        "0": 0.0,
        "1": 0.0,
        "2": 0.1,
        "3": 0.1
      },
      {
        "0": 0.0,
        "1": 0.0,
        "2": 0.1,
        "3": 0.1
      },
      {
        "0": 0.0,
        "1": 0.0,
        "2": 0.1,
        "3": 0.1
      },
      {
        "0": 0.0,
        "1": 0.0,
        "2": 0.1,
        "3": 0.1
      },
      {
        "0": 0.0,
        "1": 0.0,
        "2": 0.1,
        "3": 0.1
      },
      {
        "0": 0.0,
        "1": 0.0,
        "2": 0.1,
        "3": 0.1
      },
      {
        "0": 0.0,
        "1": 0.0,
        "2": 0.1,
        "3": 0.1
      },
      {
        "0": 0.0,
        "1": 0.0,
        "2": 0.1,
        "3": 0.1
      },
      {
        "0": 0.0,
        "1": 0.0,
        "2": 0.1,
        "3": 0.1
      },
      {
        "0": 0.0,
        "1": 0.0,
        "2": 0.1,
        "3": 0.1
      },
      {
        "0": 0.0,
        "1": 0.0,
        "2": 0.1,
        "3": 0.1
      },
      {
        "0": 0.0,
        "1": 0.0,
        "2": 0.1,
        "3": 0.1
      },
      {
        "0": 0.0,
        "1": 0.0,
        "2": 0.1,
        "3": 0.1
      },
      {
        "0": 0.0,
        "1": 0.0,
        "2": 0.1,
        "3": 0.1
      },
      {
        "0": 0.0,
        "1": 0.0,
        "2": 0.1,
        "3": 0.1
      },
      {
        "0": 0.0,
        "1": 0.0,
        "2": 0.1,
        "3": 0.1
      },
      {
        "0": 0.0,
        "1": 0.0,
        "2": 0.1,
        "3": 0.1
      },
      {
        "0": 0.0,
        "1": 0.0,
        "2": 0.1,
        "3": 0.1
      },
      {
        "0": 0.0,
        "1": 0.0,
        "2": 0.1,
        "3": 0.1
      },
      {
        "0": 0.0,
        "1": 0.0,
        "2": 0.1,
        "3": 0.1
      },
      {
        "0": 0.0,
        "1": 0.0,
        "2": 0.1,
        "3": 0.1
      },
      {
        "0": 0.0,
        "1": 0.0,
        "2": 0.1,
        "3": 0.1
      },
      {
        "0": 0.0,
        "1": 0.0,
        "2": 0.1,
        "3": 0.1
      },
      {
        "0": 0.0,
        "1": 0.0,
        "2": 0.1,
        "3": 0.1
      },
      {
        "0": 0.0,
        "1": 0.0,
        "2": 0.1,
        "3": 0.1
      },
      {
        "0": 0.0,
        "1": 0.0,
        "2": 0.1,
        "3": 0.1
      },
      {
        "0": 0.0,
        "1": 0.0,
        "2": 0.1,
        "3": 0.1
      },
      {
        "0": 0.0,
        "1": 0.0,
        "2": 0.1,
        "3": 0.1
      },
      {
        "0": 0.0,
        "1": 0.0,
        "2": 0.1,
        "3": 0.1
      },
      {
        "0": 0.0,
        "1": 0.0,
        "2": 0.1,
        "3": 0.1
      },
      {
        "0": 0.0,
        "1": 0.0,
        "2": 0.1,
        "3": 0.1
      }
    ],
    "agent_noisy_clients": [
      2,
      3
    ],
    "agent_probe_heldout": true,
    "agent_adaptive_mu": true,
    "eval": {
      "threshold": 0.5,
      "micro_f1": 0.698136645962733,
      "macro_f1_present": 0.2303032034613716,
      "best_threshold": 0.7,
      "best_micro_f1": 0.7056705670567057,
      "best_macro_f1_present": 0.23742488284246832,
      "macro_ap": 0.27202451332190825,
      "macro_auroc": 0.7973477916729833
    }
  }
}
