{
  "name": "het04_agent_tau002_s0",
  "config": {
    "method": "agent_fed",
    "backbone": "retfound_mae_vit_large",
    "seed": 0,
    "epochs": 20,
    "rounds": 40,
    "local_epochs": 1,
    "batch_size": 16,
    "lr": 0.001,
    "fedprox_mu": 0.0,
    "loss": "balanced_bce",
    "positive_dropout": 0.0,
    "train_label_noise": 0.0,
    "image_size": [
      224,
      224
    ],
    "device": "cuda",
    "lora_rank": 8,
    "lora_alpha": 16.0,
    "require_retfound": true,
    "num_workers": 8,
    "pin_memory": true,
    "persistent_workers": true,
    "use_data_parallel": true,
    "agent_aggregation": "agent",
    "agent_tau": 0.02,
    "agent_geometry": false,
    "agent_noisy_clients": [
      2,
      3
    ],
    "agent_client_noise": 0.4,
    "agent_adaptive_mu": false,
    "agent_mu_max": 0.1,
    "agent_mu_tau": 0.05
  },
  "result": {
    "config": {
      "method": "agent_fed",
      "backbone": "retfound_mae_vit_large",
      "seed": 0,
      "epochs": 20,
      "rounds": 40,
      "local_epochs": 1,
      "batch_size": 16,
      "lr": 0.001,
      "fedprox_mu": 0.0,
      "loss": "balanced_bce",
      "positive_dropout": 0.0,
      "train_label_noise": 0.0,
      "image_size": [
        224,
        224
      ],
      "device": "cuda",
      "lora_rank": 8,
      "lora_alpha": 16.0,
      "require_retfound": true,
      "num_workers": 8,
      "pin_memory": true,
      "persistent_workers": true,
      "use_data_parallel": true,
      "agent_aggregation": "agent",
      "agent_tau": 0.02,
      "agent_geometry": false,
      "agent_noisy_clients": [
        2,
        3
      ],
      "agent_client_noise": 0.4,
      "agent_adaptive_mu": false,
      "agent_mu_max": 0.1,
      "agent_mu_tau": 0.05
    },
    "model_info": {
      "requested_backbone": "retfound_mae_vit_large",
      "actual_backbone": "retfound_mae_vit_large",
      "is_retfound": true,
      "checkpoint_path": "/mnt/bn/feed-quality-issues/gushiyu/projects/fl-agent/weights/RETFound_mae_natureCFP.pth",
      "lora_rank": 8,
      "lora_alpha": 16.0,
      "trainable_params": 1226798,
      "total_params": 304528430
    },
    "train_loss": [
      1.442325122654438,
      2.113391106079022,
      2.3300164607663953,
      2.5939799318710963,
      2.4064074471592907,
      2.347381100555261,
      2.2469546659539144,
      2.2243911920736235,
      2.2287683972467978,
      2.128444457426667,
      2.1514205973595377,
      2.2729531222333508,
      2.1941150118907293,
      2.292305007825295,
      2.3354902030279243,
      2.224500040647884,
      2.6504177705074348,
      2.3948320085803667,
      2.4320357090483107,
      2.470627225314577,
      2.4577933145686983,
      2.3843247442195814,
      2.8749611082176365,
      2.5503157352097334,
      2.73793986334155,
      2.468129651496808,
      2.6240425336485105,
      2.6006989704755448,
      2.601343054914226,
      3.059598470044633,
      2.5948068954050543,
      2.7434210278404256,
      2.7510506544883055,
      3.079870924881349,
      3.0544652050671477,
      2.9448452481844773,
      3.0894041520232953,
      2.9804990026246134,
      3.2471574993881704,
      3.401196162309498
    ],
    "comm_bytes_upload_per_round": [
      19628768,
      19628768,
      19628768,
      19628768,
      19628768,
      19628768,
      19628768,
      19628768,
      19628768,
      19628768,
      19628768,
      19628768,
      19628768,
      19628768,
      19628768,
      19628768,
      19628768,
      19628768,
      19628768,
      19628768,
      19628768,
      19628768,
      19628768,
      19628768,
      19628768,
      19628768,
      19628768,
      19628768,
      19628768,
      19628768,
      19628768,
      19628768,
      19628768,
      19628768,
      19628768,
      19628768,
      19628768,
      19628768,
      19628768,
      19628768
    ],
    "total_upload_bytes": 785150720,
    "agent_weight_history": [
      {
        "0": 0.5,
        "1": 0.5,
        "2": 2.0783656592672946e-25,
        "3": 5.65599089060369e-24
      },
      {
        "0": 0.5,
        "1": 0.5,
        "2": 2.6024283508682825e-23,
        "3": 9.442667572855843e-24
      },
      {
        "0": 0.5,
        "1": 0.5,
        "2": 2.5573950410119357e-21,
        "3": 2.1593418494570404e-23
      },
      {
        "0": 0.5,
        "1": 0.5,
        "2": 4.2560908161565475e-26,
        "3": 1.3826152694061906e-22
      },
      {
        "0": 0.5,
        "1": 0.5,
        "2": 5.3251435649375915e-25,
        "3": 1.6829599705039043e-26
      },
      {
        "0": 0.5,
        "1": 0.5,
        "2": 2.3904521055974573e-25,
        "3": 2.5661850202236136e-33
      },
      {
        "0": 0.5,
        "1": 0.5,
        "2": 8.13838750594838e-23,
        "3": 1.567218921900425e-27
      },
      {
        "0": 0.5,
        "1": 0.5,
        "2": 1.6826074026320223e-28,
        "3": 5.568756471170979e-21
      },
      {
        "0": 0.5,
        "1": 0.5,
        "2": 5.945919693846684e-21,
        "3": 3.545223135345867e-20
      },
      {
        "0": 0.5,
        "1": 0.5,
        "2": 5.2766742555754666e-24,
        "3": 8.130030758722736e-22
      },
      {
        "0": 0.5,
        "1": 0.5,
        "2": 1.6551698610081634e-30,
        "3": 8.483202765142875e-28
      },
      {
        "0": 0.5,
        "1": 0.5,
        "2": 3.2151652299501612e-27,
        "3": 9.406605816476273e-30
      },
      {
        "0": 0.5,
        "1": 0.5,
        "2": 2.627793665206848e-32,
        "3": 2.511959746248707e-24
      },
      {
        "0": 0.5,
        "1": 0.5,
        "2": 3.0964568999678337e-32,
        "3": 4.837340953782944e-25
      },
      {
        "0": 0.5,
        "1": 0.5,
        "2": 2.3967254470605916e-23,
        "3": 5.397227614473333e-34
      },
      {
        "0": 0.5,
        "1": 0.5,
        "2": 2.3205057481895177e-31,
        "3": 8.273147231802914e-28
      },
      {
        "0": 0.5,
        "1": 0.5,
        "2": 3.66332987382665e-29,
        "3": 1.5337408484606304e-32
      },
      {
        "0": 0.5,
        "1": 0.5,
        "2": 9.6890398333779e-22,
        "3": 2.9306935990208933e-30
      },
      {
        "0": 0.5,
        "1": 0.5,
        "2": 3.566574894755744e-32,
        "3": 3.0837436281973604e-27
      },
      {
        "0": 0.5,
        "1": 0.5,
        "2": 1.0319371890248394e-34,
        "3": 3.2533039841408997e-23
      },
      {
        "0": 0.5,
        "1": 0.5,
        "2": 4.849012791817822e-29,
        "3": 1.745994374854242e-26
      },
      {
        "0": 0.5,
        "1": 0.5,
        "2": 2.507247630785107e-30,
        "3": 1.7223709900067948e-23
      },
      {
        "0": 0.5,
        "1": 0.5,
        "2": 2.3868784022483345e-40,
        "3": 2.8056672468560966e-24
      },
      {
        "0": 0.5,
        "1": 0.5,
        "2": 2.4615532958454732e-27,
        "3": 1.0258381637545443e-21
      },
      {
        "0": 0.5,
        "1": 0.5,
        "2": 7.756717274834201e-24,
        "3": 2.888181141394175e-41
      },
      {
        "0": 0.5,
        "1": 0.5,
        "2": 9.149326529759014e-29,
        "3": 1.0851600402986105e-30
      },
      {
        "0": 0.5,
        "1": 0.5,
        "2": 3.759814028884585e-36,
        "3": 8.73447757884398e-28
      },
      {
        "0": 0.5,
        "1": 0.5,
        "2": 5.248468600960085e-40,
        "3": 4.830836326639372e-25
      },
      {
        "0": 0.5,
        "1": 0.5,
        "2": 1.3193517790339618e-23,
        "3": 1.207001136749876e-23
      },
      {
        "0": 0.5,
        "1": 0.5,
        "2": 7.525269476139248e-34,
        "3": 8.715094230052575e-24
      },
      {
        "0": 0.5,
        "1": 0.5,
        "2": 1.729492514922554e-27,
        "3": 1.7402781006983576e-30
      },
      {
        "0": 0.5,
        "1": 0.5,
        "2": 8.229339232890153e-23,
        "3": 6.094993621850372e-34
      },
      {
        "0": 0.5,
        "1": 0.5,
        "2": 5.67690514384912e-28,
        "3": 2.6217052238389628e-33
      },
      {
        "0": 0.5,
        "1": 0.5,
        "2": 5.3855255957876545e-36,
        "3": 3.422622793290798e-25
      },
      {
        "0": 0.5,
        "1": 0.5,
        "2": 7.001478066979402e-30,
        "3": 2.6117844158736094e-24
      },
      {
        "0": 0.5,
        "1": 0.5,
        "2": 1.2359573114912915e-36,
        "3": 6.905455177912821e-29
      },
      {
        "0": 0.5,
        "1": 0.5,
        "2": 3.092705619739607e-32,
        "3": 6.692900423871291e-25
      },
      {
        "0": 0.5,
        "1": 0.5,
        "2": 8.894972651869546e-40,
        "3": 2.066172604196313e-18
      },
      {
        "0": 0.5,
        "1": 0.5,
        "2": 7.345998812399173e-22,
        "3": 2.758506231286137e-38
      },
      {
        "0": 0.5,
        "1": 0.5,
        "2": 5.63698565452285e-66,
        "3": 5.4311670027851466e-21
      }
    ],
    "agent_probe_history": [
      {
        "0": -0.24175859987735748,
        "1": -0.2755594253540039,
        "2": -2.455080986022949,
        "3": -2.3890066146850586
      },
      {
        "0": -0.22203923761844635,
        "1": -0.23723414540290833,
        "2": -2.289628744125366,
        "3": -2.3099045753479004
      },
      {
        "0": -0.23599550127983093,
        "1": -0.23469193279743195,
        "2": -2.104881525039673,
        "3": -2.200368642807007
      },
      {
        "0": -0.19917239248752594,
        "1": -0.20555883646011353,
        "2": -2.35286808013916,
        "3": -2.1911487579345703
      },
      {
        "0": -0.18107271194458008,
        "1": -0.20201200246810913,
        "2": -2.409973621368408,
        "3": -2.479063034057617
      },
      {
        "0": -0.19089879095554352,
        "1": -0.24221335351467133,
        "2": -2.482213258743286,
        "3": -2.849208116531372
      },
      {
        "0": -0.19180728495121002,
        "1": -0.17103439569473267,
        "2": -2.1985960006713867,
        "3": -2.4157485961914062
      },
      {
        "0": -0.18474535644054413,
        "1": -0.19155412912368774,
        "2": -2.3756113052368164,
        "3": -2.0293128490448
      },
      {
        "0": -0.19687972962856293,
        "1": -0.171949103474617,
        "2": -1.9963074922561646,
        "3": -1.9605978727340698
      },
      {
        "0": -0.18175943195819855,
        "1": -0.19046053290367126,
        "2": -2.2059357166290283,
        "3": -2.105186939239502
      },
      {
        "0": -0.14435014128684998,
        "1": -0.17578043043613434,
        "2": -2.7662134170532227,
        "3": -2.6414263248443604
      },
      {
        "0": -0.2135162651538849,
        "1": -0.16685248911380768,
        "2": -2.6258671283721924,
        "3": -2.742551565170288
      },
      {
        "0": -0.13111360371112823,
        "1": -0.23345217108726501,
        "2": -2.746877431869507,
        "3": -2.3793654441833496
      },
      {
        "0": -0.1520300805568695,
        "1": -0.15750029683113098,
        "2": -2.7005889415740967,
        "3": -2.369304895401001
      },
      {
        "0": -0.1359190195798874,
        "1": -0.17685282230377197,
        "2": -2.232541084289551,
        "3": -2.722874164581299
      },
      {
        "0": -0.14032483100891113,
        "1": -0.10501247644424438,
        "2": -2.7705533504486084,
        "3": -2.606973648071289
      },
      {
        "0": -0.15936803817749023,
        "1": -0.12223426252603531,
        "2": -2.7507059574127197,
        "3": -2.9062743186950684
      },
      {
        "0": -0.1305171400308609,
        "1": -0.16178125143051147,
        "2": -2.069490432739258,
        "3": -2.4618191719055176
      },
      {
        "0": -0.14794903993606567,
        "1": -0.1463427096605301,
        "2": -2.789318561553955,
        "3": -2.56196928024292
      },
      {
        "0": -0.1337181031703949,
        "1": -0.14326578378677368,
        "2": -2.7162647247314453,
        "3": -2.1867313385009766
      },
      {
        "0": -0.1139238253235817,
        "1": -0.14461129903793335,
        "2": -2.6070070266723633,
        "3": -2.489280939102173
      },
      {
        "0": -0.11865456402301788,
        "1": -0.10444734245538712,
        "2": -2.502411127090454,
        "3": -2.187558889389038
      },
      {
        "0": -0.13947804272174835,
        "1": -0.12048260122537613,
        "2": -3.021028518676758,
        "3": -2.280968189239502
      },
      {
        "0": -0.12302642315626144,
        "1": -0.13775837421417236,
        "2": -2.301988124847412,
        "3": -2.0431835651397705
      },
      {
        "0": -0.1267993003129959,
        "1": -0.12300288677215576,
        "2": -2.2276127338409424,
        "3": -3.030250310897827
      },
      {
        "0": -0.10752950608730316,
        "1": -0.12474683672189713,
        "2": -2.6794724464416504,
        "3": -2.7681632041931152
      },
      {
        "0": -0.1016465276479721,
        "1": -0.10254522413015366,
        "2": -2.9522953033447266,
        "3": -2.567023515701294
      },
      {
        "0": -0.12239179015159607,
        "1": -0.1049712523818016,
        "2": -3.023367404937744,
        "3": -2.3342502117156982
      },
      {
        "0": -0.10634654760360718,
        "1": -0.10461215674877167,
        "2": -2.185913324356079,
        "3": -2.1876933574676514
      },
      {
        "0": -0.10938607901334763,
        "1": -0.11729259788990021,
        "2": -2.676898956298828,
        "3": -2.2134461402893066
      },
      {
        "0": -0.13759347796440125,
        "1": -0.12182123959064484,
        "2": -2.5747463703155518,
        "3": -2.7127771377563477
      },
      {
        "0": -0.1100747361779213,
        "1": -0.1323327124118805,
        "2": -2.138676881790161,
        "3": -2.6512503623962402
      },
      {
        "0": -0.10180424898862839,
        "1": -0.10267127305269241,
        "2": -2.5843844413757324,
        "3": -2.830094575881958
      },
      {
        "0": -0.09455474466085434,
        "1": -0.10554122924804688,
        "2": -2.8286867141723633,
        "3": -2.331184148788452
      },
      {
        "0": -0.10722459107637405,
        "1": -0.09692583978176117,
        "2": -2.5081675052642822,
        "3": -2.2515790462493896
      },
      {
        "0": -0.10740948468446732,
        "1": -0.11146625131368637,
        "2": -3.0342178344726562,
        "3": -2.6774466037750244
      },
      {
        "0": -0.09845296293497086,
        "1": -0.1157640814781189,
        "2": -2.652383327484131,
        "3": -2.3145813941955566
      },
      {
        "0": -0.09761980921030045,
        "1": -0.10415126383304596,
        "2": -2.6892004013061523,
        "3": -1.7052587270736694
      },
      {
        "0": -0.1021382212638855,
        "1": -0.10603708773851395,
        "2": -2.024819850921631,
        "3": -2.781236410140991
      },
      {
        "0": -0.10346107184886932,
        "1": -0.10756170004606247,
        "2": -4.017903804779053,
        "3": -1.9463211297988892
      }
    ],
    "agent_mu_history": [
      {
        "0": 0.0,
        "1": 0.0,
        "2": 0.0,
        "3": 0.0
      },
      {
        "0": 0.0,
        "1": 0.0,
        "2": 0.0,
        "3": 0.0
      },
      {
        "0": 0.0,
        "1": 0.0,
        "2": 0.0,
        "3": 0.0
      },
      {
        "0": 0.0,
        "1": 0.0,
        "2": 0.0,
        "3": 0.0
      },
      {
        "0": 0.0,
        "1": 0.0,
        "2": 0.0,
        "3": 0.0
      },
      {
        "0": 0.0,
        "1": 0.0,
        "2": 0.0,
        "3": 0.0
      },
      {
        "0": 0.0,
        "1": 0.0,
        "2": 0.0,
        "3": 0.0
      },
      {
        "0": 0.0,
        "1": 0.0,
        "2": 0.0,
        "3": 0.0
      },
      {
        "0": 0.0,
        "1": 0.0,
        "2": 0.0,
        "3": 0.0
      },
      {
        "0": 0.0,
        "1": 0.0,
        "2": 0.0,
        "3": 0.0
      },
      {
        "0": 0.0,
        "1": 0.0,
        "2": 0.0,
        "3": 0.0
      },
      {
        "0": 0.0,
        "1": 0.0,
        "2": 0.0,
        "3": 0.0
      },
      {
        "0": 0.0,
        "1": 0.0,
        "2": 0.0,
        "3": 0.0
      },
      {
        "0": 0.0,
        "1": 0.0,
        "2": 0.0,
        "3": 0.0
      },
      {
        "0": 0.0,
        "1": 0.0,
        "2": 0.0,
        "3": 0.0
      },
      {
        "0": 0.0,
        "1": 0.0,
        "2": 0.0,
        "3": 0.0
      },
      {
        "0": 0.0,
        "1": 0.0,
        "2": 0.0,
        "3": 0.0
      },
      {
        "0": 0.0,
        "1": 0.0,
        "2": 0.0,
        "3": 0.0
      },
      {
        "0": 0.0,
        "1": 0.0,
        "2": 0.0,
        "3": 0.0
      },
      {
        "0": 0.0,
        "1": 0.0,
        "2": 0.0,
        "3": 0.0
      },
      {
        "0": 0.0,
        "1": 0.0,
        "2": 0.0,
        "3": 0.0
      },
      {
        "0": 0.0,
        "1": 0.0,
        "2": 0.0,
        "3": 0.0
      },
      {
        "0": 0.0,
        "1": 0.0,
        "2": 0.0,
        "3": 0.0
      },
      {
        "0": 0.0,
        "1": 0.0,
        "2": 0.0,
        "3": 0.0
      },
      {
        "0": 0.0,
        "1": 0.0,
        "2": 0.0,
        "3": 0.0
      },
      {
        "0": 0.0,
        "1": 0.0,
        "2": 0.0,
        "3": 0.0
      },
      {
        "0": 0.0,
        "1": 0.0,
        "2": 0.0,
        "3": 0.0
      },
      {
        "0": 0.0,
        "1": 0.0,
        "2": 0.0,
        "3": 0.0
      },
      {
        "0": 0.0,
        "1": 0.0,
        "2": 0.0,
        "3": 0.0
      },
      {
        "0": 0.0,
        "1": 0.0,
        "2": 0.0,
        "3": 0.0
      },
      {
        "0": 0.0,
        "1": 0.0,
        "2": 0.0,
        "3": 0.0
      },
      {
        "0": 0.0,
        "1": 0.0,
        "2": 0.0,
        "3": 0.0
      },
      {
        "0": 0.0,
        "1": 0.0,
        "2": 0.0,
        "3": 0.0
      },
      {
        "0": 0.0,
        "1": 0.0,
        "2": 0.0,
        "3": 0.0
      },
      {
        "0": 0.0,
        "1": 0.0,
        "2": 0.0,
        "3": 0.0
      },
      {
        "0": 0.0,
        "1": 0.0,
        "2": 0.0,
        "3": 0.0
      },
      {
        "0": 0.0,
        "1": 0.0,
        "2": 0.0,
        "3": 0.0
      },
      {
        "0": 0.0,
        "1": 0.0,
        "2": 0.0,
        "3": 0.0
      },
      {
        "0": 0.0,
        "1": 0.0,
        "2": 0.0,
        "3": 0.0
      },
      {
        "0": 0.0,
        "1": 0.0,
        "2": 0.0,
        "3": 0.0
      }
    ],
    "agent_noisy_clients": [
      2,
      3
    ],
    "agent_probe_heldout": true,
    "agent_adaptive_mu": false,
    "eval": {
      "threshold": 0.5,
      "micro_f1": 0.6873706004140787,
      "macro_f1_present": 0.22265756710856294,
      "best_threshold": 0.35,
      "best_micro_f1": 0.6779270633397313,
      "best_macro_f1_present": 0.24182360606771064,
      "macro_ap": 0.27294081578350726,
      "macro_auroc": 0.8032299332104331
    }
  }
}
