{
  "name": "het04_dir_agentmu_s0",
  "config": {
    "method": "agent_fed",
    "backbone": "retfound_mae_vit_large",
    "seed": 0,
    "epochs": 20,
    "rounds": 40,
    "local_epochs": 1,
    "batch_size": 16,
    "lr": 0.001,
    "fedprox_mu": 0.0,
    "loss": "balanced_bce",
    "positive_dropout": 0.0,
    "train_label_noise": 0.0,
    "image_size": [
      224,
      224
    ],
    "device": "cuda",
    "lora_rank": 8,
    "lora_alpha": 16.0,
    "require_retfound": true,
    "num_workers": 8,
    "pin_memory": true,
    "persistent_workers": true,
    "use_data_parallel": true,
    "agent_aggregation": "agent",
    "agent_tau": 0.03,
    "agent_geometry": false,
    "agent_noisy_clients": [
      2,
      3
    ],
    "agent_client_noise": 0.4,
    "agent_adaptive_mu": true,
    "agent_mu_max": 0.1,
    "agent_mu_tau": 0.05
  },
  "result": {
    "config": {
      "method": "agent_fed",
      "backbone": "retfound_mae_vit_large",
      "seed": 0,
      "epochs": 20,
      "rounds": 40,
      "local_epochs": 1,
      "batch_size": 16,
      "lr": 0.001,
      "fedprox_mu": 0.0,
      "loss": "balanced_bce",
      "positive_dropout": 0.0,
      "train_label_noise": 0.0,
      "image_size": [
        224,
        224
      ],
      "device": "cuda",
      "lora_rank": 8,
      "lora_alpha": 16.0,
      "require_retfound": true,
      "num_workers": 8,
      "pin_memory": true,
      "persistent_workers": true,
      "use_data_parallel": true,
      "agent_aggregation": "agent",
      "agent_tau": 0.03,
      "agent_geometry": false,
      "agent_noisy_clients": [
        2,
        3
      ],
      "agent_client_noise": 0.4,
      "agent_adaptive_mu": true,
      "agent_mu_max": 0.1,
      "agent_mu_tau": 0.05
    },
    "model_info": {
      "requested_backbone": "retfound_mae_vit_large",
      "actual_backbone": "retfound_mae_vit_large",
      "is_retfound": true,
      "checkpoint_path": "/mnt/bn/feed-quality-issues/gushiyu/projects/fl-agent/weights/RETFound_mae_natureCFP.pth",
      "lora_rank": 8,
      "lora_alpha": 16.0,
      "trainable_params": 1226798,
      "total_params": 304528430
    },
    "train_loss": [
      1.5659985552680173,
      3.6384006212376603,
      6.415943404689192,
      9.785184501263855,
      18.22052127534199,
      8.057259810762293,
      20.74109955131554,
      8.12168628734869,
      22.271386649845695,
      12.671349667088963,
      24.022626510521278,
      9.721875914052774,
      23.725894264480313,
      11.173840892843405,
      25.409300934283337,
      11.714259249058514,
      24.134546614077244,
      11.112437895663774,
      22.913045571798705,
      10.51815499346457,
      22.951002978477156,
      8.65670679598476,
      23.6918422045494,
      9.899774689231466,
      23.136147329536808,
      10.504285534330927,
      23.238993240254267,
      10.00998959584258,
      22.660142474732144,
      9.481016784995303,
      24.403164129297274,
      10.435534989312291,
      25.515503646195434,
      12.168584103986328,
      22.13520922630775,
      10.466174933238714,
      25.473436090041275,
      10.843203129540184,
      25.646184708307437,
      12.617391567450873
    ],
    "comm_bytes_upload_per_round": [
      19628768,
      19628768,
      19628768,
      19628768,
      19628768,
      19628768,
      19628768,
      19628768,
      19628768,
      19628768,
      19628768,
      19628768,
      19628768,
      19628768,
      19628768,
      19628768,
      19628768,
      19628768,
      19628768,
      19628768,
      19628768,
      19628768,
      19628768,
      19628768,
      19628768,
      19628768,
      19628768,
      19628768,
      19628768,
      19628768,
      19628768,
      19628768,
      19628768,
      19628768,
      19628768,
      19628768,
      19628768,
      19628768,
      19628768,
      19628768
    ],
    "total_upload_bytes": 785150720,
    "agent_weight_history": [
      {
        "0": 0.5024875621890545,
        "1": 0.4975124378109451,
        "2": 1.7524820081486086e-16,
        "3": 1.4105591648046558e-16
      },
      {
        "0": 0.5024864342894002,
        "1": 0.49751129990748855,
        "2": 5.6358119265732044e-24,
        "3": 2.265803111322149e-06
      },
      {
        "0": 0.5024788539926791,
        "1": 0.49750395279168014,
        "2": 2.9975903322018318e-21,
        "3": 1.7193215640712802e-05
      },
      {
        "0": 0.4883923403228224,
        "1": 0.48512573194184266,
        "2": 5.50002504811853e-23,
        "3": 0.026481927735334868
      },
      {
        "0": 0.2518703413893529,
        "1": 0.24937657563302268,
        "2": 4.394240617201514e-23,
        "3": 0.49875308297762433
      },
      {
        "0": 0.5024875563432426,
        "1": 0.49751243208226015,
        "2": 1.3838935449370646e-18,
        "3": 1.1574497386447868e-08
      },
      {
        "0": 0.2518703576448277,
        "1": 0.24937659172755217,
        "2": 1.4559285199156216e-22,
        "3": 0.49875305062762015
      },
      {
        "0": 0.5024576621137874,
        "1": 0.4974814878565664,
        "2": 6.393333031428738e-20,
        "3": 6.08500296462513e-05
      },
      {
        "0": 0.2518705415240496,
        "1": 0.24937677378618772,
        "2": 2.807574315364146e-22,
        "3": 0.4987526846897627
      },
      {
        "0": 0.5024633006491999,
        "1": 0.49748841648435627,
        "2": 3.7138800269894e-19,
        "3": 4.828286644388888e-05
      },
      {
        "0": 0.2518703836600572,
        "1": 0.24937661748520515,
        "2": 2.2512801211598307e-23,
        "3": 0.4987529988547377
      },
      {
        "0": 0.5024462887970639,
        "1": 0.49747157306639983,
        "2": 4.3072533143398803e-19,
        "3": 8.213813653641797e-05
      },
      {
        "0": 0.2518704816632311,
        "1": 0.2493767145180506,
        "2": 2.2605499697253885e-23,
        "3": 0.4987528038187182
      },
      {
        "0": 0.5024875621885413,
        "1": 0.49751243781043697,
        "2": 1.00801168588261e-12,
        "3": 1.3646257179589806e-14
      },
      {
        "0": 0.2518705912398618,
        "1": 0.24937682300976413,
        "2": 2.2290372872288503e-25,
        "3": 0.49875258575037407
      },
      {
        "0": 0.5024875621848339,
        "1": 0.4975124378067663,
        "2": 8.399670480681108e-12,
        "3": 1.9479232812543556e-18
      },
      {
        "0": 0.2518704949228282,
        "1": 0.2493767276463646,
        "2": 1.074576940993609e-24,
        "3": 0.4987527774308072
      },
      {
        "0": 0.5024875621885141,
        "1": 0.49751243781040994,
        "2": 1.0761115604805064e-12,
        "3": 3.4011039967680347e-40
      },
      {
        "0": 0.2518704055839066,
        "1": 0.24937663919198677,
        "2": 8.714233669025273e-25,
        "3": 0.4987529552241066
      },
      {
        "0": 0.5024875621872588,
        "1": 0.4975124378091671,
        "2": 3.5741809745861716e-12,
        "3": 5.156831794328828e-63
      },
      {
        "0": 0.2518703526160942,
        "1": 0.24937658674860813,
        "2": 6.945985024628732e-24,
        "3": 0.49875306063529773
      },
      {
        "0": 0.5024875621766873,
        "1": 0.4975124377987003,
        "2": 2.4612480184997096e-11,
        "3": 3.125252218761016e-37
      },
      {
        "0": 0.2518703804728778,
        "1": 0.249376614329582,
        "2": 1.3887961004530963e-26,
        "3": 0.4987530051975402
      },
      {
        "0": 0.5024875621860274,
        "1": 0.49751243780794796,
        "2": 6.02451499465618e-12,
        "3": 1.0318615520982322e-62
      },
      {
        "0": 0.25187040254817616,
        "1": 0.24937663618631303,
        "2": 6.0992770025466665e-24,
        "3": 0.4987529612655109
      },
      {
        "0": 0.5024875621878309,
        "1": 0.4975124378097335,
        "2": 2.4356845501946825e-12,
        "3": 7.7816141678487455e-31
      },
      {
        "0": 0.25187040932502985,
        "1": 0.24937664289606915,
        "2": 4.03164440295877e-25,
        "3": 0.498752947778901
      },
      {
        "0": 0.502487562188964,
        "1": 0.4975124378108553,
        "2": 1.8074923141321524e-13,
        "3": 5.1148769762982626e-79
      },
      {
        "0": 0.25187036900215704,
        "1": 0.24937660297243272,
        "2": 1.2440538089010283e-26,
        "3": 0.4987530280254102
      },
      {
        "0": 0.5024875621887201,
        "1": 0.497512437810614,
        "2": 6.658269255442344e-13,
        "3": 5.694975664498506e-28
      },
      {
        "0": 0.2518704446037785,
        "1": 0.24937667782552325,
        "2": 2.436452615599967e-27,
        "3": 0.49875287757069836
      },
      {
        "0": 0.5024875621766447,
        "1": 0.49751243779865806,
        "2": 2.4697223787953513e-11,
        "3": 1.618888257323685e-30
      },
      {
        "0": 0.2518705733467829,
        "1": 0.24937680529384448,
        "2": 3.2974263914059023e-22,
        "3": 0.49875262135937254
      },
      {
        "0": 0.48491506373602206,
        "1": 0.48011392449111095,
        "2": 2.8144281583877356e-21,
        "3": 0.034971011772866906
      },
      {
        "0": 0.2518704036021414,
        "1": 0.249376637229843,
        "2": 1.8110206122818979e-25,
        "3": 0.4987529591680156
      },
      {
        "0": 0.5024875621282305,
        "1": 0.49751243775072335,
        "2": 1.210461497580269e-10,
        "3": 4.405950872107558e-19
      },
      {
        "0": 0.25187050604478,
        "1": 0.249376738658198,
        "2": 1.4240421708834913e-24,
        "3": 0.4987527552970219
      },
      {
        "0": 0.5022520288265037,
        "1": 0.4972792364618848,
        "2": 3.3266142738021717e-21,
        "3": 0.0004687347116114695
      },
      {
        "0": 0.2518705010237656,
        "1": 0.24937673368689667,
        "2": 1.4762638534441665e-23,
        "3": 0.4987527652893377
      },
      {
        "0": 0.5024875445403939,
        "1": 0.49751242033702364,
        "2": 9.066263844794922e-18,
        "3": 3.5122582557611195e-08
      }
    ],
    "agent_probe_history": [
      {
        "0": -0.17134012281894684,
        "1": -0.1724717915058136,
        "2": -2.397446632385254,
        "3": -2.3204262256622314
      },
      {
        "0": -0.28178030252456665,
        "1": -0.28206193447113037,
        "2": -2.319620132446289,
        "3": -1.0200285911560059
      },
      {
        "0": -0.4463652968406677,
        "1": -0.4461253583431244,
        "2": -2.234833240509033,
        "3": -1.062735915184021
      },
      {
        "0": -0.6007094383239746,
        "1": -0.5987800359725952,
        "2": -2.288825511932373,
        "3": -0.7749918103218079
      },
      {
        "0": -0.6564401984214783,
        "1": -0.6564401984214783,
        "2": -2.2634775638580322,
        "3": -0.18232375383377075
      },
      {
        "0": -0.6225863695144653,
        "1": -0.6224324107170105,
        "2": -2.446112871170044,
        "3": -1.6771659851074219
      },
      {
        "0": -0.6564401984214783,
        "1": -0.6564401984214783,
        "2": -2.227539539337158,
        "3": -0.2022830843925476
      },
      {
        "0": -0.6530569791793823,
        "1": -0.6537280678749084,
        "2": -2.3124780654907227,
        "3": -1.194262146949768
      },
      {
        "0": -0.6564401984214783,
        "1": -0.6564401984214783,
        "2": -2.207839250564575,
        "3": -0.258419930934906
      },
      {
        "0": -0.6564401984214783,
        "1": -0.6564401984214783,
        "2": -2.26934814453125,
        "3": -1.21085524559021
      },
      {
        "0": -0.6564401984214783,
        "1": -0.6564401984214783,
        "2": -2.283541440963745,
        "3": -0.21954120695590973
      },
      {
        "0": -0.6564401984214783,
        "1": -0.6564401984214783,
        "2": -2.2489616870880127,
        "3": -1.17897367477417
      },
      {
        "0": -0.6564401984214783,
        "1": -0.6564401984214783,
        "2": -2.2834181785583496,
        "3": -0.24875454604625702
      },
      {
        "0": -0.6564401984214783,
        "1": -0.6564401984214783,
        "2": -2.438998222351074,
        "3": -2.484534502029419
      },
      {
        "0": -0.6564401984214783,
        "1": -0.6564401984214783,
        "2": -2.42199444770813,
        "3": -0.26459991931915283
      },
      {
        "0": -0.6564401984214783,
        "1": -0.6564401984214783,
        "2": -2.3117854595184326,
        "3": -2.6865618228912354
      },
      {
        "0": -0.6564401984214783,
        "1": -0.6564401984214783,
        "2": -2.3748061656951904,
        "3": -0.25117987394332886
      },
      {
        "0": -0.6564401984214783,
        "1": -0.6564401984214783,
        "2": -2.4350757598876953,
        "3": -4.251193046569824
      },
      {
        "0": -0.6564401984214783,
        "1": -0.6564401984214783,
        "2": -2.3810927867889404,
        "3": -0.2289559692144394
      },
      {
        "0": -0.6564401984214783,
        "1": -0.6564401984214783,
        "2": -2.3630528450012207,
        "3": -5.791478633880615
      },
      {
        "0": -0.6564401984214783,
        "1": -0.6564401984214783,
        "2": -2.318819046020508,
        "3": -0.19739650189876556
      },
      {
        "0": -0.6564401984214783,
        "1": -0.6564401984214783,
        "2": -2.247281789779663,
        "3": -3.9526009559631348
      },
      {
        "0": -0.6564401984214783,
        "1": -0.6564401984214783,
        "2": -2.505265951156616,
        "3": -0.217888742685318
      },
      {
        "0": -0.6564401984214783,
        "1": -0.6564401984214783,
        "2": -2.3317267894744873,
        "3": -5.755006790161133
      },
      {
        "0": -0.6564401984214783,
        "1": -0.6564401984214783,
        "2": -2.322718858718872,
        "3": -0.2278156727552414
      },
      {
        "0": -0.6564401984214783,
        "1": -0.6564401984214783,
        "2": -2.38606333732605,
        "3": -3.5801589488983154
      },
      {
        "0": -0.6564401984214783,
        "1": -0.6564401984214783,
        "2": -2.4042162895202637,
        "3": -0.23030410706996918
      },
      {
        "0": -0.6564401984214783,
        "1": -0.6564401984214783,
        "2": -2.5421156883239746,
        "3": -6.9864959716796875
      },
      {
        "0": -0.6564401984214783,
        "1": -0.6564401984214783,
        "2": -2.5085678100585938,
        "3": -0.21105147898197174
      },
      {
        "0": -0.6564401984214783,
        "1": -0.6564401984214783,
        "2": -2.4638805389404297,
        "3": -3.4212002754211426
      },
      {
        "0": -0.6564401984214783,
        "1": -0.6564401984214783,
        "2": -2.5574803352355957,
        "3": -0.24070492386817932
      },
      {
        "0": -0.6564401984214783,
        "1": -0.6564401984214783,
        "2": -2.2470755577087402,
        "3": -3.4886882305145264
      },
      {
        "0": -0.6564401984214783,
        "1": -0.6564401984214783,
        "2": -2.203014612197876,
        "3": -0.26251932978630066
      },
      {
        "0": -0.6564401984214783,
        "1": -0.6564401984214783,
        "2": -2.218240261077881,
        "3": -0.8136104345321655
      },
      {
        "0": -0.6564401984214783,
        "1": -0.6564401984214783,
        "2": -2.428224802017212,
        "3": -0.2282164990901947
      },
      {
        "0": -0.6564401984214783,
        "1": -0.6564401984214783,
        "2": -2.1517066955566406,
        "3": -2.6511142253875732
      },
      {
        "0": -0.6564401984214783,
        "1": -0.6564401984214783,
        "2": -2.366358995437622,
        "3": -0.253073126077652
      },
      {
        "0": -0.6564401984214783,
        "1": -0.6564401984214783,
        "2": -2.342618227005005,
        "3": -1.0744524002075195
      },
      {
        "0": -0.6564401984214783,
        "1": -0.6564401984214783,
        "2": -2.29620099067688,
        "3": -0.2522331774234772
      },
      {
        "0": -0.6564401984214783,
        "1": -0.6564401984214783,
        "2": -2.390275716781616,
        "3": -1.644417405128479
      }
    ],
    "agent_mu_history": [
      {
        "0": 0.0,
        "1": 0.0,
        "2": 0.0,
        "3": 0.0
      },
      {
        "0": 0.0,
        "1": 0.0,
        "2": 0.1,
        "3": 0.1
      },
      {
        "0": 0.0,
        "1": 0.0,
        "2": 0.1,
        "3": 0.1
      },
      {
        "0": 0.0,
        "1": 0.0,
        "2": 0.1,
        "3": 0.1
      },
      {
        "0": 0.0,
        "1": 0.0,
        "2": 0.1,
        "3": 0.1
      },
      {
        "0": 0.0,
        "1": 0.0,
        "2": 0.1,
        "3": 0.0
      },
      {
        "0": 0.0,
        "1": 0.0,
        "2": 0.1,
        "3": 0.1
      },
      {
        "0": 0.0,
        "1": 0.0,
        "2": 0.1,
        "3": 0.0
      },
      {
        "0": 0.0,
        "1": 0.0,
        "2": 0.1,
        "3": 0.1
      },
      {
        "0": 0.0,
        "1": 0.0,
        "2": 0.1,
        "3": 0.0
      },
      {
        "0": 0.0,
        "1": 0.0,
        "2": 0.1,
        "3": 0.1
      },
      {
        "0": 0.0,
        "1": 0.0,
        "2": 0.1,
        "3": 0.0
      },
      {
        "0": 0.0,
        "1": 0.0,
        "2": 0.1,
        "3": 0.1
      },
      {
        "0": 0.0,
        "1": 0.0,
        "2": 0.1,
        "3": 0.0
      },
      {
        "0": 0.0,
        "1": 0.0,
        "2": 0.1,
        "3": 0.1
      },
      {
        "0": 0.0,
        "1": 0.0,
        "2": 0.1,
        "3": 0.0
      },
      {
        "0": 0.0,
        "1": 0.0,
        "2": 0.1,
        "3": 0.1
      },
      {
        "0": 0.0,
        "1": 0.0,
        "2": 0.1,
        "3": 0.0
      },
      {
        "0": 0.0,
        "1": 0.0,
        "2": 0.1,
        "3": 0.1
      },
      {
        "0": 0.0,
        "1": 0.0,
        "2": 0.1,
        "3": 0.0
      },
      {
        "0": 0.0,
        "1": 0.0,
        "2": 0.1,
        "3": 0.1
      },
      {
        "0": 0.0,
        "1": 0.0,
        "2": 0.1,
        "3": 0.0
      },
      {
        "0": 0.0,
        "1": 0.0,
        "2": 0.1,
        "3": 0.1
      },
      {
        "0": 0.0,
        "1": 0.0,
        "2": 0.1,
        "3": 0.0
      },
      {
        "0": 0.0,
        "1": 0.0,
        "2": 0.1,
        "3": 0.1
      },
      {
        "0": 0.0,
        "1": 0.0,
        "2": 0.1,
        "3": 0.0
      },
      {
        "0": 0.0,
        "1": 0.0,
        "2": 0.1,
        "3": 0.1
      },
      {
        "0": 0.0,
        "1": 0.0,
        "2": 0.1,
        "3": 0.0
      },
      {
        "0": 0.0,
        "1": 0.0,
        "2": 0.1,
        "3": 0.1
      },
      {
        "0": 0.0,
        "1": 0.0,
        "2": 0.1,
        "3": 0.0
      },
      {
        "0": 0.0,
        "1": 0.0,
        "2": 0.1,
        "3": 0.1
      },
      {
        "0": 0.0,
        "1": 0.0,
        "2": 0.1,
        "3": 0.0
      },
      {
        "0": 0.0,
        "1": 0.0,
        "2": 0.1,
        "3": 0.1
      },
      {
        "0": 0.0,
        "1": 0.0,
        "2": 0.1,
        "3": 0.0
      },
      {
        "0": 0.0,
        "1": 0.0,
        "2": 0.1,
        "3": 0.1
      },
      {
        "0": 0.0,
        "1": 0.0,
        "2": 0.1,
        "3": 0.0
      },
      {
        "0": 0.0,
        "1": 0.0,
        "2": 0.1,
        "3": 0.1
      },
      {
        "0": 0.0,
        "1": 0.0,
        "2": 0.1,
        "3": 0.0
      },
      {
        "0": 0.0,
        "1": 0.0,
        "2": 0.1,
        "3": 0.1
      },
      {
        "0": 0.0,
        "1": 0.0,
        "2": 0.1,
        "3": 0.0
      }
    ],
    "agent_noisy_clients": [
      2,
      3
    ],
    "agent_probe_heldout": true,
    "agent_adaptive_mu": true,
    "eval": {
      "threshold": 0.5,
      "micro_f1": 0.0,
      "macro_f1_present": 0.0,
      "best_threshold": 0.05,
      "best_micro_f1": 0.0,
      "best_macro_f1_present": 0.0,
      "macro_ap": 0.07459117105945601,
      "macro_auroc": 0.60399676612227
    }
  }
}
