{
  "name": "het04_agentmu_s2",
  "config": {
    "method": "agent_fed",
    "backbone": "retfound_mae_vit_large",
    "seed": 2,
    "epochs": 20,
    "rounds": 40,
    "local_epochs": 1,
    "batch_size": 16,
    "lr": 0.001,
    "fedprox_mu": 0.0,
    "loss": "balanced_bce",
    "positive_dropout": 0.0,
    "train_label_noise": 0.0,
    "image_size": [
      224,
      224
    ],
    "device": "cuda",
    "lora_rank": 8,
    "lora_alpha": 16.0,
    "require_retfound": true,
    "num_workers": 8,
    "pin_memory": true,
    "persistent_workers": true,
    "use_data_parallel": true,
    "agent_aggregation": "agent",
    "agent_tau": 0.03,
    "agent_geometry": false,
    "agent_noisy_clients": [
      2,
      3
    ],
    "agent_client_noise": 0.4,
    "agent_adaptive_mu": true,
    "agent_mu_max": 0.1,
    "agent_mu_tau": 0.05
  },
  "result": {
    "config": {
      "method": "agent_fed",
      "backbone": "retfound_mae_vit_large",
      "seed": 2,
      "epochs": 20,
      "rounds": 40,
      "local_epochs": 1,
      "batch_size": 16,
      "lr": 0.001,
      "fedprox_mu": 0.0,
      "loss": "balanced_bce",
      "positive_dropout": 0.0,
      "train_label_noise": 0.0,
      "image_size": [
        224,
        224
      ],
      "device": "cuda",
      "lora_rank": 8,
      "lora_alpha": 16.0,
      "require_retfound": true,
      "num_workers": 8,
      "pin_memory": true,
      "persistent_workers": true,
      "use_data_parallel": true,
      "agent_aggregation": "agent",
      "agent_tau": 0.03,
      "agent_geometry": false,
      "agent_noisy_clients": [
        2,
        3
      ],
      "agent_client_noise": 0.4,
      "agent_adaptive_mu": true,
      "agent_mu_max": 0.1,
      "agent_mu_tau": 0.05
    },
    "model_info": {
      "requested_backbone": "retfound_mae_vit_large",
      "actual_backbone": "retfound_mae_vit_large",
      "is_retfound": true,
      "checkpoint_path": "/mnt/bn/feed-quality-issues/gushiyu/projects/fl-agent/weights/RETFound_mae_natureCFP.pth",
      "lora_rank": 8,
      "lora_alpha": 16.0,
      "trainable_params": 1226798,
      "total_params": 304528430
    },
    "train_loss": [
      1.4284401138623555,
      2.908742738018433,
      3.1095721915364267,
      2.848806943744421,
      2.9180700545509657,
      2.8515827524165314,
      2.5364266297469538,
      2.535244026655952,
      2.5672836272666855,
      2.7072092803816004,
      2.7512139438341063,
      2.899832783639431,
      2.8213184203952553,
      2.71375097806255,
      2.5614090428998075,
      2.745331801349918,
      2.9698713558415575,
      2.861025100449721,
      3.011659123127659,
      3.149768919249375,
      3.2945929776877163,
      3.317043027964731,
      3.0984668601925174,
      3.246674174194535,
      3.2903212940630815,
      3.3229055615141987,
      3.563168339710683,
      3.204507317300886,
      3.107980041671544,
      3.44392623823757,
      3.5403644336077074,
      3.5357499105545385,
      3.671391316720595,
      3.891541496229668,
      3.5282899057492614,
      3.885735523250575,
      3.926869724287341,
      3.443543290579692,
      4.01479770100365,
      3.7579328016067546
    ],
    "comm_bytes_upload_per_round": [
      19628768,
      19628768,
      19628768,
      19628768,
      19628768,
      19628768,
      19628768,
      19628768,
      19628768,
      19628768,
      19628768,
      19628768,
      19628768,
      19628768,
      19628768,
      19628768,
      19628768,
      19628768,
      19628768,
      19628768,
      19628768,
      19628768,
      19628768,
      19628768,
      19628768,
      19628768,
      19628768,
      19628768,
      19628768,
      19628768,
      19628768,
      19628768,
      19628768,
      19628768,
      19628768,
      19628768,
      19628768,
      19628768,
      19628768,
      19628768
    ],
    "total_upload_bytes": 785150720,
    "agent_weight_history": [
      {
        "0": 0.49999999999999994,
        "1": 0.4999999999999996,
        "2": 1.2381872235485015e-17,
        "3": 4.939641157633961e-16
      },
      {
        "0": 0.4999999999999983,
        "1": 0.4999999999999995,
        "2": 1.881174986439559e-15,
        "3": 3.868506226862181e-16
      },
      {
        "0": 0.49999999999999006,
        "1": 0.4999999999999733,
        "2": 1.563402190650575e-14,
        "3": 2.098785757776642e-14
      },
      {
        "0": 0.49999999999999234,
        "1": 0.49999999999996125,
        "2": 4.205207106598029e-14,
        "3": 4.2976542620946134e-15
      },
      {
        "0": 0.5,
        "1": 0.5,
        "2": 1.8556550647189103e-17,
        "3": 1.3838888319305161e-18
      },
      {
        "0": 0.49999999999999983,
        "1": 0.49999999999999994,
        "2": 2.485651815563505e-16,
        "3": 2.5928224453421074e-18
      },
      {
        "0": 0.4999999999999993,
        "1": 0.4999999999999974,
        "2": 3.2615018026085815e-15,
        "3": 2.1691842340073222e-20
      },
      {
        "0": 0.4999999999999881,
        "1": 0.49999999999999595,
        "2": 1.6036531235083276e-14,
        "3": 2.004822385252023e-18
      },
      {
        "0": 0.49999999999999883,
        "1": 0.49999999999999684,
        "2": 1.858765029642367e-20,
        "3": 4.2240449818966675e-15
      },
      {
        "0": 0.4999999999999973,
        "1": 0.49999999999999895,
        "2": 5.37069775831298e-18,
        "3": 3.838537678240565e-15
      },
      {
        "0": 0.49999999999999983,
        "1": 0.4999999999999995,
        "2": 5.398188185066821e-16,
        "3": 8.335702476002575e-23
      },
      {
        "0": 0.5,
        "1": 0.4999999999999999,
        "2": 7.651947164242384e-21,
        "3": 1.667623607787496e-16
      },
      {
        "0": 0.4999999999999789,
        "1": 0.49999999999999856,
        "2": 2.2455403075356664e-14,
        "3": 1.127631709291613e-24
      },
      {
        "0": 0.49999999999999967,
        "1": 0.49999999999999967,
        "2": 7.372963720246088e-16,
        "3": 2.9195017264972432e-24
      },
      {
        "0": 0.499999999999998,
        "1": 0.499999999999999,
        "2": 1.4703769381072277e-15,
        "3": 1.638714055480447e-15
      },
      {
        "0": 0.5,
        "1": 0.5,
        "2": 2.893168480361648e-23,
        "3": 1.7359385412722929e-19
      },
      {
        "0": 0.5,
        "1": 0.5,
        "2": 1.2080327716814828e-18,
        "3": 6.829866393311626e-23
      },
      {
        "0": 0.49999999999999983,
        "1": 0.4999999999999994,
        "2": 5.863682499365652e-23,
        "3": 7.931229989054022e-16
      },
      {
        "0": 0.4999999999999996,
        "1": 0.49999999999999906,
        "2": 1.1280789971038365e-18,
        "3": 1.3815384014803545e-15
      },
      {
        "0": 0.49999999999999417,
        "1": 0.4999999999999949,
        "2": 9.726775494606491e-25,
        "3": 1.091777064337571e-14
      },
      {
        "0": 0.49999999999993716,
        "1": 0.49999999999982075,
        "2": 2.4205320481445516e-13,
        "3": 1.9428881677862695e-18
      },
      {
        "0": 0.5,
        "1": 0.5,
        "2": 9.412760025058574e-22,
        "3": 3.0749024450294714e-23
      },
      {
        "0": 0.5,
        "1": 0.5,
        "2": 5.792552122213238e-22,
        "3": 5.603888341602335e-24
      },
      {
        "0": 0.4999999999999994,
        "1": 0.4999999999999997,
        "2": 8.86424451241074e-22,
        "3": 8.257318317191272e-16
      },
      {
        "0": 0.5,
        "1": 0.5,
        "2": 1.0328400738241784e-18,
        "3": 2.4256686578992765e-19
      },
      {
        "0": 0.5,
        "1": 0.5,
        "2": 1.4809285500476922e-24,
        "3": 7.456451338196671e-22
      },
      {
        "0": 0.5,
        "1": 0.5,
        "2": 4.970088133597793e-19,
        "3": 7.531204153092118e-22
      },
      {
        "0": 0.5,
        "1": 0.5,
        "2": 1.2051436640209136e-19,
        "3": 5.053397225895924e-20
      },
      {
        "0": 0.49999999999999994,
        "1": 0.49999999999999983,
        "2": 2.291782854724875e-16,
        "3": 1.195315540019377e-29
      },
      {
        "0": 0.5,
        "1": 0.5,
        "2": 3.773907717603392e-23,
        "3": 2.2215291334759224e-20
      },
      {
        "0": 0.5,
        "1": 0.5,
        "2": 1.686101177482714e-23,
        "3": 1.764776553351133e-17
      },
      {
        "0": 0.5,
        "1": 0.5,
        "2": 2.7303089511824247e-17,
        "3": 5.95557629642137e-24
      },
      {
        "0": 0.5,
        "1": 0.5,
        "2": 1.6466942448664255e-19,
        "3": 1.5633462460577767e-24
      },
      {
        "0": 0.4999999999999999,
        "1": 0.4999999999999999,
        "2": 3.4007444528744615e-26,
        "3": 2.046751106137783e-16
      },
      {
        "0": 0.5,
        "1": 0.5,
        "2": 2.746864205007687e-18,
        "3": 1.8366221441234148e-21
      },
      {
        "0": 0.5,
        "1": 0.5,
        "2": 2.6927319666864964e-24,
        "3": 1.8578646973044515e-21
      },
      {
        "0": 0.5,
        "1": 0.5,
        "2": 9.145809111622156e-21,
        "3": 4.0332572512387105e-21
      },
      {
        "0": 0.5,
        "1": 0.5,
        "2": 3.472972971655397e-24,
        "3": 3.9862801818040986e-21
      },
      {
        "0": 0.49999999999999994,
        "1": 0.49999999999999983,
        "2": 2.5162717919319384e-19,
        "3": 2.1945643858070206e-16
      },
      {
        "0": 0.5,
        "1": 0.5,
        "2": 1.3170171216532404e-18,
        "3": 1.5030330578985795e-18
      }
    ],
    "agent_probe_history": [
      {
        "0": -0.2361670285463333,
        "1": -0.2755689322948456,
        "2": -2.4592111110687256,
        "3": -2.3486242294311523
      },
      {
        "0": -0.24317824840545654,
        "1": -0.21165472269058228,
        "2": -2.236002206802368,
        "3": -2.2834506034851074
      },
      {
        "0": -0.20189161598682404,
        "1": -0.24980881810188293,
        "2": -2.1067447662353516,
        "3": -2.097909927368164
      },
      {
        "0": -0.18514785170555115,
        "1": -0.2254592627286911,
        "2": -2.031862497329712,
        "3": -2.100287675857544
      },
      {
        "0": -0.19385269284248352,
        "1": -0.18154355883598328,
        "2": -2.463806390762329,
        "3": -2.541684150695801
      },
      {
        "0": -0.23629632592201233,
        "1": -0.2083168476819992,
        "2": -2.3505570888519287,
        "3": -2.487445831298828
      },
      {
        "0": -0.19236111640930176,
        "1": -0.21802659332752228,
        "2": -2.177833080291748,
        "3": -2.5354559421539307
      },
      {
        "0": -0.21368175745010376,
        "1": -0.19323988258838654,
        "2": -2.077927350997925,
        "3": -2.3475394248962402
      },
      {
        "0": -0.18744581937789917,
        "1": -0.2069714069366455,
        "2": -2.521275758743286,
        "3": -2.151261568069458
      },
      {
        "0": -0.19392487406730652,
        "1": -0.17815706133842468,
        "2": -2.341113805770874,
        "3": -2.1439571380615234
      },
      {
        "0": -0.1355545073747635,
        "1": -0.1687731146812439,
        "2": -2.236502170562744,
        "3": -2.707010507583618
      },
      {
        "0": -0.158121258020401,
        "1": -0.1845829337835312,
        "2": -2.6224727630615234,
        "3": -2.322791814804077
      },
      {
        "0": -0.20909738540649414,
        "1": -0.14586856961250305,
        "2": -2.053143262863159,
        "3": -2.7645835876464844
      },
      {
        "0": -0.16814860701560974,
        "1": -0.16870303452014923,
        "2": -2.217726707458496,
        "3": -2.7981393337249756
      },
      {
        "0": -0.1707690954208374,
        "1": -0.14457333087921143,
        "2": -2.175123929977417,
        "3": -2.171872138977051
      },
      {
        "0": -0.14790929853916168,
        "1": -0.1487891972064972,
        "2": -2.96004056930542,
        "3": -2.699054479598999
      },
      {
        "0": -0.18487612903118134,
        "1": -0.1400562971830368,
        "2": -2.618739604949951,
        "3": -2.9121580123901367
      },
      {
        "0": -0.13113224506378174,
        "1": -0.15980146825313568,
        "2": -2.697049617767334,
        "3": -2.2044458389282227
      },
      {
        "0": -0.126188263297081,
        "1": -0.14414498209953308,
        "2": -2.3688039779663086,
        "3": -2.1554908752441406
      },
      {
        "0": -0.12870462238788605,
        "1": -0.1265658140182495,
        "2": -2.7102596759796143,
        "3": -2.016018867492676
      },
      {
        "0": -0.11361094564199448,
        "1": -0.13328701257705688,
        "2": -1.8346753120422363,
        "3": -2.186657428741455
      },
      {
        "0": -0.13100948929786682,
        "1": -0.15542659163475037,
        "2": -3.018726110458374,
        "3": -3.1213674545288086
      },
      {
        "0": -0.11876805871725082,
        "1": -0.13365960121154785,
        "2": -3.0260887145996094,
        "3": -3.1652371883392334
      },
      {
        "0": -0.1299559324979782,
        "1": -0.11055009812116623,
        "2": -2.5845203399658203,
        "3": -2.17218279838562
      },
      {
        "0": -0.10796117037534714,
        "1": -0.11303774267435074,
        "2": -2.556302070617676,
        "3": -2.5997657775878906
      },
      {
        "0": -0.10055489093065262,
        "1": -0.11864575743675232,
        "2": -3.1825718879699707,
        "3": -2.995924472808838
      },
      {
        "0": -0.1098775789141655,
        "1": -0.1312524676322937,
        "2": -2.6184043884277344,
        "3": -2.813168525695801
      },
      {
        "0": -0.10780616104602814,
        "1": -0.11753883212804794,
        "2": -2.6897010803222656,
        "3": -2.7157747745513916
      },
      {
        "0": -0.0986732617020607,
        "1": -0.11168640851974487,
        "2": -2.2308194637298584,
        "3": -3.14835524559021
      },
      {
        "0": -0.10912644863128662,
        "1": -0.10586465150117874,
        "2": -2.974083185195923,
        "3": -2.782747983932495
      },
      {
        "0": -0.09470182657241821,
        "1": -0.1055508702993393,
        "2": -2.7943508625030518,
        "3": -2.3785173892974854
      },
      {
        "0": -0.0964876189827919,
        "1": -0.09786146879196167,
        "2": -2.344644546508789,
        "3": -2.8047900199890137
      },
      {
        "0": -0.09552939981222153,
        "1": -0.09723734855651855,
        "2": -2.6506693363189697,
        "3": -2.997615337371826
      },
      {
        "0": -0.11400774866342545,
        "1": -0.10985838621854782,
        "2": -2.915468692779541,
        "3": -2.2399253845214844
      },
      {
        "0": -0.09916555881500244,
        "1": -0.10363210737705231,
        "2": -2.4882075786590576,
        "3": -2.7075161933898926
      },
      {
        "0": -0.10779298841953278,
        "1": -0.09440238028764725,
        "2": -3.126394510269165,
        "3": -2.930295705795288
      },
      {
        "0": -0.13401855528354645,
        "1": -0.10540280491113663,
        "2": -2.860889196395874,
        "3": -2.885450839996338
      },
      {
        "0": -0.11009030044078827,
        "1": -0.10726398229598999,
        "2": -3.0981552600860596,
        "3": -2.886787176132202
      },
      {
        "0": -0.10218416154384613,
        "1": -0.11211997270584106,
        "2": -2.4369826316833496,
        "3": -2.233853816986084
      },
      {
        "0": -0.10725198686122894,
        "1": -0.10932611674070358,
        "2": -2.534043550491333,
        "3": -2.5300800800323486
      }
    ],
    "agent_mu_history": [
      {
        "0": 0.0,
        "1": 0.0,
        "2": 0.0,
        "3": 0.0
      },
      {
        "0": 0.0,
        "1": 0.0,
        "2": 0.1,
        "3": 0.1
      },
      {
        "0": 0.0,
        "1": 0.0,
        "2": 0.1,
        "3": 0.1
      },
      {
        "0": 0.0,
        "1": 0.0,
        "2": 0.1,
        "3": 0.1
      },
      {
        "0": 0.0,
        "1": 0.0,
        "2": 0.1,
        "3": 0.1
      },
      {
        "0": 0.0,
        "1": 0.0,
        "2": 0.1,
        "3": 0.1
      },
      {
        "0": 0.0,
        "1": 0.0,
        "2": 0.1,
        "3": 0.1
      },
      {
        "0": 0.0,
        "1": 0.0,
        "2": 0.1,
        "3": 0.1
      },
      {
        "0": 0.0,
        "1": 0.0,
        "2": 0.1,
        "3": 0.1
      },
      {
        "0": 0.0,
        "1": 0.0,
        "2": 0.1,
        "3": 0.1
      },
      {
        "0": 0.0,
        "1": 0.0,
        "2": 0.1,
        "3": 0.1
      },
      {
        "0": 0.0,
        "1": 0.0,
        "2": 0.1,
        "3": 0.1
      },
      {
        "0": 0.0,
        "1": 0.0,
        "2": 0.1,
        "3": 0.1
      },
      {
        "0": 0.0,
        "1": 0.0,
        "2": 0.1,
        "3": 0.1
      },
      {
        "0": 0.0,
        "1": 0.0,
        "2": 0.1,
        "3": 0.1
      },
      {
        "0": 0.0,
        "1": 0.0,
        "2": 0.1,
        "3": 0.1
      },
      {
        "0": 0.0,
        "1": 0.0,
        "2": 0.1,
        "3": 0.1
      },
      {
        "0": 0.0,
        "1": 0.0,
        "2": 0.1,
        "3": 0.1
      },
      {
        "0": 0.0,
        "1": 0.0,
        "2": 0.1,
        "3": 0.1
      },
      {
        "0": 0.0,
        "1": 0.0,
        "2": 0.1,
        "3": 0.1
      },
      {
        "0": 0.0,
        "1": 0.0,
        "2": 0.1,
        "3": 0.1
      },
      {
        "0": 0.0,
        "1": 0.0,
        "2": 0.1,
        "3": 0.1
      },
      {
        "0": 0.0,
        "1": 0.0,
        "2": 0.1,
        "3": 0.1
      },
      {
        "0": 0.0,
        "1": 0.0,
        "2": 0.1,
        "3": 0.1
      },
      {
        "0": 0.0,
        "1": 0.0,
        "2": 0.1,
        "3": 0.1
      },
      {
        "0": 0.0,
        "1": 0.0,
        "2": 0.1,
        "3": 0.1
      },
      {
        "0": 0.0,
        "1": 0.0,
        "2": 0.1,
        "3": 0.1
      },
      {
        "0": 0.0,
        "1": 0.0,
        "2": 0.1,
        "3": 0.1
      },
      {
        "0": 0.0,
        "1": 0.0,
        "2": 0.1,
        "3": 0.1
      },
      {
        "0": 0.0,
        "1": 0.0,
        "2": 0.1,
        "3": 0.1
      },
      {
        "0": 0.0,
        "1": 0.0,
        "2": 0.1,
        "3": 0.1
      },
      {
        "0": 0.0,
        "1": 0.0,
        "2": 0.1,
        "3": 0.1
      },
      {
        "0": 0.0,
        "1": 0.0,
        "2": 0.1,
        "3": 0.1
      },
      {
        "0": 0.0,
        "1": 0.0,
        "2": 0.1,
        "3": 0.1
      },
      {
        "0": 0.0,
        "1": 0.0,
        "2": 0.1,
        "3": 0.1
      },
      {
        "0": 0.0,
        "1": 0.0,
        "2": 0.1,
        "3": 0.1
      },
      {
        "0": 0.0,
        "1": 0.0,
        "2": 0.1,
        "3": 0.1
      },
      {
        "0": 0.0,
        "1": 0.0,
        "2": 0.1,
        "3": 0.1
      },
      {
        "0": 0.0,
        "1": 0.0,
        "2": 0.1,
        "3": 0.1
      },
      {
        "0": 0.0,
        "1": 0.0,
        "2": 0.1,
        "3": 0.1
      }
    ],
    "agent_noisy_clients": [
      2,
      3
    ],
    "agent_probe_heldout": true,
    "agent_adaptive_mu": true,
    "eval": {
      "threshold": 0.5,
      "micro_f1": 0.6452889944576405,
      "macro_f1_present": 0.2293162585734176,
      "best_threshold": 0.25,
      "best_micro_f1": 0.6033783783783784,
      "best_macro_f1_present": 0.2313189188908475,
      "macro_ap": 0.2558364284632965,
      "macro_auroc": 0.7873800814949978
    }
  }
}
