{
  "name": "het02_agent_s0",
  "config": {
    "method": "agent_fed",
    "backbone": "retfound_mae_vit_large",
    "seed": 0,
    "epochs": 20,
    "rounds": 40,
    "local_epochs": 1,
    "batch_size": 16,
    "lr": 0.001,
    "fedprox_mu": 0.0,
    "loss": "balanced_bce",
    "positive_dropout": 0.0,
    "train_label_noise": 0.0,
    "image_size": [
      224,
      224
    ],
    "device": "cuda",
    "lora_rank": 8,
    "lora_alpha": 16.0,
    "require_retfound": true,
    "num_workers": 8,
    "pin_memory": true,
    "persistent_workers": true,
    "use_data_parallel": true,
    "agent_aggregation": "agent",
    "agent_tau": 0.03,
    "agent_geometry": false,
    "agent_noisy_clients": [
      2,
      3
    ],
    "agent_client_noise": 0.2,
    "agent_adaptive_mu": false,
    "agent_mu_max": 0.1,
    "agent_mu_tau": 0.05
  },
  "result": {
    "config": {
      "method": "agent_fed",
      "backbone": "retfound_mae_vit_large",
      "seed": 0,
      "epochs": 20,
      "rounds": 40,
      "local_epochs": 1,
      "batch_size": 16,
      "lr": 0.001,
      "fedprox_mu": 0.0,
      "loss": "balanced_bce",
      "positive_dropout": 0.0,
      "train_label_noise": 0.0,
      "image_size": [
        224,
        224
      ],
      "device": "cuda",
      "lora_rank": 8,
      "lora_alpha": 16.0,
      "require_retfound": true,
      "num_workers": 8,
      "pin_memory": true,
      "persistent_workers": true,
      "use_data_parallel": true,
      "agent_aggregation": "agent",
      "agent_tau": 0.03,
      "agent_geometry": false,
      "agent_noisy_clients": [
        2,
        3
      ],
      "agent_client_noise": 0.2,
      "agent_adaptive_mu": false,
      "agent_mu_max": 0.1,
      "agent_mu_tau": 0.05
    },
    "model_info": {
      "requested_backbone": "retfound_mae_vit_large",
      "actual_backbone": "retfound_mae_vit_large",
      "is_retfound": true,
      "checkpoint_path": "/home/tiger/.cache/huggingface/hub/models--YukunZhou--RETFound_mae_natureCFP/snapshots/556830f78214f0e8da35af965292ac5a3180ac47/RETFound_mae_natureCFP.pth",
      "lora_rank": 8,
      "lora_alpha": 16.0,
      "trainable_params": 1226798,
      "total_params": 304528430
    },
    "train_loss": [
      1.2922700392703215,
      1.563527456422647,
      1.660437891880671,
      1.7348549512525402,
      1.63275816043218,
      1.8642397532860437,
      1.7743128888309,
      1.6084205444902182,
      1.6509159268190463,
      1.5542997885495424,
      1.6657846339046953,
      1.6942887625346583,
      1.6755610555410385,
      1.6708246851960817,
      1.7597467416276535,
      1.5872976657003164,
      1.7947547999521096,
      1.6974133728072047,
      1.6894380896041792,
      1.8398722143222888,
      1.9044553350036342,
      1.6970794494574268,
      1.9654866283138595,
      1.889205889372776,
      1.7876534912735225,
      1.9165269745824238,
      1.889596353502323,
      1.7809596633538605,
      1.9272673376215002,
      1.9218713108760617,
      2.07261638858666,
      1.89705731763194,
      2.1079992805141954,
      2.106746551503117,
      1.9814434580349674,
      1.9839148859648654,
      2.05380455791795,
      2.017521368750992,
      2.049250030750409,
      2.0177314982749524
    ],
    "comm_bytes_upload_per_round": [
      19628768,
      19628768,
      19628768,
      19628768,
      19628768,
      19628768,
      19628768,
      19628768,
      19628768,
      19628768,
      19628768,
      19628768,
      19628768,
      19628768,
      19628768,
      19628768,
      19628768,
      19628768,
      19628768,
      19628768,
      19628768,
      19628768,
      19628768,
      19628768,
      19628768,
      19628768,
      19628768,
      19628768,
      19628768,
      19628768,
      19628768,
      19628768,
      19628768,
      19628768,
      19628768,
      19628768,
      19628768,
      19628768,
      19628768,
      19628768
    ],
    "total_upload_bytes": 785150720,
    "agent_weight_history": [
      {
        "0": 0.4999999999599954,
        "1": 0.4999999998520911,
        "2": 1.8459301303072328e-10,
        "3": 3.3204788376508233e-12
      },
      {
        "0": 0.4999999999175458,
        "1": 0.4999999999075076,
        "2": 1.717487830448969e-10,
        "3": 3.197751178445543e-12
      },
      {
        "0": 0.4999999999750893,
        "1": 0.4999999999713933,
        "2": 4.907064191236346e-11,
        "3": 4.44672241902751e-12
      },
      {
        "0": 0.4999999999937835,
        "1": 0.49999999999270345,
        "2": 8.572213114812635e-12,
        "3": 4.940905183937747e-12
      },
      {
        "0": 0.4999999999914585,
        "1": 0.4999999999895195,
        "2": 1.8956372933179567e-11,
        "3": 6.572264504480655e-14
      },
      {
        "0": 0.4999999999672816,
        "1": 0.4999999999364174,
        "2": 8.206606480376389e-11,
        "3": 1.4234839192731713e-11
      },
      {
        "0": 0.49999999966822123,
        "1": 0.49999999982957244,
        "2": 4.037770188835597e-10,
        "3": 9.842918782552288e-11
      },
      {
        "0": 0.4999999996943985,
        "1": 0.4999999998894166,
        "2": 4.1613101157339207e-10,
        "3": 5.3718719692424484e-14
      },
      {
        "0": 0.4999999999064349,
        "1": 0.49999999998328737,
        "2": 5.014620877000096e-12,
        "3": 1.052630438194703e-10
      },
      {
        "0": 0.49999999994066097,
        "1": 0.4999999998618554,
        "2": 1.1664382202315988e-12,
        "3": 1.963172112445796e-10
      },
      {
        "0": 0.49999999999849604,
        "1": 0.4999999999984643,
        "2": 2.2810973278865737e-12,
        "3": 7.586420023018567e-13
      },
      {
        "0": 0.49999999999504313,
        "1": 0.49999999999946093,
        "2": 2.8142260448079453e-13,
        "3": 5.214516122415646e-12
      },
      {
        "0": 0.4999999999871824,
        "1": 0.49999999946098045,
        "2": 5.509299307327702e-10,
        "3": 9.07281673545953e-13
      },
      {
        "0": 0.4999999999997122,
        "1": 0.4999999999994929,
        "2": 2.335580215458362e-13,
        "3": 5.613262443981498e-13
      },
      {
        "0": 0.49999999999975947,
        "1": 0.4999999999988783,
        "2": 1.2285586905521198e-12,
        "3": 1.3372050565085055e-13
      },
      {
        "0": 0.49999999999166633,
        "1": 0.4999999999985526,
        "2": 4.978646783304908e-13,
        "3": 9.283173323898578e-12
      },
      {
        "0": 0.49999999953312496,
        "1": 0.499999999927279,
        "2": 5.106072910842761e-10,
        "3": 2.898877554622755e-11
      },
      {
        "0": 0.499999999749095,
        "1": 0.4999999995571278,
        "2": 2.860203850908738e-10,
        "3": 4.077568270400487e-10
      },
      {
        "0": 0.49999999912250387,
        "1": 0.49999999790472205,
        "2": 1.1006976750810552e-14,
        "3": 2.9727629968847647e-09
      },
      {
        "0": 0.4999999994855898,
        "1": 0.49999999949227764,
        "2": 1.0221325477940279e-09,
        "3": 1.3305579997986904e-17
      },
      {
        "0": 0.4999999997805967,
        "1": 0.49999999986371246,
        "2": 2.8290530254507826e-10,
        "3": 7.27855245075508e-11
      },
      {
        "0": 0.4999999996170384,
        "1": 0.4999999998263795,
        "2": 5.565800220962382e-10,
        "3": 2.129687099044172e-15
      },
      {
        "0": 0.4999999997310117,
        "1": 0.4999999999175963,
        "2": 2.4594561741551218e-12,
        "3": 3.4893245026410006e-10
      },
      {
        "0": 0.4999999999678077,
        "1": 0.4999999999675235,
        "2": 7.872412888384801e-13,
        "3": 6.388159890907513e-11
      },
      {
        "0": 0.49999999754739377,
        "1": 0.4999999965380401,
        "2": 3.286135029712507e-15,
        "3": 5.9145628271574495e-09
      },
      {
        "0": 0.499999999944154,
        "1": 0.4999999998292036,
        "2": 2.2648475177298305e-10,
        "3": 1.5757132289078406e-13
      },
      {
        "0": 0.4999999997482906,
        "1": 0.499999999483101,
        "2": 7.335717643357051e-19,
        "3": 7.686083416479465e-10
      },
      {
        "0": 0.49999999992361277,
        "1": 0.4999999998790621,
        "2": 1.8974164336771074e-10,
        "3": 7.583474433068398e-12
      },
      {
        "0": 0.4999999999278139,
        "1": 0.49999999980706517,
        "2": 2.6420812002197205e-10,
        "3": 9.129297361351702e-13
      },
      {
        "0": 0.4999999995207462,
        "1": 0.49999999950517066,
        "2": 9.71606216705897e-10,
        "3": 2.4769060949445726e-12
      },
      {
        "0": 0.4999999989686474,
        "1": 0.4999999995436391,
        "2": 1.702251707841841e-13,
        "3": 1.48754336241933e-09
      },
      {
        "0": 0.49999999980256277,
        "1": 0.49999999953618995,
        "2": 6.485694815876432e-10,
        "3": 1.2677861133263877e-11
      },
      {
        "0": 0.4999999997936273,
        "1": 0.49999999966700404,
        "2": 5.393671198475723e-10,
        "3": 1.5869585384666247e-15
      },
      {
        "0": 0.49999999979818655,
        "1": 0.49999999976393966,
        "2": 4.15933045395493e-10,
        "3": 2.1940881093449963e-11
      },
      {
        "0": 0.4999999999887686,
        "1": 0.49999999999105327,
        "2": 1.93823652542888e-11,
        "3": 7.957024107790638e-13
      },
      {
        "0": 0.49999999976694387,
        "1": 0.4999999999080314,
        "2": 1.82528018558419e-12,
        "3": 3.231994882052739e-10
      },
      {
        "0": 0.49999999999913786,
        "1": 0.4999999999994802,
        "2": 1.3802826544499354e-12,
        "3": 1.7455629289017634e-15
      },
      {
        "0": 0.49999999849973376,
        "1": 0.4999999980695257,
        "2": 1.333939481497448e-12,
        "3": 3.4294066332437025e-09
      },
      {
        "0": 0.49999999888755403,
        "1": 0.4999999991614005,
        "2": 1.9464825436741674e-09,
        "3": 4.562921910775889e-12
      },
      {
        "0": 0.4999999999815932,
        "1": 0.49999999997783634,
        "2": 9.630263128939158e-19,
        "3": 4.057049798219187e-11
      }
    ],
    "agent_probe_history": [
      {
        "0": -0.2489524483680725,
        "1": -0.2753044068813324,
        "2": -1.5784876346588135,
        "3": -1.6990289688110352
      },
      {
        "0": -0.21763458847999573,
        "1": -0.21944132447242737,
        "2": -1.526951789855957,
        "3": -1.6464593410491943
      },
      {
        "0": -0.23746022582054138,
        "1": -0.23980945348739624,
        "2": -1.6224862337112427,
        "3": -1.69451904296875
      },
      {
        "0": -0.20421810448169708,
        "1": -0.20825786888599396,
        "2": -1.695618748664856,
        "3": -1.7121480703353882
      },
      {
        "0": -0.17980989813804626,
        "1": -0.18304702639579773,
        "2": -1.622791051864624,
        "3": -1.792724609375
      },
      {
        "0": -0.1887505203485489,
        "1": -0.20290301740169525,
        "2": -1.5547239780426025,
        "3": -1.6072789430618286
      },
      {
        "0": -0.19162943959236145,
        "1": -0.17632442712783813,
        "2": -1.4478501081466675,
        "3": -1.490195870399475
      },
      {
        "0": -0.18907354772090912,
        "1": -0.1701037436723709,
        "2": -1.443485975265503,
        "3": -1.7121357917785645
      },
      {
        "0": -0.20751337707042694,
        "1": -0.16822223365306854,
        "2": -1.635721206665039,
        "3": -1.5443980693817139
      },
      {
        "0": -0.19268003106117249,
        "1": -0.2080758959054947,
        "2": -1.6613377332687378,
        "3": -1.5075644254684448
      },
      {
        "0": -0.15822266042232513,
        "1": -0.15864400565624237,
        "2": -1.725437045097351,
        "3": -1.7584635019302368
      },
      {
        "0": -0.20772388577461243,
        "1": -0.15136167407035828,
        "2": -1.8124898672103882,
        "3": -1.7249095439910889
      },
      {
        "0": -0.16102972626686096,
        "1": -0.2541399300098419,
        "2": -1.491715908050537,
        "3": -1.6839832067489624
      },
      {
        "0": -0.1381654143333435,
        "1": -0.15302032232284546,
        "2": -1.830246090888977,
        "3": -1.803939938545227
      },
      {
        "0": -0.14008475840091705,
        "1": -0.1779826432466507,
        "2": -1.7819045782089233,
        "3": -1.8484399318695068
      },
      {
        "0": -0.1517929583787918,
        "1": -0.11117148399353027,
        "2": -1.7221421003341675,
        "3": -1.6343731880187988
      },
      {
        "0": -0.16279205679893494,
        "1": -0.11844872683286667,
        "2": -1.40492844581604,
        "3": -1.4909892082214355
      },
      {
        "0": -0.14064133167266846,
        "1": -0.15973232686519623,
        "2": -1.4260027408599854,
        "3": -1.4153645038604736
      },
      {
        "0": -0.15569067001342773,
        "1": -0.17150168120861053,
        "2": -1.6831334829330444,
        "3": -1.3079392910003662
      },
      {
        "0": -0.13561420142650604,
        "1": -0.13541726768016815,
        "2": -1.336107850074768,
        "3": -1.8808170557022095
      },
      {
        "0": -0.1415567547082901,
        "1": -0.13112132251262665,
        "2": -1.4191224575042725,
        "3": -1.4598503112792969
      },
      {
        "0": -0.12782999873161316,
        "1": -0.11367606371641159,
        "2": -1.3647937774658203,
        "3": -1.7390015125274658
      },
      {
        "0": -0.13749323785305023,
        "1": -0.11453914642333984,
        "2": -1.5511211156845093,
        "3": -1.402472972869873
      },
      {
        "0": -0.13074195384979248,
        "1": -0.13087576627731323,
        "2": -1.6296138763427734,
        "3": -1.497726321220398
      },
      {
        "0": -0.12601381540298462,
        "1": -0.1316274106502533,
        "2": -1.6588859558105469,
        "3": -1.2267894744873047
      },
      {
        "0": -0.1062094196677208,
        "1": -0.12745977938175201,
        "2": -1.418371558189392,
        "3": -1.6364881992340088
      },
      {
        "0": -0.11003433912992477,
        "1": -0.12272912263870239,
        "2": -1.9634243249893188,
        "3": -1.3403266668319702
      },
      {
        "0": -0.10723291337490082,
        "1": -0.11526130884885788,
        "2": -1.416793942451477,
        "3": -1.5133846998214722
      },
      {
        "0": -0.10176025331020355,
        "1": -0.12008080631494522,
        "2": -1.4017490148544312,
        "3": -1.5717840194702148
      },
      {
        "0": -0.10802356898784637,
        "1": -0.1085083857178688,
        "2": -1.3120437860488892,
        "3": -1.4912019968032837
      },
      {
        "0": -0.1234908401966095,
        "1": -0.1088317409157753,
        "2": -1.5737358331680298,
        "3": -1.301470398902893
      },
      {
        "0": -0.10335585474967957,
        "1": -0.11922086775302887,
        "2": -1.347007155418396,
        "3": -1.4650545120239258
      },
      {
        "0": -0.09769026190042496,
        "1": -0.10571733862161636,
        "2": -1.344565987586975,
        "3": -1.7266559600830078
      },
      {
        "0": -0.10567885637283325,
        "1": -0.10825662314891815,
        "2": -1.3626976013183594,
        "3": -1.450962781906128
      },
      {
        "0": -0.1087053045630455,
        "1": -0.1049426719546318,
        "2": -1.5471159219741821,
        "3": -1.6429027318954468
      },
      {
        "0": -0.11519604921340942,
        "1": -0.0979866161942482,
        "2": -1.5400683879852295,
        "3": -1.3847723007202148
      },
      {
        "0": -0.1108943372964859,
        "1": -0.10234259068965912,
        "2": -1.707829475402832,
        "3": -1.9080184698104858
      },
      {
        "0": -0.1025320515036583,
        "1": -0.10655331611633301,
        "2": -1.4699773788452148,
        "3": -1.234417200088501
      },
      {
        "0": -0.10843908786773682,
        "1": -0.10389039665460587,
        "2": -1.2702847719192505,
        "3": -1.451959252357483
      },
      {
        "0": -0.09982519596815109,
        "1": -0.10274037718772888,
        "2": -2.02351713180542,
        "3": -1.4968303442001343
      }
    ],
    "agent_mu_history": [
      {
        "0": 0.0,
        "1": 0.0,
        "2": 0.0,
        "3": 0.0
      },
      {
        "0": 0.0,
        "1": 0.0,
        "2": 0.0,
        "3": 0.0
      },
      {
        "0": 0.0,
        "1": 0.0,
        "2": 0.0,
        "3": 0.0
      },
      {
        "0": 0.0,
        "1": 0.0,
        "2": 0.0,
        "3": 0.0
      },
      {
        "0": 0.0,
        "1": 0.0,
        "2": 0.0,
        "3": 0.0
      },
      {
        "0": 0.0,
        "1": 0.0,
        "2": 0.0,
        "3": 0.0
      },
      {
        "0": 0.0,
        "1": 0.0,
        "2": 0.0,
        "3": 0.0
      },
      {
        "0": 0.0,
        "1": 0.0,
        "2": 0.0,
        "3": 0.0
      },
      {
        "0": 0.0,
        "1": 0.0,
        "2": 0.0,
        "3": 0.0
      },
      {
        "0": 0.0,
        "1": 0.0,
        "2": 0.0,
        "3": 0.0
      },
      {
        "0": 0.0,
        "1": 0.0,
        "2": 0.0,
        "3": 0.0
      },
      {
        "0": 0.0,
        "1": 0.0,
        "2": 0.0,
        "3": 0.0
      },
      {
        "0": 0.0,
        "1": 0.0,
        "2": 0.0,
        "3": 0.0
      },
      {
        "0": 0.0,
        "1": 0.0,
        "2": 0.0,
        "3": 0.0
      },
      {
        "0": 0.0,
        "1": 0.0,
        "2": 0.0,
        "3": 0.0
      },
      {
        "0": 0.0,
        "1": 0.0,
        "2": 0.0,
        "3": 0.0
      },
      {
        "0": 0.0,
        "1": 0.0,
        "2": 0.0,
        "3": 0.0
      },
      {
        "0": 0.0,
        "1": 0.0,
        "2": 0.0,
        "3": 0.0
      },
      {
        "0": 0.0,
        "1": 0.0,
        "2": 0.0,
        "3": 0.0
      },
      {
        "0": 0.0,
        "1": 0.0,
        "2": 0.0,
        "3": 0.0
      },
      {
        "0": 0.0,
        "1": 0.0,
        "2": 0.0,
        "3": 0.0
      },
      {
        "0": 0.0,
        "1": 0.0,
        "2": 0.0,
        "3": 0.0
      },
      {
        "0": 0.0,
        "1": 0.0,
        "2": 0.0,
        "3": 0.0
      },
      {
        "0": 0.0,
        "1": 0.0,
        "2": 0.0,
        "3": 0.0
      },
      {
        "0": 0.0,
        "1": 0.0,
        "2": 0.0,
        "3": 0.0
      },
      {
        "0": 0.0,
        "1": 0.0,
        "2": 0.0,
        "3": 0.0
      },
      {
        "0": 0.0,
        "1": 0.0,
        "2": 0.0,
        "3": 0.0
      },
      {
        "0": 0.0,
        "1": 0.0,
        "2": 0.0,
        "3": 0.0
      },
      {
        "0": 0.0,
        "1": 0.0,
        "2": 0.0,
        "3": 0.0
      },
      {
        "0": 0.0,
        "1": 0.0,
        "2": 0.0,
        "3": 0.0
      },
      {
        "0": 0.0,
        "1": 0.0,
        "2": 0.0,
        "3": 0.0
      },
      {
        "0": 0.0,
        "1": 0.0,
        "2": 0.0,
        "3": 0.0
      },
      {
        "0": 0.0,
        "1": 0.0,
        "2": 0.0,
        "3": 0.0
      },
      {
        "0": 0.0,
        "1": 0.0,
        "2": 0.0,
        "3": 0.0
      },
      {
        "0": 0.0,
        "1": 0.0,
        "2": 0.0,
        "3": 0.0
      },
      {
        "0": 0.0,
        "1": 0.0,
        "2": 0.0,
        "3": 0.0
      },
      {
        "0": 0.0,
        "1": 0.0,
        "2": 0.0,
        "3": 0.0
      },
      {
        "0": 0.0,
        "1": 0.0,
        "2": 0.0,
        "3": 0.0
      },
      {
        "0": 0.0,
        "1": 0.0,
        "2": 0.0,
        "3": 0.0
      },
      {
        "0": 0.0,
        "1": 0.0,
        "2": 0.0,
        "3": 0.0
      }
    ],
    "agent_noisy_clients": [
      2,
      3
    ],
    "agent_probe_heldout": true,
    "agent_adaptive_mu": false,
    "eval": {
      "threshold": 0.5,
      "micro_f1": 0.6888614878750514,
      "macro_f1_present": 0.23000620353479792,
      "best_threshold": 0.3,
      "best_micro_f1": 0.6589810338415768,
      "best_macro_f1_present": 0.2384586353958998,
      "macro_ap": 0.2663042046792261,
      "macro_auroc": 0.7812136986942531
    }
  }
}
