{
  "name": "het04_muonly_s0",
  "config": {
    "method": "agent_fed",
    "backbone": "retfound_mae_vit_large",
    "seed": 0,
    "epochs": 20,
    "rounds": 40,
    "local_epochs": 1,
    "batch_size": 16,
    "lr": 0.001,
    "fedprox_mu": 0.0,
    "loss": "balanced_bce",
    "positive_dropout": 0.0,
    "train_label_noise": 0.0,
    "image_size": [
      224,
      224
    ],
    "device": "cuda",
    "lora_rank": 8,
    "lora_alpha": 16.0,
    "require_retfound": true,
    "num_workers": 8,
    "pin_memory": true,
    "persistent_workers": true,
    "use_data_parallel": true,
    "agent_aggregation": "size",
    "agent_tau": 0.03,
    "agent_geometry": false,
    "agent_noisy_clients": [
      2,
      3
    ],
    "agent_client_noise": 0.4,
    "agent_adaptive_mu": true,
    "agent_mu_max": 0.1,
    "agent_mu_tau": 0.05
  },
  "result": {
    "config": {
      "method": "agent_fed",
      "backbone": "retfound_mae_vit_large",
      "seed": 0,
      "epochs": 20,
      "rounds": 40,
      "local_epochs": 1,
      "batch_size": 16,
      "lr": 0.001,
      "fedprox_mu": 0.0,
      "loss": "balanced_bce",
      "positive_dropout": 0.0,
      "train_label_noise": 0.0,
      "image_size": [
        224,
        224
      ],
      "device": "cuda",
      "lora_rank": 8,
      "lora_alpha": 16.0,
      "require_retfound": true,
      "num_workers": 8,
      "pin_memory": true,
      "persistent_workers": true,
      "use_data_parallel": true,
      "agent_aggregation": "size",
      "agent_tau": 0.03,
      "agent_geometry": false,
      "agent_noisy_clients": [
        2,
        3
      ],
      "agent_client_noise": 0.4,
      "agent_adaptive_mu": true,
      "agent_mu_max": 0.1,
      "agent_mu_tau": 0.05
    },
    "model_info": {
      "requested_backbone": "retfound_mae_vit_large",
      "actual_backbone": "retfound_mae_vit_large",
      "is_retfound": true,
      "checkpoint_path": "/mnt/bn/feed-quality-issues/gushiyu/projects/fl-agent/weights/RETFound_mae_natureCFP.pth",
      "lora_rank": 8,
      "lora_alpha": 16.0,
      "trainable_params": 1226798,
      "total_params": 304528430
    },
    "train_loss": [
      1.4422710145513218,
      1.6331602734824022,
      1.7796416521072387,
      1.7580254413187504,
      1.5937867393096288,
      1.7639663733541966,
      1.7432739734649658,
      1.424010039617618,
      1.8260147046297788,
      1.2730723397185406,
      2.48837449029088,
      1.3096363524595898,
      2.3949914760887623,
      1.3262468071033557,
      2.2063820278892914,
      1.351280231649677,
      2.0113527971009413,
      1.3782341447969277,
      2.0349984248479207,
      1.4102846714357535,
      2.107836841667692,
      1.3125998714317877,
      2.273366004476945,
      1.3453507990886768,
      2.0148746486753226,
      1.3880028557032347,
      2.007623092706005,
      1.3362974566717942,
      2.0600147202610968,
      1.351745424171289,
      1.770561357960105,
      1.3993867681672176,
      1.9628348027666411,
      1.3449779068430265,
      1.8993469034632047,
      1.2827394684155782,
      2.144903903702895,
      1.3064665619283917,
      1.9384875722229482,
      1.3142806542416414
    ],
    "comm_bytes_upload_per_round": [
      19628768,
      19628768,
      19628768,
      19628768,
      19628768,
      19628768,
      19628768,
      19628768,
      19628768,
      19628768,
      19628768,
      19628768,
      19628768,
      19628768,
      19628768,
      19628768,
      19628768,
      19628768,
      19628768,
      19628768,
      19628768,
      19628768,
      19628768,
      19628768,
      19628768,
      19628768,
      19628768,
      19628768,
      19628768,
      19628768,
      19628768,
      19628768,
      19628768,
      19628768,
      19628768,
      19628768,
      19628768,
      19628768,
      19628768,
      19628768
    ],
    "total_upload_bytes": 785150720,
    "agent_weight_history": [
      {
        "0": 480.0,
        "1": 480.0,
        "2": 480.0,
        "3": 480.0
      },
      {
        "0": 480.0,
        "1": 480.0,
        "2": 480.0,
        "3": 480.0
      },
      {
        "0": 480.0,
        "1": 480.0,
        "2": 480.0,
        "3": 480.0
      },
      {
        "0": 480.0,
        "1": 480.0,
        "2": 480.0,
        "3": 480.0
      },
      {
        "0": 480.0,
        "1": 480.0,
        "2": 480.0,
        "3": 480.0
      },
      {
        "0": 480.0,
        "1": 480.0,
        "2": 480.0,
        "3": 480.0
      },
      {
        "0": 480.0,
        "1": 480.0,
        "2": 480.0,
        "3": 480.0
      },
      {
        "0": 480.0,
        "1": 480.0,
        "2": 480.0,
        "3": 480.0
      },
      {
        "0": 480.0,
        "1": 480.0,
        "2": 480.0,
        "3": 480.0
      },
      {
        "0": 480.0,
        "1": 480.0,
        "2": 480.0,
        "3": 480.0
      },
      {
        "0": 480.0,
        "1": 480.0,
        "2": 480.0,
        "3": 480.0
      },
      {
        "0": 480.0,
        "1": 480.0,
        "2": 480.0,
        "3": 480.0
      },
      {
        "0": 480.0,
        "1": 480.0,
        "2": 480.0,
        "3": 480.0
      },
      {
        "0": 480.0,
        "1": 480.0,
        "2": 480.0,
        "3": 480.0
      },
      {
        "0": 480.0,
        "1": 480.0,
        "2": 480.0,
        "3": 480.0
      },
      {
        "0": 480.0,
        "1": 480.0,
        "2": 480.0,
        "3": 480.0
      },
      {
        "0": 480.0,
        "1": 480.0,
        "2": 480.0,
        "3": 480.0
      },
      {
        "0": 480.0,
        "1": 480.0,
        "2": 480.0,
        "3": 480.0
      },
      {
        "0": 480.0,
        "1": 480.0,
        "2": 480.0,
        "3": 480.0
      },
      {
        "0": 480.0,
        "1": 480.0,
        "2": 480.0,
        "3": 480.0
      },
      {
        "0": 480.0,
        "1": 480.0,
        "2": 480.0,
        "3": 480.0
      },
      {
        "0": 480.0,
        "1": 480.0,
        "2": 480.0,
        "3": 480.0
      },
      {
        "0": 480.0,
        "1": 480.0,
        "2": 480.0,
        "3": 480.0
      },
      {
        "0": 480.0,
        "1": 480.0,
        "2": 480.0,
        "3": 480.0
      },
      {
        "0": 480.0,
        "1": 480.0,
        "2": 480.0,
        "3": 480.0
      },
      {
        "0": 480.0,
        "1": 480.0,
        "2": 480.0,
        "3": 480.0
      },
      {
        "0": 480.0,
        "1": 480.0,
        "2": 480.0,
        "3": 480.0
      },
      {
        "0": 480.0,
        "1": 480.0,
        "2": 480.0,
        "3": 480.0
      },
      {
        "0": 480.0,
        "1": 480.0,
        "2": 480.0,
        "3": 480.0
      },
      {
        "0": 480.0,
        "1": 480.0,
        "2": 480.0,
        "3": 480.0
      },
      {
        "0": 480.0,
        "1": 480.0,
        "2": 480.0,
        "3": 480.0
      },
      {
        "0": 480.0,
        "1": 480.0,
        "2": 480.0,
        "3": 480.0
      },
      {
        "0": 480.0,
        "1": 480.0,
        "2": 480.0,
        "3": 480.0
      },
      {
        "0": 480.0,
        "1": 480.0,
        "2": 480.0,
        "3": 480.0
      },
      {
        "0": 480.0,
        "1": 480.0,
        "2": 480.0,
        "3": 480.0
      },
      {
        "0": 480.0,
        "1": 480.0,
        "2": 480.0,
        "3": 480.0
      },
      {
        "0": 480.0,
        "1": 480.0,
        "2": 480.0,
        "3": 480.0
      },
      {
        "0": 480.0,
        "1": 480.0,
        "2": 480.0,
        "3": 480.0
      },
      {
        "0": 480.0,
        "1": 480.0,
        "2": 480.0,
        "3": 480.0
      },
      {
        "0": 480.0,
        "1": 480.0,
        "2": 480.0,
        "3": 480.0
      }
    ],
    "agent_probe_history": [
      {
        "0": -0.231118842959404,
        "1": -0.27104800939559937,
        "2": -2.4336588382720947,
        "3": -2.393765926361084
      },
      {
        "0": -0.2669195830821991,
        "1": -0.21118469536304474,
        "2": -2.4911038875579834,
        "3": -2.53633451461792
      },
      {
        "0": -0.2606036067008972,
        "1": -0.2577235996723175,
        "2": -2.4183168411254883,
        "3": -2.5727486610412598
      },
      {
        "0": -0.23040372133255005,
        "1": -0.20755259692668915,
        "2": -2.373098850250244,
        "3": -2.368753671646118
      },
      {
        "0": -0.25080758333206177,
        "1": -0.24505862593650818,
        "2": -2.2619118690490723,
        "3": -2.2515697479248047
      },
      {
        "0": -0.21485602855682373,
        "1": -0.23477616906166077,
        "2": -2.376744031906128,
        "3": -2.352463960647583
      },
      {
        "0": -0.21128027141094208,
        "1": -0.17801903188228607,
        "2": -2.367701530456543,
        "3": -2.4044363498687744
      },
      {
        "0": -0.24210625886917114,
        "1": -0.20354922115802765,
        "2": -2.4133799076080322,
        "3": -2.237220287322998
      },
      {
        "0": -0.26028555631637573,
        "1": -0.1981077641248703,
        "2": -2.348761558532715,
        "3": -2.3186025619506836
      },
      {
        "0": -0.18284960091114044,
        "1": -0.22619189321994781,
        "2": -2.2698099613189697,
        "3": -2.456354856491089
      },
      {
        "0": -0.21971678733825684,
        "1": -0.17178411781787872,
        "2": -2.3549325466156006,
        "3": -2.436389207839966
      },
      {
        "0": -0.21066823601722717,
        "1": -0.1966850459575653,
        "2": -2.318758487701416,
        "3": -2.2969236373901367
      },
      {
        "0": -0.24892422556877136,
        "1": -0.23111586272716522,
        "2": -2.223813772201538,
        "3": -2.3259060382843018
      },
      {
        "0": -0.19914014637470245,
        "1": -0.19718751311302185,
        "2": -2.4698569774627686,
        "3": -2.3413796424865723
      },
      {
        "0": -0.20430955290794373,
        "1": -0.1841535121202469,
        "2": -2.490037202835083,
        "3": -2.56768536567688
      },
      {
        "0": -0.15808285772800446,
        "1": -0.15844006836414337,
        "2": -2.282914400100708,
        "3": -2.1883833408355713
      },
      {
        "0": -0.22584307193756104,
        "1": -0.16156871616840363,
        "2": -2.477957248687744,
        "3": -2.4491546154022217
      },
      {
        "0": -0.1928393393754959,
        "1": -0.19645529985427856,
        "2": -2.2751057147979736,
        "3": -2.288141965866089
      },
      {
        "0": -0.19156648218631744,
        "1": -0.1814715564250946,
        "2": -2.4280166625976562,
        "3": -2.3589963912963867
      },
      {
        "0": -0.16525857150554657,
        "1": -0.19343820214271545,
        "2": -2.3052713871002197,
        "3": -2.3714163303375244
      },
      {
        "0": -0.17345689237117767,
        "1": -0.20199227333068848,
        "2": -2.4791347980499268,
        "3": -2.478722333908081
      },
      {
        "0": -0.16148191690444946,
        "1": -0.180743008852005,
        "2": -2.2067489624023438,
        "3": -2.259992837905884
      },
      {
        "0": -0.197231724858284,
        "1": -0.1583700329065323,
        "2": -2.6361865997314453,
        "3": -2.4013009071350098
      },
      {
        "0": -0.16938090324401855,
        "1": -0.21165910363197327,
        "2": -2.3730499744415283,
        "3": -2.3715062141418457
      },
      {
        "0": -0.190805122256279,
        "1": -0.18282067775726318,
        "2": -2.405458688735962,
        "3": -2.4221248626708984
      },
      {
        "0": -0.14449016749858856,
        "1": -0.1721288114786148,
        "2": -2.410264253616333,
        "3": -2.4520676136016846
      },
      {
        "0": -0.16741834580898285,
        "1": -0.1751869171857834,
        "2": -2.6376819610595703,
        "3": -2.325174570083618
      },
      {
        "0": -0.19343627989292145,
        "1": -0.15799841284751892,
        "2": -2.480879306793213,
        "3": -2.265796661376953
      },
      {
        "0": -0.161188006401062,
        "1": -0.18792754411697388,
        "2": -2.5055713653564453,
        "3": -2.3379013538360596
      },
      {
        "0": -0.16022934019565582,
        "1": -0.15623752772808075,
        "2": -2.3764615058898926,
        "3": -2.4520461559295654
      },
      {
        "0": -0.1781270056962967,
        "1": -0.14812521636486053,
        "2": -2.487679958343506,
        "3": -2.3981597423553467
      },
      {
        "0": -0.1799260526895523,
        "1": -0.1444135159254074,
        "2": -2.335409641265869,
        "3": -2.359586715698242
      },
      {
        "0": -0.14477314054965973,
        "1": -0.16683097183704376,
        "2": -2.397268295288086,
        "3": -2.589050769805908
      },
      {
        "0": -0.1618438959121704,
        "1": -0.16188889741897583,
        "2": -2.314797878265381,
        "3": -2.321894645690918
      },
      {
        "0": -0.19682033360004425,
        "1": -0.14971071481704712,
        "2": -2.4276790618896484,
        "3": -2.1985371112823486
      },
      {
        "0": -0.14082445204257965,
        "1": -0.1392616331577301,
        "2": -2.299325942993164,
        "3": -2.4160850048065186
      },
      {
        "0": -0.16007116436958313,
        "1": -0.1815626323223114,
        "2": -2.48635196685791,
        "3": -2.4137308597564697
      },
      {
        "0": -0.1527343988418579,
        "1": -0.13823482394218445,
        "2": -2.50069260597229,
        "3": -2.3063204288482666
      },
      {
        "0": -0.17032162845134735,
        "1": -0.14077714085578918,
        "2": -2.1601431369781494,
        "3": -2.344356060028076
      },
      {
        "0": -0.13822664320468903,
        "1": -0.15231220424175262,
        "2": -2.3295233249664307,
        "3": -2.5258209705352783
      }
    ],
    "agent_mu_history": [
      {
        "0": 0.0,
        "1": 0.0,
        "2": 0.0,
        "3": 0.0
      },
      {
        "0": 0.0,
        "1": 0.0,
        "2": 0.1,
        "3": 0.1
      },
      {
        "0": 0.0,
        "1": 0.0,
        "2": 0.1,
        "3": 0.1
      },
      {
        "0": 0.0,
        "1": 0.0,
        "2": 0.1,
        "3": 0.1
      },
      {
        "0": 0.0,
        "1": 0.0,
        "2": 0.1,
        "3": 0.1
      },
      {
        "0": 0.0,
        "1": 0.0,
        "2": 0.1,
        "3": 0.1
      },
      {
        "0": 0.0,
        "1": 0.0,
        "2": 0.1,
        "3": 0.1
      },
      {
        "0": 0.0,
        "1": 0.0,
        "2": 0.1,
        "3": 0.1
      },
      {
        "0": 0.0,
        "1": 0.0,
        "2": 0.1,
        "3": 0.1
      },
      {
        "0": 0.0,
        "1": 0.0,
        "2": 0.1,
        "3": 0.1
      },
      {
        "0": 0.0,
        "1": 0.0,
        "2": 0.1,
        "3": 0.1
      },
      {
        "0": 0.0,
        "1": 0.0,
        "2": 0.1,
        "3": 0.1
      },
      {
        "0": 0.0,
        "1": 0.0,
        "2": 0.1,
        "3": 0.1
      },
      {
        "0": 0.0,
        "1": 0.0,
        "2": 0.1,
        "3": 0.1
      },
      {
        "0": 0.0,
        "1": 0.0,
        "2": 0.1,
        "3": 0.1
      },
      {
        "0": 0.0,
        "1": 0.0,
        "2": 0.1,
        "3": 0.1
      },
      {
        "0": 0.0,
        "1": 0.0,
        "2": 0.1,
        "3": 0.1
      },
      {
        "0": 0.0,
        "1": 0.0,
        "2": 0.1,
        "3": 0.1
      },
      {
        "0": 0.0,
        "1": 0.0,
        "2": 0.1,
        "3": 0.1
      },
      {
        "0": 0.0,
        "1": 0.0,
        "2": 0.1,
        "3": 0.1
      },
      {
        "0": 0.0,
        "1": 0.0,
        "2": 0.1,
        "3": 0.1
      },
      {
        "0": 0.0,
        "1": 0.0,
        "2": 0.1,
        "3": 0.1
      },
      {
        "0": 0.0,
        "1": 0.0,
        "2": 0.1,
        "3": 0.1
      },
      {
        "0": 0.0,
        "1": 0.0,
        "2": 0.1,
        "3": 0.1
      },
      {
        "0": 0.0,
        "1": 0.0,
        "2": 0.1,
        "3": 0.1
      },
      {
        "0": 0.0,
        "1": 0.0,
        "2": 0.1,
        "3": 0.1
      },
      {
        "0": 0.0,
        "1": 0.0,
        "2": 0.1,
        "3": 0.1
      },
      {
        "0": 0.0,
        "1": 0.0,
        "2": 0.1,
        "3": 0.1
      },
      {
        "0": 0.0,
        "1": 0.0,
        "2": 0.1,
        "3": 0.1
      },
      {
        "0": 0.0,
        "1": 0.0,
        "2": 0.1,
        "3": 0.1
      },
      {
        "0": 0.0,
        "1": 0.0,
        "2": 0.1,
        "3": 0.1
      },
      {
        "0": 0.0,
        "1": 0.0,
        "2": 0.1,
        "3": 0.1
      },
      {
        "0": 0.0,
        "1": 0.0,
        "2": 0.1,
        "3": 0.1
      },
      {
        "0": 0.0,
        "1": 0.0,
        "2": 0.1,
        "3": 0.1
      },
      {
        "0": 0.0,
        "1": 0.0,
        "2": 0.1,
        "3": 0.1
      },
      {
        "0": 0.0,
        "1": 0.0,
        "2": 0.1,
        "3": 0.1
      },
      {
        "0": 0.0,
        "1": 0.0,
        "2": 0.1,
        "3": 0.1
      },
      {
        "0": 0.0,
        "1": 0.0,
        "2": 0.1,
        "3": 0.1
      },
      {
        "0": 0.0,
        "1": 0.0,
        "2": 0.1,
        "3": 0.1
      },
      {
        "0": 0.0,
        "1": 0.0,
        "2": 0.1,
        "3": 0.1
      }
    ],
    "agent_noisy_clients": [
      2,
      3
    ],
    "agent_probe_heldout": true,
    "agent_adaptive_mu": true,
    "eval": {
      "threshold": 0.5,
      "micro_f1": 0.3070636310566258,
      "macro_f1_present": 0.13711020494349682,
      "best_threshold": 0.75,
      "best_micro_f1": 0.47902805901070294,
      "best_macro_f1_present": 0.17585260650934476,
      "macro_ap": 0.2286510563488709,
      "macro_auroc": 0.7668991534689081
    }
  }
}
