{
  "name": "het04_agent_s0",
  "config": {
    "method": "agent_fed",
    "backbone": "retfound_mae_vit_large",
    "seed": 0,
    "epochs": 20,
    "rounds": 40,
    "local_epochs": 1,
    "batch_size": 8,
    "lr": 0.001,
    "fedprox_mu": 0.0,
    "loss": "balanced_bce",
    "positive_dropout": 0.0,
    "train_label_noise": 0.0,
    "image_size": [
      224,
      224
    ],
    "device": "cuda",
    "lora_rank": 8,
    "lora_alpha": 16.0,
    "require_retfound": true,
    "num_workers": 8,
    "pin_memory": true,
    "persistent_workers": true,
    "use_data_parallel": false,
    "agent_aggregation": "agent",
    "agent_tau": 0.03,
    "agent_geometry": false,
    "agent_noisy_clients": [
      2,
      3
    ],
    "agent_client_noise": 0.4,
    "agent_adaptive_mu": false,
    "agent_mu_max": 0.1,
    "agent_mu_tau": 0.05
  },
  "result": {
    "config": {
      "method": "agent_fed",
      "backbone": "retfound_mae_vit_large",
      "seed": 0,
      "epochs": 20,
      "rounds": 40,
      "local_epochs": 1,
      "batch_size": 8,
      "lr": 0.001,
      "fedprox_mu": 0.0,
      "loss": "balanced_bce",
      "positive_dropout": 0.0,
      "train_label_noise": 0.0,
      "image_size": [
        224,
        224
      ],
      "device": "cuda",
      "lora_rank": 8,
      "lora_alpha": 16.0,
      "require_retfound": true,
      "num_workers": 8,
      "pin_memory": true,
      "persistent_workers": true,
      "use_data_parallel": false,
      "agent_aggregation": "agent",
      "agent_tau": 0.03,
      "agent_geometry": false,
      "agent_noisy_clients": [
        2,
        3
      ],
      "agent_client_noise": 0.4,
      "agent_adaptive_mu": false,
      "agent_mu_max": 0.1,
      "agent_mu_tau": 0.05
    },
    "model_info": {
      "requested_backbone": "retfound_mae_vit_large",
      "actual_backbone": "retfound_mae_vit_large",
      "is_retfound": true,
      "checkpoint_path": "/home/tiger/.cache/huggingface/hub/models--YukunZhou--RETFound_mae_natureCFP/snapshots/556830f78214f0e8da35af965292ac5a3180ac47/RETFound_mae_natureCFP.pth",
      "lora_rank": 8,
      "lora_alpha": 16.0,
      "trainable_params": 1226798,
      "total_params": 304528430
    },
    "train_loss": [
      1.2868845169742902,
      1.8653522046282887,
      1.6034022537370523,
      1.6211598414927721,
      1.774976848376294,
      1.6534056898827354,
      1.7566698958165943,
      1.8186789552681148,
      1.8508017726863424,
      1.6722588122822346,
      1.9977708862473567,
      1.6807802102528513,
      1.8312040939616658,
      1.9798997106341023,
      2.013974401727319,
      2.0093599420661725,
      2.081069009766604,
      1.9572720998587707,
      2.1363272006933887,
      2.1465945295368636,
      1.9873862376126152,
      2.2371777017600833,
      2.1949583950452505,
      2.1533777077759924,
      2.3714686379690346,
      1.9684413694621374,
      2.3664448331013164,
      2.2955835956847297,
      2.4782460088880423,
      2.742714536135706,
      2.335396811653239,
      2.277106738765724,
      2.1197568898360863,
      2.384023278825528,
      2.257813438142572,
      2.23297220459984,
      2.429596383793978,
      2.5413080137727473,
      2.4187807786045594,
      2.5160990010170887
    ],
    "comm_bytes_upload_per_round": [
      19628768,
      19628768,
      19628768,
      19628768,
      19628768,
      19628768,
      19628768,
      19628768,
      19628768,
      19628768,
      19628768,
      19628768,
      19628768,
      19628768,
      19628768,
      19628768,
      19628768,
      19628768,
      19628768,
      19628768,
      19628768,
      19628768,
      19628768,
      19628768,
      19628768,
      19628768,
      19628768,
      19628768,
      19628768,
      19628768,
      19628768,
      19628768,
      19628768,
      19628768,
      19628768,
      19628768,
      19628768,
      19628768,
      19628768,
      19628768
    ],
    "total_upload_bytes": 785150720,
    "agent_weight_history": [
      {
        "0": 0.49999999999999983,
        "1": 0.5000000000000001,
        "2": 1.73311844282432e-16,
        "3": 9.457904870887984e-20
      },
      {
        "0": 0.4999999999999986,
        "1": 0.49999999999999994,
        "2": 2.051112876138698e-17,
        "3": 1.4587312223098424e-15
      },
      {
        "0": 0.49999999999999667,
        "1": 0.4999999999999987,
        "2": 4.634183574853016e-15,
        "3": 2.5751028310983313e-17
      },
      {
        "0": 0.4999999999999995,
        "1": 0.4999999999999993,
        "2": 1.0384569075715732e-15,
        "3": 1.5313437380618064e-16
      },
      {
        "0": 0.4999999999999998,
        "1": 0.49999999999999967,
        "2": 2.6117375323300657e-16,
        "3": 3.644711493074033e-16
      },
      {
        "0": 0.5,
        "1": 0.5,
        "2": 2.1800314080436104e-19,
        "3": 3.455557318760116e-17
      },
      {
        "0": 0.499999999999998,
        "1": 0.4999999999999994,
        "2": 7.795764631472444e-20,
        "3": 2.6387351960204954e-15
      },
      {
        "0": 0.4999999999999989,
        "1": 0.4999999999999955,
        "2": 3.0136250618481263e-23,
        "3": 5.633672916498018e-15
      },
      {
        "0": 0.49999999999999983,
        "1": 0.4999999999999977,
        "2": 2.5453671706986995e-15,
        "3": 3.805999139252777e-17
      },
      {
        "0": 0.4999999999999996,
        "1": 0.49999999999999944,
        "2": 9.07979228976233e-16,
        "3": 2.1904067194323314e-18
      },
      {
        "0": 0.49999999999999994,
        "1": 0.49999999999999994,
        "2": 2.4940006921665496e-20,
        "3": 1.3530162130023573e-16
      },
      {
        "0": 0.49999999999999983,
        "1": 0.49999999999999994,
        "2": 1.8457092427872797e-16,
        "3": 1.423576244700373e-17
      },
      {
        "0": 0.5,
        "1": 0.5,
        "2": 2.1246279146178428e-17,
        "3": 3.9294761193849503e-19
      },
      {
        "0": 0.5,
        "1": 0.4999999999999999,
        "2": 5.092641499686566e-17,
        "3": 1.7268726415046546e-16
      },
      {
        "0": 0.5,
        "1": 0.5,
        "2": 8.566516985228531e-20,
        "3": 1.200938396417359e-17
      },
      {
        "0": 0.49999999999999994,
        "1": 0.49999999999999994,
        "2": 1.0384025406670396e-16,
        "3": 4.328584711961888e-17
      },
      {
        "0": 0.5,
        "1": 0.5,
        "2": 2.4811089234465716e-17,
        "3": 2.1118630185442035e-19
      },
      {
        "0": 0.4999999999999999,
        "1": 0.5,
        "2": 5.949665355319343e-17,
        "3": 2.5571163807791788e-17
      },
      {
        "0": 0.4999999999999996,
        "1": 0.4999999999999999,
        "2": 2.65063754240574e-22,
        "3": 5.19828321668004e-16
      },
      {
        "0": 0.49999999999999983,
        "1": 0.49999999999999994,
        "2": 1.9606672431116444e-16,
        "3": 4.449196814985752e-17
      },
      {
        "0": 0.49999999999999994,
        "1": 0.49999999999999994,
        "2": 2.2578395227771097e-21,
        "3": 1.5072258598388006e-16
      },
      {
        "0": 0.5,
        "1": 0.5,
        "2": 8.0258797341475e-18,
        "3": 6.912819881656186e-20
      },
      {
        "0": 0.5,
        "1": 0.5,
        "2": 5.935037807710676e-19,
        "3": 3.5090840356941105e-17
      },
      {
        "0": 0.4999999999999991,
        "1": 0.4999999999999994,
        "2": 1.4960504438369118e-15,
        "3": 1.2660125090722876e-19
      },
      {
        "0": 0.5,
        "1": 0.4999999999999998,
        "2": 2.6690158925922304e-16,
        "3": 8.747051283422106e-20
      },
      {
        "0": 0.5,
        "1": 0.5,
        "2": 7.767315353734648e-20,
        "3": 5.8471598447144336e-18
      },
      {
        "0": 0.49999999999999994,
        "1": 0.49999999999999994,
        "2": 1.0398995099496437e-16,
        "3": 2.3811491002747003e-21
      },
      {
        "0": 0.49999999999999983,
        "1": 0.49999999999999983,
        "2": 1.2375962048813595e-20,
        "3": 3.015050178510683e-16
      },
      {
        "0": 0.4999999999999998,
        "1": 0.4999999999999998,
        "2": 2.1108548945828894e-16,
        "3": 2.4086672996359876e-16
      },
      {
        "0": 0.5,
        "1": 0.5,
        "2": 4.065493359569019e-18,
        "3": 1.144440029946125e-24
      },
      {
        "0": 0.5,
        "1": 0.5,
        "2": 1.0247841951326628e-18,
        "3": 5.537261838891103e-18
      },
      {
        "0": 0.5,
        "1": 0.5,
        "2": 2.349867360533533e-18,
        "3": 3.967297092340757e-18
      },
      {
        "0": 0.4999999999999995,
        "1": 0.4999999999999998,
        "2": 7.421526125256934e-16,
        "3": 2.459061099884379e-18
      },
      {
        "0": 0.4999999999999988,
        "1": 0.4999999999999983,
        "2": 3.006770756702567e-15,
        "3": 4.69418556517898e-29
      },
      {
        "0": 0.49999999999999994,
        "1": 0.49999999999999994,
        "2": 1.2342790872703648e-16,
        "3": 2.9595178779266057e-18
      },
      {
        "0": 0.49999999999992933,
        "1": 0.4999999999999067,
        "2": 1.638557627326722e-13,
        "3": 2.966072088466019e-20
      },
      {
        "0": 0.5,
        "1": 0.5,
        "2": 1.7029636942736438e-25,
        "3": 3.191178570195371e-22
      },
      {
        "0": 0.4999999999999994,
        "1": 0.4999999999999991,
        "2": 1.4466760509180596e-17,
        "3": 1.5656113625547832e-15
      },
      {
        "0": 0.5,
        "1": 0.5,
        "2": 1.0711168249982093e-18,
        "3": 1.1633850087427222e-20
      },
      {
        "0": 0.5,
        "1": 0.5,
        "2": 6.008586346043705e-20,
        "3": 1.457812908437315e-17
      }
    ],
    "agent_probe_history": [
      {
        "0": -0.2676292657852173,
        "1": -0.22131980955600739,
        "2": -2.403526782989502,
        "3": -2.6289291381835938
      },
      {
        "0": -0.2988167703151703,
        "1": -0.21678458154201508,
        "2": -2.434831142425537,
        "3": -2.3069005012512207
      },
      {
        "0": -0.25088509917259216,
        "1": -0.2339882105588913,
        "2": -2.189615249633789,
        "3": -2.345397472381592
      },
      {
        "0": -0.1695157289505005,
        "1": -0.17712236940860748,
        "2": -2.2055959701538086,
        "3": -2.263021230697632
      },
      {
        "0": -0.20855861902236938,
        "1": -0.22624608874320984,
        "2": -2.327540159225464,
        "3": -2.317542314529419
      },
      {
        "0": -0.18990960717201233,
        "1": -0.15815605223178864,
        "2": -2.574532985687256,
        "3": -2.422558546066284
      },
      {
        "0": -0.17117558419704437,
        "1": -0.1480620801448822,
        "2": -2.4565846920013428,
        "3": -2.14369535446167
      },
      {
        "0": -0.14557048678398132,
        "1": -0.1719900667667389,
        "2": -2.670391082763672,
        "3": -2.0990021228790283
      },
      {
        "0": -0.14555339515209198,
        "1": -0.19984304904937744,
        "2": -2.1745243072509766,
        "3": -2.300610303878784
      },
      {
        "0": -0.13925811648368835,
        "1": -0.1447618007659912,
        "2": -2.1812915802001953,
        "3": -2.36210560798645
      },
      {
        "0": -0.16315634548664093,
        "1": -0.18459521234035492,
        "2": -2.5933115482330322,
        "3": -2.335347890853882
      },
      {
        "0": -0.15421681106090546,
        "1": -0.14642001688480377,
        "2": -2.2863378524780273,
        "3": -2.363206148147583
      },
      {
        "0": -0.17355306446552277,
        "1": -0.14746889472007751,
        "2": -2.435385227203369,
        "3": -2.5550930500030518
      },
      {
        "0": -0.12454184144735336,
        "1": -0.13666342198848724,
        "2": -2.309410572052002,
        "3": -2.272777557373047
      },
      {
        "0": -0.15099047124385834,
        "1": -0.13859719038009644,
        "2": -2.5953421592712402,
        "3": -2.447052240371704
      },
      {
        "0": -0.12772631645202637,
        "1": -0.14109858870506287,
        "2": -2.3077304363250732,
        "3": -2.3339812755584717
      },
      {
        "0": -0.1354324221611023,
        "1": -0.13199827075004578,
        "2": -2.38795804977417,
        "3": -2.530947208404541
      },
      {
        "0": -0.13462887704372406,
        "1": -0.10900472849607468,
        "2": -2.334676742553711,
        "3": -2.3600103855133057
      },
      {
        "0": -0.1365274041891098,
        "1": -0.11762746423482895,
        "2": -2.6411917209625244,
        "3": -2.2065205574035645
      },
      {
        "0": -0.12876741588115692,
        "1": -0.11998364329338074,
        "2": -2.25726318359375,
        "3": -2.301757574081421
      },
      {
        "0": -0.10322227329015732,
        "1": -0.12416554242372513,
        "2": -2.60170578956604,
        "3": -2.268442153930664
      },
      {
        "0": -0.09598010778427124,
        "1": -0.12117776274681091,
        "2": -2.441420555114746,
        "3": -2.584054470062256
      },
      {
        "0": -0.09815394878387451,
        "1": -0.15033148229122162,
        "2": -2.5044476985931396,
        "3": -2.3820581436157227
      },
      {
        "0": -0.10806671530008316,
        "1": -0.09911695867776871,
        "2": -2.1146347522735596,
        "3": -2.39595365524292
      },
      {
        "0": -0.10965888202190399,
        "1": -0.1904638707637787,
        "2": -2.3004541397094727,
        "3": -2.541154146194458
      },
      {
        "0": -0.11801490187644958,
        "1": -0.11795549839735031,
        "2": -2.5868966579437256,
        "3": -2.4572606086730957
      },
      {
        "0": -0.10554476827383041,
        "1": -0.10670588165521622,
        "2": -2.2732512950897217,
        "3": -2.593785285949707
      },
      {
        "0": -0.10482215881347656,
        "1": -0.10526017844676971,
        "2": -2.5109596252441406,
        "3": -2.2079360485076904
      },
      {
        "0": -0.10165813565254211,
        "1": -0.1005173921585083,
        "2": -2.2217659950256348,
        "3": -2.217806577682495
      },
      {
        "0": -0.10781662911176682,
        "1": -0.1106797456741333,
        "2": -2.4717307090759277,
        "3": -2.924224615097046
      },
      {
        "0": -0.10307832062244415,
        "1": -0.10779645293951035,
        "2": -2.500920057296753,
        "3": -2.4503095149993896
      },
      {
        "0": -0.11405468732118607,
        "1": -0.13303957879543304,
        "2": -2.5112693309783936,
        "3": -2.4955575466156006
      },
      {
        "0": -0.126371368765831,
        "1": -0.11583903431892395,
        "2": -2.1750011444091797,
        "3": -2.346294403076172
      },
      {
        "0": -0.12252042442560196,
        "1": -0.12776772677898407,
        "2": -2.0924534797668457,
        "3": -3.046175479888916
      },
      {
        "0": -0.10729588568210602,
        "1": -0.12642855942249298,
        "2": -2.2826921939849854,
        "3": -2.394611120223999
      },
      {
        "0": -0.12277094274759293,
        "1": -0.127233624458313,
        "2": -1.85203218460083,
        "3": -2.317772388458252
      },
      {
        "0": -0.11097580194473267,
        "1": -0.11663072556257248,
        "2": -3.270904064178467,
        "3": -3.044830799102783
      },
      {
        "0": -0.11641526967287064,
        "1": -0.12386416643857956,
        "2": -2.268230676651001,
        "3": -2.1277053356170654
      },
      {
        "0": -0.1261795163154602,
        "1": -0.15855321288108826,
        "2": -2.5996341705322266,
        "3": -2.7353103160858154
      },
      {
        "0": -0.10828543454408646,
        "1": -0.1252901256084442,
        "2": -2.5744669437408447,
        "3": -2.409721851348877
      }
    ],
    "agent_mu_history": [
      {
        "0": 0.0,
        "1": 0.0,
        "2": 0.0,
        "3": 0.0
      },
      {
        "0": 0.0,
        "1": 0.0,
        "2": 0.0,
        "3": 0.0
      },
      {
        "0": 0.0,
        "1": 0.0,
        "2": 0.0,
        "3": 0.0
      },
      {
        "0": 0.0,
        "1": 0.0,
        "2": 0.0,
        "3": 0.0
      },
      {
        "0": 0.0,
        "1": 0.0,
        "2": 0.0,
        "3": 0.0
      },
      {
        "0": 0.0,
        "1": 0.0,
        "2": 0.0,
        "3": 0.0
      },
      {
        "0": 0.0,
        "1": 0.0,
        "2": 0.0,
        "3": 0.0
      },
      {
        "0": 0.0,
        "1": 0.0,
        "2": 0.0,
        "3": 0.0
      },
      {
        "0": 0.0,
        "1": 0.0,
        "2": 0.0,
        "3": 0.0
      },
      {
        "0": 0.0,
        "1": 0.0,
        "2": 0.0,
        "3": 0.0
      },
      {
        "0": 0.0,
        "1": 0.0,
        "2": 0.0,
        "3": 0.0
      },
      {
        "0": 0.0,
        "1": 0.0,
        "2": 0.0,
        "3": 0.0
      },
      {
        "0": 0.0,
        "1": 0.0,
        "2": 0.0,
        "3": 0.0
      },
      {
        "0": 0.0,
        "1": 0.0,
        "2": 0.0,
        "3": 0.0
      },
      {
        "0": 0.0,
        "1": 0.0,
        "2": 0.0,
        "3": 0.0
      },
      {
        "0": 0.0,
        "1": 0.0,
        "2": 0.0,
        "3": 0.0
      },
      {
        "0": 0.0,
        "1": 0.0,
        "2": 0.0,
        "3": 0.0
      },
      {
        "0": 0.0,
        "1": 0.0,
        "2": 0.0,
        "3": 0.0
      },
      {
        "0": 0.0,
        "1": 0.0,
        "2": 0.0,
        "3": 0.0
      },
      {
        "0": 0.0,
        "1": 0.0,
        "2": 0.0,
        "3": 0.0
      },
      {
        "0": 0.0,
        "1": 0.0,
        "2": 0.0,
        "3": 0.0
      },
      {
        "0": 0.0,
        "1": 0.0,
        "2": 0.0,
        "3": 0.0
      },
      {
        "0": 0.0,
        "1": 0.0,
        "2": 0.0,
        "3": 0.0
      },
      {
        "0": 0.0,
        "1": 0.0,
        "2": 0.0,
        "3": 0.0
      },
      {
        "0": 0.0,
        "1": 0.0,
        "2": 0.0,
        "3": 0.0
      },
      {
        "0": 0.0,
        "1": 0.0,
        "2": 0.0,
        "3": 0.0
      },
      {
        "0": 0.0,
        "1": 0.0,
        "2": 0.0,
        "3": 0.0
      },
      {
        "0": 0.0,
        "1": 0.0,
        "2": 0.0,
        "3": 0.0
      },
      {
        "0": 0.0,
        "1": 0.0,
        "2": 0.0,
        "3": 0.0
      },
      {
        "0": 0.0,
        "1": 0.0,
        "2": 0.0,
        "3": 0.0
      },
      {
        "0": 0.0,
        "1": 0.0,
        "2": 0.0,
        "3": 0.0
      },
      {
        "0": 0.0,
        "1": 0.0,
        "2": 0.0,
        "3": 0.0
      },
      {
        "0": 0.0,
        "1": 0.0,
        "2": 0.0,
        "3": 0.0
      },
      {
        "0": 0.0,
        "1": 0.0,
        "2": 0.0,
        "3": 0.0
      },
      {
        "0": 0.0,
        "1": 0.0,
        "2": 0.0,
        "3": 0.0
      },
      {
        "0": 0.0,
        "1": 0.0,
        "2": 0.0,
        "3": 0.0
      },
      {
        "0": 0.0,
        "1": 0.0,
        "2": 0.0,
        "3": 0.0
      },
      {
        "0": 0.0,
        "1": 0.0,
        "2": 0.0,
        "3": 0.0
      },
      {
        "0": 0.0,
        "1": 0.0,
        "2": 0.0,
        "3": 0.0
      },
      {
        "0": 0.0,
        "1": 0.0,
        "2": 0.0,
        "3": 0.0
      }
    ],
    "agent_noisy_clients": [
      2,
      3
    ],
    "agent_probe_heldout": true,
    "agent_adaptive_mu": false,
    "eval": {
      "threshold": 0.5,
      "micro_f1": 0.7163420829805249,
      "macro_f1_present": 0.2306104584638701,
      "best_threshold": 0.35,
      "best_micro_f1": 0.7006830052229811,
      "best_macro_f1_present": 0.23673786192983595,
      "macro_ap": 0.27053173741723624,
      "macro_auroc": 0.7907738471449903
    }
  }
}
